svm_type c_svc
kernel_type rbf
gamma 0.1
nr_class 2
total_sv 2
rho -1.0
label 1 -1
nr_sv 1 1
SV
0.0 1:0.1465 2:0.1742 3:0.3277 4:0.5003 5:0.6162 6:0.691 7:0.6547 
1.0 1:0.0667 2:0.0653 3:0.0913 4:0.1024 5:0.2662 6:0.28921 7:0.2073 
