svm_type c_svc
kernel_type rbf
gamma 0.142857
nr_class 2
total_sv 24118
rho 3.19555
label 0 1
nr_sv 12059 12059
SV
1 1:0.0493 2:0.0415 3:0.0447 4:0.0492 5:0.0813 6:0.1061 7:0.1072 
1 1:0.0667 2:0.0574 3:0.0574 4:0.0674 5:0.0903 6:0.1067 7:0.0968 
1 1:0.1442 2:0.1525 3:0.2139 4:0.2849 5:0.3306 6:0.3625 7:0.3357 
1 1:0.1476 2:0.1569 3:0.2132 4:0.268 5:0.3071 6:0.3323 7:0.2942 
1 1:0.1524 2:0.1583 3:0.2133 4:0.2763 5:0.3241 6:0.3523 7:0.3166 
1 1:0 2:0.1757 3:0.2193 4:0.2785 5:0.3271 6:0.3466 7:0.3194 
1 1:0.2167 2:0.2043 3:0.2546 4:0.2586 5:0.35221 6:0.2057 7:0.1887 
1 1:0.0736 2:0.0729 3:0.1263 4:0.2036 5:0.2262 6:0.4383 7:0.3198 
1 1:0.0784 2:0.0803 3:0.1333 4:0.2132 5:0.2432 6:0.4687 7:0.35 
1 1:0.0919 2:0.0952 3:0.1539 4:0.2272 5:0.2654 6:0.4453 7:0.3107 
1 1:0.0602 2:0.0602 3:0.1101 4:0.1793 5:0.2003 6:0.4157 7:0.2922 
1 1:0.0797 2:0.0792 3:0.136 4:0.2143 5:0.2429 6:0.453 7:0.3311 
1 1:0.1075 2:0.119 3:0.2172 4:0.3399 5:0.4002 6:0.5623 7:0.4709 
1 1:0.1159 2:0.1266 3:0.2249 4:0.3562 5:0.4187 6:0.5901 7:0.5043 
1 1:0.1154 2:0.1252 3:0.2078 4:0.3075 5:0.3739 6:0.5357 7:0.4426 
1 1:0.0989 2:0.1089 3:0.2023 4:0.3204 5:0.3859 6:0.5432 7:0.449 
1 1:0.0102 2:0.0145 3:0.0464 4:0.076 5:0.1005 6:0.091 7:0.051 
1 1:0.0987 2:0.1055 3:0.1576 4:0.2181 5:0.27 6:0.2564 7:0.1652 
1 1:0.1763 2:0.1832 3:0.2545 4:0.3278 5:0.3851 6:0.3777 7:0.2859 
1 1:0.0885 2:0.0944 3:0.1462 4:0.2031 5:0.2583 6:0.2535 7:0.1663 
1 1:0.0929 2:0.1002 3:0.1502 4:0.2123 5:0.2639 6:0.2579 7:0.1677 
1 1:0.0919 2:0.1083 3:0.2044 4:0.3235 5:0.4136 6:0.5027 7:0.4661 
1 1:0.1045 2:0.1176 3:0.202 4:0.3097 5:0.3961 6:0.4883 7:0.4446 
1 1:0.1023 2:0.119 3:0.2014 4:0.3107 5:0.4023 6:0.4917 7:0.443 
1 1:0.093 2:0.1106 3:0.2033 4:0.3192 5:0.4125 6:0.4972 7:0.4432 
1 1:0.0652 2:0.0774 3:0.1464 4:0.2217 5:0.2941 6:0.3592 7:0.33 
1 1:0.0841 2:0.0953 3:0.1552 4:0.2219 5:0.2775 6:0.3626 7:0.3311 
1 1:0.0859 2:0.0953 3:0.1572 4:0.2257 5:0.2884 6:0.3646 7:0.334 
1 1:0.0586 2:0.0723 3:0.1372 4:0.2 5:0.2597 6:0.3504 7:0.3121 
1 1:0.0971 2:0.1047 3:0.16 4:0.2262 5:0.2842 6:0.3409 7:0.3114 
1 1:0.0762 2:0.0817 3:0.1444 4:0.2151 5:0.2611 6:0.3784 7:0.3723 
1 1:0.1034 2:0.1097 3:0.175 4:0.2474 5:0.2906 6:0.4207 7:0.3993 
1 1:0.0835 2:0.0915 3:0.1562 4:0.2296 5:0.2714 6:0.4066 7:0.4048 
1 1:0.0723 2:0.0754 3:0.1395 4:0.2095 5:0.2545 6:0.3684 7:0.3571 
1 1:0 2:0.105 3:0.1491 4:0.2105 5:0.2535 6:0.3673 7:0.3402 
1 1:0.0657 2:0.0742 3:0.1329 4:0.1962 5:0.2341 6:0.3061 7:0.2951 
1 1:0.0971 2:0.1046 3:0.1645 4:0.2342 5:0.2746 6:0.3467 7:0.3258 
1 1:0.085 2:0.0907 3:0.1509 4:0.2229 5:0.2636 6:0.34 7:0.3303 
1 1:0.0684 2:0.0787 3:0.135 4:0.1979 5:0.2373 6:0.306 7:0.2876 
1 1:0 2:0.102 3:0.1457 4:0.2014 5:0.2359 6:0.3072 7:0.2867 
1 1:0.0769 2:0.08 3:0.1341 4:0.1937 5:0.2307 6:0.322 7:0.2965 
1 1:0.0894 2:0.0921 3:0.1422 4:0.2014 5:0.2406 6:0.3302 7:0.3001 
1 1:0.0832 2:0.0861 3:0.1331 4:0.1929 5:0.233 6:0.3201 7:0.2933 
1 1:0.0784 2:0.0814 3:0.1313 4:0.1889 5:0.2284 6:0.3194 7:0.2877 
1 1:0 2:0.1106 3:0.1523 4:0.2022 5:0.2449 6:0.3184 7:0.2962 
1 1:0.0924 2:0.1036 3:0.196 4:0.3082 5:0.3786 6:0.4907 7:0.4505 
1 1:0.1041 2:0.1153 3:0.2036 4:0.3175 5:0.4013 6:0.5161 7:0.4676 
1 1:0.1015 2:0.1102 3:0.1873 4:0.2972 5:0.3842 6:0.5 7:0.443 
1 1:0.0884 2:0.1035 3:0.1887 4:0.3044 5:0.3747 6:0.4869 7:0.4297 
1 1:0 2:0.1204 3:0.1883 4:0.289 5:0.3611 6:0.4789 7:0.4252 
1 1:0.0402 2:0.04 3:0.0772 4:0.1186 5:0.1461 6:0.2431 7:0.2156 
1 1:0.0842 2:0.0886 3:0.1409 4:0.2054 5:0.2532 6:0.3995 7:0.347 
1 1:0.0813 2:0.0831 3:0.1271 4:0.1851 5:0.2262 6:0.3526 7:0.3032 
1 1:0.0446 2:0.0452 3:0.0826 4:0.1244 5:0.1542 6:0.2615 7:0.2191 
1 1:0 2:0.0813 3:0.1203 4:0.1687 5:0.2029 6:0.3155 7:0.2682 
1 1:0.1072 2:0.1114 3:0.1631 4:0.2218 5:0.2417 6:0.266 7:0.2565 
1 1:0.1122 2:0.1157 3:0.1653 4:0.2243 5:0.2445 6:0.272 7:0.2602 
1 1:0.1094 2:0.1117 3:0.1555 4:0.2134 5:0.2341 6:0.2611 7:0.2512 
1 1:0.1063 2:0.1095 3:0.1565 4:0.2115 5:0.2304 6:0.2543 7:0.2382 
1 1:0.1122 2:0.1141 3:0.1632 4:0.2234 5:0.2454 6:0.2704 7:0.2582 
1 1:0.0934 2:0.0995 3:0.157 4:0.2369 5:0.2676 6:0.2994 7:0.2893 
1 1:0.1052 2:0.1105 3:0.1669 4:0.2474 5:0.2834 6:0.3196 7:0.3058 
1 1:0.1003 2:0.1042 3:0.1572 4:0.237 5:0.2741 6:0.3072 7:0.2919 
1 1:0.0913 2:0.0942 3:0.1473 4:0.2186 5:0.25 6:0.2802 7:0.2628 
1 1:0.1004 2:0.1059 3:0.1631 4:0.2456 5:0.2836 6:0.3173 7:0.3011 
1 1:0.0723 2:0.0791 3:0.155 4:0.2531 5:0.29 6:0.4499 7:0.3975 
1 1:0.0773 2:0.0822 3:0.1549 4:0.2541 5:0.2954 6:0.467 7:0.4094 
1 1:0.063 2:0.0653 3:0.1311 4:0.2323 5:0.2732 6:0.453 7:0.3911 
1 1:0.0691 2:0.0731 3:0.1425 4:0.2375 5:0.2745 6:0.4415 7:0.374 
1 1:0.0732 2:0.0804 3:0.1542 4:0.2549 5:0.2954 6:0.4645 7:0.4007 
1 1:0.1001 2:0.1073 3:0.1625 4:0.2339 5:0.2665 6:0.2991 7:0.2842 
1 1:0.1192 2:0.1246 3:0.1833 4:0.263 5:0.3006 6:0.3352 7:0.3197 
1 1:0.1125 2:0.1162 3:0.1714 4:0.2473 5:0.2821 6:0.3187 7:0.3028 
1 1:0.1042 2:0.109 3:0.1605 4:0.2292 5:0.2624 6:0.2927 7:0.2709 
1 1:0.1132 2:0.1189 3:0.1779 4:0.2554 5:0.2924 6:0.3284 7:0.3056 
1 1:0.1126 2:0.1206 3:0.1933 4:0.2752 5:0.3079 6:0.3594 7:0.3508 
1 1:0.1195 2:0.1261 3:0.187 4:0.261 5:0.2937 6:0.345 7:0.3361 
1 1:0.1102 2:0.1189 3:0.1852 4:0.27 5:0.3054 6:0.354 7:0.3456 
1 1:0.1115 2:0.1201 3:0.19 4:0.272 5:0.3053 6:0.361 7:0.3531 
1 1:0.1077 2:0.1135 3:0.1803 4:0.2701 5:0.3155 6:0.4104 7:0.4005 
1 1:0.1099 2:0.1162 3:0.1846 4:0.2816 5:0.3306 6:0.4309 7:0.4233 
1 1:0.1123 2:0.1147 3:0.1755 4:0.2654 5:0.314 6:0.4111 7:0.3997 
1 1:0.1006 2:0.1061 3:0.1694 4:0.2634 5:0.3124 6:0.4089 7:0.3997 
1 1:0.1062 2:0.1136 3:0.1807 4:0.2756 5:0.3246 6:0.4217 7:0.4096 
1 1:0.0831 2:0.0919 3:0.1594 4:0.2296 5:0.2552 6:0.3252 7:0.2771 
1 1:0.0872 2:0.0924 3:0.1546 4:0.2217 5:0.2481 6:0.3176 7:0.2727 
1 1:0.0969 2:0.1019 3:0.1621 4:0.2305 5:0.2594 6:0.3265 7:0.275 
1 1:0.0861 2:0.0933 3:0.1551 4:0.2239 5:0.2511 6:0.3147 7:0.2657 
1 1:0.0832 2:0.0899 3:0.1513 4:0.2179 5:0.2441 6:0.313 7:0.2651 
1 1:0.0695 2:0.0723 3:0.1136 4:0.167 5:0.1949 6:0.2151 7:0.2063 
1 1:0.0857 2:0.0882 3:0.1322 4:0.1925 5:0.2248 6:0.2462 7:0.2352 
1 1:0.0804 2:0.0805 3:0.1197 4:0.1756 5:0.2074 6:0.2279 7:0.2164 
1 1:0.0673 2:0.0695 3:0.1117 4:0.1697 5:0.2004 6:0.224 7:0.2133 
1 1:0.0789 2:0.0807 3:0.1242 4:0.1836 5:0.2166 6:0.2402 7:0.2269 
1 1:0.0924 2:0.0997 3:0.1623 4:0.2249 5:0.2479 6:0.2851 7:0.2921 
1 1:0.1097 2:0.1145 3:0.1774 4:0.2423 5:0.2655 6:0.3057 7:0.3132 
1 1:0.114 2:0.1199 3:0.1779 4:0.2374 5:0.2622 6:0.2986 7:0.2969 
1 1:0.1047 2:0.1105 3:0.1691 4:0.2289 5:0.2524 6:0.2923 7:0.2886 
1 1:0.1044 2:0.1101 3:0.1662 4:0.2265 5:0.2495 6:0.2867 7:0.2948 
1 1:0.0953 2:0.1032 3:0.1697 4:0.2486 5:0.2552 6:0.2937 7:0.2674 
1 1:0.1065 2:0.115 3:0.1792 4:0.2572 5:0.2667 6:0.3103 7:0.2841 
1 1:0.1197 2:0.1246 3:0.1823 4:0.2484 5:0.2579 6:0.2902 7:0.2572 
1 1:0.1034 2:0.1092 3:0.1747 4:0.2523 5:0.2644 6:0.2995 7:0.2633 
1 1:0.1091 2:0.116 3:0.1783 4:0.2536 5:0.2604 6:0.2984 7:0.2691 
1 1:0.0919 2:0.1019 3:0.1704 4:0.2555 5:0.2907 6:0.3352 7:0.3325 
1 1:0.1084 2:0.1162 3:0.1845 4:0.2707 5:0.3064 6:0.3542 7:0.354 
1 1:0.1143 2:0.1195 3:0.1775 4:0.2541 5:0.2907 6:0.3295 7:0.316 
1 1:0.1019 2:0.1092 3:0.1766 4:0.2622 5:0.2992 6:0.3443 7:0.3308 
1 1:0.1072 2:0.1136 3:0.1776 4:0.259 5:0.2947 6:0.3417 7:0.3373 
1 1:0.119 2:0.1322 3:0.2172 4:0.3114 5:0.3359 6:0.4019 7:0.3513 
1 1:0.0866 2:0.0985 3:0.1802 4:0.2859 5:0.3293 6:0.4294 7:0.4288 
1 1:0.0843 2:0.0969 3:0.1782 4:0.2818 5:0.3281 6:0.4302 7:0.4254 
1 1:0.0894 2:0.0991 3:0.1752 4:0.2762 5:0.3252 6:0.4255 7:0.4143 
1 1:0.0952 2:0.1061 3:0.1853 4:0.2882 5:0.3385 6:0.4413 7:0.4248 
1 1:0.0954 2:0.1032 3:0.1781 4:0.2738 5:0.3187 6:0.4204 7:0.4171 
1 1:0.0454 2:0.0481 3:0.1072 4:0.2178 5:0.2655 6:0.4253 7:0.4056 
1 1:0.0781 2:0.0777 3:0.1282 4:0.2308 5:0.2817 6:0.4448 7:0.4096 
1 1:0.117 2:0.1175 3:0.1714 4:0.2633 5:0.3072 6:0.442 7:0.3927 
1 1:0.085 2:0.0872 3:0.1445 4:0.2404 5:0.2832 6:0.4225 7:0.3998 
1 1:0.0446 2:0.052 3:0.1162 4:0.2287 5:0.2767 6:0.4044 7:0.3912 
1 1:0.071 2:0.0751 3:0.1357 4:0.2446 5:0.2895 6:0.42 7:0.4056 
1 1:0.0803 2:0.0833 3:0.1443 4:0.2514 5:0.3007 6:0.4354 7:0.4036 
1 1:0.0959 2:0.101 3:0.1596 4:0.2591 5:0.3032 6:0.4294 7:0.4019 
1 1:0.0856 2:0.0901 3:0.1525 4:0.2626 5:0.3142 6:0.4503 7:0.4299 
1 1:0.0432 2:0.0519 3:0.1391 4:0.2833 5:0.3435 6:0.5125 7:0.4951 
1 1:0.0732 2:0.0788 3:0.1518 4:0.2822 5:0.3439 6:0.5117 7:0.4798 
1 1:0.0953 2:0.0991 3:0.171 4:0.2942 5:0.3522 6:0.5128 7:0.4833 
1 1:0.1002 2:0.1044 3:0.1728 4:0.2899 5:0.3461 6:0.5005 7:0.4503 
1 1:0.0666 2:0.0714 3:0.1507 4:0.2996 5:0.3695 6:0.5661 7:0.5388 
1 1:0.0563 2:0.0656 3:0.158 4:0.3065 5:0.371 6:0.5103 7:0.5061 
1 1:0.085 2:0.0919 3:0.1723 4:0.3082 5:0.3737 6:0.5147 7:0.4944 
1 1:0.0866 2:0.0932 3:0.1757 4:0.3175 5:0.3842 6:0.5275 7:0.5083 
1 1:0.0802 2:0.0846 3:0.1668 4:0.3087 5:0.3759 6:0.5241 7:0.5148 
1 1:0.15 2:0.1713 3:0.3014 4:0.4162 5:0.573 6:0.7 7:0.59 
1 1:0.1482 2:0.1695 3:0.2835 4:0.3947 5:0.5216 6:0.6611 7:0.5755 
1 1:0.074 2:0.0811 3:0.1419 4:0.2242 5:0.3353 6:0.4256 7:0.3045 
1 1:0.0694 2:0.0783 3:0.1437 4:0.2267 5:0.3236 6:0.4123 7:0.3053 
1 1:0.091 2:0.0982 3:0.1745 4:0.2748 5:0.3817 6:0.4891 7:0.3711 
1 1:0.0979 2:0.1063 3:0.1699 4:0.2614 5:0.3359 6:0.4645 7:0.3473 
1 1:0.0762 2:0.0916 3:0.1694 4:0.249 5:0.2923 6:0.3849 7:0.364 
1 1:0.0905 2:0.1011 3:0.1749 4:0.2576 5:0.3115 6:0.4023 7:0.3632 
1 1:0.1109 2:0.1226 3:0.1921 4:0.2796 5:0.3337 6:0.4363 7:0.4109 
1 1:0.0842 2:0.0986 3:0.1738 4:0.2539 5:0.3015 6:0.389 7:0.3576 
1 1:0 2:0.1282 3:0.1915 4:0.2641 5:0.331 6:0.4186 7:0.3758 
1 1:0.0894 2:0.1004 3:0.1732 4:0.2772 5:0.3744 6:0.4929 7:0.4076 
1 1:0.1131 2:0.1225 3:0.195 4:0.2982 5:0.3923 6:0.5124 7:0.4229 
1 1:0.1081 2:0.1181 3:0.1895 4:0.2957 5:0.3974 6:0.5246 7:0.4397 
1 1:0.1131 2:0.12 3:0.1859 4:0.2844 5:0.3743 6:0.4991 7:0.4185 
1 1:0 2:0.1294 3:0.1906 4:0.281 5:0.3667 6:0.4809 7:0.3854 
1 1:0.1302 2:0.1482 3:0.2534 4:0.3773 5:0.4698 6:0.5715 7:0.5042 
1 1:0.1229 2:0.1427 3:0.2466 4:0.3739 5:0.4702 6:0.5832 7:0.4938 
1 1:0.1257 2:0.1382 3:0.2435 4:0.3626 5:0.4684 6:0.5758 7:0.4652 
1 1:0.1125 2:0.1352 3:0.246 4:0.3782 5:0.4717 6:0.5698 7:0.505 
1 1:0 2:0.1459 3:0.2489 4:0.368 5:0.4561 6:0.5462 7:0.4685 
1 1:0.1184 2:0.1316 3:0.2239 4:0.3295 5:0.4176 6:0.4745 7:0.4322 
1 1:0.1231 2:0.134 3:0.2189 4:0.3044 5:0.3996 6:0.4377 7:0.3746 
1 1:0.1162 2:0.131 3:0.2323 4:0.346 5:0.4379 6:0.4777 7:0.4564 
1 1:0 2:0.1365 3:0.2292 4:0.3233 5:0.4149 6:0.4604 7:0.4377 
1 1:0 2:0.2165 3:0.2506 4:0.264 5:0.4243 6:0.3654 7:0.3058 
1 1:0.283 2:0.2682 3:0.2882 4:0.3005 5:0.42421 6:0.4082 7:0.3114 
1 1:0.111 2:0.1249 3:0.2365 4:0.3906 5:0.4895 6:0.6094 7:0.5408 
1 1:0.1111 2:0.1263 3:0.237 4:0.4002 5:0.5082 6:0.6385 7:0.5584 
1 1:0.1092 2:0.1231 3:0.2342 4:0.4023 5:0.5085 6:0.6374 7:0.5707 
1 1:0.0946 2:0.1127 3:0.2253 4:0.3777 5:0.4722 6:0.5872 7:0.5182 
1 1:0.1082 2:0.1247 3:0.2385 4:0.4029 5:0.5082 6:0.6352 7:0.5651 
1 1:0.1152 2:0.1242 3:0.2096 4:0.3093 5:0.3533 6:0.4954 7:0.4256 
1 1:0.1342 2:0.1431 3:0.2231 4:0.314 5:0.3527 6:0.4955 7:0.426 
1 1:0.1169 2:0.126 3:0.2062 4:0.3114 5:0.3594 6:0.512 7:0.4416 
1 1:0.1161 2:0.1252 3:0.2151 4:0.3224 5:0.3694 6:0.5143 7:0.4361 
1 1:0.1286 2:0.1362 3:0.2274 4:0.3291 5:0.3788 6:0.5249 7:0.4438 
1 1:0.1265 2:0.1294 3:0.1869 4:0.2865 5:0.3399 6:0.364 7:0.3461 
1 1:0.1222 2:0.1296 3:0.1943 4:0.2963 5:0.3463 6:0.374 7:0.3624 
1 1:0.1052 2:0.1156 3:0.1699 4:0.2197 5:0.2993 6:0.3895 7:0.3469 
1 1:0.1302 2:0.1385 3:0.1946 4:0.2496 5:0.3313 6:0.4242 7:0.3766 
1 1:0.1269 2:0.137 3:0.2001 4:0.2651 5:0.368 6:0.4763 7:0.4042 
1 1:0.1174 2:0.1214 3:0.1632 4:0.2051 5:0.2902 6:0.3796 7:0.321 
1 1:0.1231 2:0.1304 3:0.2122 4:0.3036 5:0.3388 6:0.5166 7:0.4408 
1 1:0.1322 2:0.1393 3:0.2156 4:0.3067 5:0.3467 6:0.5266 7:0.4516 
1 1:0.1292 2:0.1361 3:0.2151 4:0.3105 5:0.3503 6:0.5344 7:0.4581 
1 1:0 2:0.146 3:0.222 4:0.3085 5:0.3521 6:0.5186 7:0.4389 
1 1:0.0441 2:0.0349 3:0.0381 4:0.0462 5:0.0662 6:0.1149 7:0.1271 
1 1:0.0914 2:0.0832 3:0.1118 4:0.111 5:0.1933 6:0.0755 7:0.0232 
1 1:0.1146 2:0.1045 3:0.1174 4:0.1223 5:0.1985 6:0.2125 7:0.115 
1 1:0.0966 2:0.0932 3:0.1307 4:0.1393 5:0.2116 6:0.1802 7:0.08 
1 1:0.1223 2:0.1143 3:0.1328 4:0.1416 5:0.2043 6:0.1834 7:0.0952 
1 1:0.0703 2:0.0547 3:0.0607 4:0.0567 5:0.0854 6:0.0714 7:0.0297 
1 1:0.0492 2:0.0492 3:0.0751 4:0.1047 5:0.1163 6:0.1063 7:0.0959 
1 1:0.0707 2:0.0726 3:0.1053 4:0.1469 5:0.1652 6:0.1543 7:0.1397 
1 1:0.0821 2:0.081 3:0.1102 4:0.1437 5:0.1614 6:0.1529 7:0.13 
1 1:0.0564 2:0.0543 3:0.0792 4:0.1121 5:0.1303 6:0.1219 7:0.1073 
1 1:0 2:0.0799 3:0.1015 4:0.1242 5:0.139 6:0.1265 7:0.1091 
1 1:0.0647 2:0.0656 3:0.0896 4:0.1205 5:0.1641 6:0.1935 7:0.1758 
1 1:0.0783 2:0.0782 3:0.109 4:0.1442 5:0.1833 6:0.2062 7:0.1811 
1 1:0.0717 2:0.0694 3:0.0955 4:0.1237 5:0.1654 6:0.1949 7:0.1699 
1 1:0.0627 2:0.062 3:0.0913 4:0.1249 5:0.1641 6:0.1895 7:0.1721 
1 1:0.058 2:0.0581 3:0.0862 4:0.1169 5:0.1597 6:0.19 7:0.172 
1 1:0.0616 2:0.0621 3:0.0971 4:0.1322 5:0.1642 6:0.1671 7:0.1464 
1 1:0.0602 2:0.0609 3:0.0884 4:0.117 5:0.1451 6:0.1453 7:0.1285 
1 1:0.0574 2:0.0576 3:0.0849 4:0.1192 5:0.1607 6:0.1501 7:0.1263 
1 1:0.0441 2:0.0456 3:0.0713 4:0.1044 5:0.1452 6:0.1328 7:0.1157 
1 1:0.0744 2:0.0803 3:0.121 4:0.164 5:0.188 6:0.1841 7:0.1489 
1 1:0.083 2:0.0869 3:0.1261 4:0.1655 5:0.1896 6:0.1871 7:0.1474 
1 1:0.086 2:0.0902 3:0.1261 4:0.1581 5:0.1807 6:0.1753 7:0.1401 
1 1:0.0672 2:0.0724 3:0.1094 4:0.1503 5:0.1753 6:0.1721 7:0.1399 
1 1:0 2:0.0909 3:0.1132 4:0.1419 5:0.2061 6:0.1645 7:0.1242 
1 1:0.0495 2:0.0555 3:0.097 4:0.147 5:0.1886 6:0.2142 7:0.1844 
1 1:0.0709 2:0.0752 3:0.1204 4:0.1723 5:0.2192 6:0.2387 7:0.201 
1 1:0.081 2:0.0837 3:0.1252 4:0.1716 5:0.2097 6:0.2282 7:0.1925 
1 1:0.0491 2:0.0519 3:0.0931 4:0.1393 5:0.1782 6:0.211 7:0.1827 
1 1:0 2:0.0884 3:0.1084 4:0.1395 5:0.1844 6:0.1985 7:0.1631 
1 1:0.1023 2:0.1002 3:0.1403 4:0.1755 5:0.3561 6:0.36 7:0.2923 
1 1:0.0774 2:0.0746 3:0.11521 4:0.1473 5:0.3175 6:0.3262 7:0.2713 
1 1:0.0646 2:0.0683 3:0.1271 4:0.1773 5:0.3075 6:0.3533 7:0.3081 
1 1:0.10621 2:0.1069 3:0.1545 4:0.2075 5:0.313 6:0.4252 7:0.3785 
1 1:0 2:0.1866 3:0.2104 4:0.2311 5:0.3386 6:0.3257 7:0.2749 
1 1:0.23721 2:0.2274 3:0.2583 4:0.2642 5:0.4749 6:0.4328 7:0.3446 
1 1:0.0175 2:0.0147 3:0.0226 4:0.0303 5:0.0662 6:0.0762 7:0.0628 
1 1:0.0116 2:0.0077 3:0.0141 4:0.0205 5:0.0492 6:0.0572 7:0.0412 
1 1:0.0299 2:0.027 3:0.0403 4:0.0517 5:0.1014 6:0.109 7:0.0815 
1 1:0.0175 2:0.0129 3:0.0187 4:0.0242 5:0.0627 6:0.0721 7:0.0583 
1 1:0 2:0.0469 3:0.0413 4:0.0489 5:0.096 6:0.0884 7:0.0698 
1 1:0.0862 2:0.1007 3:0.2031 4:0.3352 5:0.4067 6:0.5078 7:0.4786 
1 1:0.1073 2:0.1191 3:0.2144 4:0.3523 5:0.4336 6:0.5349 7:0.4928 
1 1:0.1041 2:0.1144 3:0.206 4:0.345 5:0.4264 6:0.5266 7:0.4848 
1 1:0.0726 2:0.0872 3:0.1875 4:0.3167 5:0.3842 6:0.4827 7:0.4513 
1 1:0.1072 2:0.1172 3:0.2137 4:0.351 5:0.4292 6:0.5301 7:0.4941 
1 1:0 2:0.2503 3:0.2497 4:0.2374 5:0.24221 6:0.1635 7:0.1045 
1 1:0 2:0.25 3:0.2395 4:0.2205 5:0.24721 6:0.1732 7:0.1512 
1 1:0 2:0.23421 3:0.2155 4:0.2044 5:0.21 6:0.1343 7:0.1131 
1 1:0.19521 2:0.1802 3:0.2051 4:0.2082 5:0.3557 6:0.3305 7:0.2538 
1 1:0.0411 2:0.0462 3:0.0759 4:0.1135 5:0.2214 6:0.3479 7:0.2448 
1 1:0.2525 2:0.242 3:0.2882 4:0.2932 5:0.5171 6:0.4715 7:0.3313 
1 1:0.3111 2:0.2872 3:0.3113 4:0.3047 5:0.5292 6:0.4062 7:0.3411 
1 1:0 2:0.31321 3:0.319 4:0.3102 5:0.4756 6:0.3865 7:0.2983 
1 1:0 2:0.2632 3:0.2761 4:0.2687 5:0.4376 6:0.3437 7:0.2971 
1 1:0.1527 2:0.1571 3:0.15 4:0.1631 5:0.3035 6:0.2672 7:0.1948 
1 1:0.2773 2:0.25921 3:0.3385 4:0.3389 5:0.567 6:0.4104 7:0.2954 
1 1:0.117 2:0.1235 3:0.1776 4:0.21121 5:0.4218 6:0.4197 7:0.3395 
1 1:0.0985 2:0.091 3:0.1338 4:0.15121 5:0.3336 6:0.3587 7:0.2975 
1 1:0.09721 2:0.0974 3:0.1366 4:0.1782 5:0.2925 6:0.3916 7:0.3453 
1 1:0.11921 2:0.1163 3:0.171 4:0.2029 5:0.3645 6:0.4474 7:0.3974 
1 1:0.1271 2:0.1285 3:0.18221 4:0.2074 5:0.4182 6:0.4229 7:0.3522 
1 1:0.20621 2:0.1811 3:0.235 4:0.2122 5:0.4079 6:0.2804 7:0.2089 
1 1:0.3332 2:0.3061 3:0.31621 4:0.3031 5:0.49 6:0.3429 7:0.2653 
1 1:0.1635 2:0.1476 3:0.1755 4:0.18 5:0.2345 6:0.2214 7:0.1847 
1 1:0.0734 2:0.0782 3:0.1493 4:0.2286 5:0.2937 6:0.4856 7:0.414 
1 1:0.0774 2:0.0772 3:0.1249 4:0.1852 5:0.229 6:0.3353 7:0.2418 
1 1:0.3122 2:0.2874 3:0.2972 4:0.2826 5:0.49121 6:0.2551 7:0.1896 
1 1:0.1934 2:0.17821 3:0.2065 4:0.2203 5:0.3836 6:0.3732 7:0.2815 
1 1:0.1994 2:0.1742 3:0.2062 4:0.2004 5:0.388 6:0.292 7:0.2365 
1 1:0.2641 2:0.2525 3:0.23821 4:0.2429 5:0.4456 6:0.2767 7:0.2184 
1 1:0.2952 2:0.2611 3:0.2766 4:0.2646 5:0.4381 6:0.2007 7:0.1645 
1 1:0.2725 2:0.2482 3:0.2668 4:0.2634 5:0.4335 6:0.3444 7:0.2987 
1 1:0.2295 2:0.214 3:0.2362 4:0.2461 5:0.36821 6:0.3296 7:0.2794 
1 1:0.2812 2:0.2687 3:0.2621 4:0.2595 5:0.4352 6:0.3103 7:0.2703 
1 1:0.2453 2:0.2371 3:0.2307 4:0.2574 5:0.3743 6:0.3997 7:0.3108 
1 1:0.1653 2:0.1472 3:0.1806 4:0.183 5:0.377 6:0.3014 7:0.2189 
1 1:0.1752 2:0.1606 3:0.173 4:0.1697 5:0.3295 6:0.244 7:0.1727 
1 1:0.2121 2:0.2003 3:0.2092 4:0.2134 5:0.39521 6:0.296 7:0.2729 
1 1:0.2491 2:0.2422 3:0.2328 4:0.2492 5:0.3842 6:0.3205 7:0.274 
1 1:0.25521 2:0.2482 3:0.2564 4:0.2691 5:0.3724 6:0.2551 7:0.205 
1 1:0.3161 2:0.2935 3:0.3142 4:0.3093 5:0.5291 6:0.3745 7:0.2862 
1 1:0.2171 2:0.2061 3:0.2416 4:0.2917 5:0.3672 6:0.4041 7:0.3351 
1 1:0.2632 2:0.2464 3:0.2785 4:0.2986 5:0.4003 6:0.3413 7:0.264 
1 1:0.2315 2:0.2132 3:0.2314 4:0.2251 5:0.403 6:0.3142 7:0.2585 
1 1:0 2:0.2222 3:0.2132 4:0.2013 5:0.323 6:0.2051 7:0.1302 
1 1:0.3203 2:0.2893 3:0.3152 4:0.2965 5:0.5317 6:0.3617 7:0.2791 
1 1:0.2926 2:0.2875 3:0.3204 4:0.338 5:0.4825 6:0.2647 7:0.1592 
1 1:0.2147 2:0.1977 3:0.1676 4:0.18721 5:0.3494 6:0.3304 7:0.2518 
1 1:0.2971 2:0.278 3:0.3062 4:0.3144 5:0.4997 6:0.4397 7:0.3398 
1 1:0.1503 2:0.1506 3:0.142 4:0.1697 5:0.3376 6:0.264 7:0.2071 
1 1:0.3232 2:0.29421 3:0.2866 4:0.2797 5:0.437 6:0.2486 7:0.1966 
1 1:0.2375 2:0.2306 3:0.2493 4:0.2637 5:0.3566 6:0.3061 7:0.2517 
1 1:0 2:0.2247 3:0.2583 4:0.2514 5:0.4684 6:0.3934 7:0.2973 
1 1:0.2493 2:0.229 3:0.253 4:0.2607 5:0.4374 6:0.3852 7:0.3275 
1 1:0 2:0.2741 3:0.2833 4:0.2732 5:0.4577 6:0.3074 7:0.2297 
1 1:0.2692 2:0.2535 3:0.2752 4:0.2788 5:0.4332 6:0.4056 7:0.3447 
1 1:0 2:0.1872 3:0.1836 4:0.17721 5:0.2819 6:0.2434 7:0.1856 
1 1:0.2505 2:0.23721 3:0.2524 4:0.261 5:0.3372 6:0.1969 7:0.1534 
1 1:0.2187 2:0.2244 3:0.2081 4:0.2543 5:0.2846 6:0.2355 7:0.1895 
1 1:0.0882 2:0.0898 3:0.1584 4:0.1893 5:0.2617 6:0.2382 7:0.1447 
1 1:0.0543 2:0.0522 3:0.0755 4:0.0931 5:0.1156 6:0.1124 7:0.0776 
1 1:0.0834 2:0.0853 3:0.1151 4:0.1479 5:0.1963 6:0.2405 7:0.2232 
1 1:0.0627 2:0.0653 3:0.1034 4:0.1423 5:0.198 6:0.2539 7:0.2358 
1 1:0.242 2:0.22921 3:0.2425 4:0.2649 5:0.3247 6:0.3222 7:0.2557 
1 1:0.23821 2:0.2333 3:0.2599 4:0.3042 5:0.4469 6:0.4102 7:0.3481 
1 1:0.267 2:0.2416 3:0.2526 4:0.2444 5:0.3801 6:0.2871 7:0.2105 
1 1:0.2027 2:0.1802 3:0.1823 4:0.1846 5:0.2855 6:0.1652 7:0.1468 
1 1:0.1554 2:0.1413 3:0.1496 4:0.1506 5:0.2952 6:0.2092 7:0.1498 
1 1:0.0531 2:0.0556 3:0.0826 4:0.1165 5:0.1776 6:0.2935 7:0.2762 
1 1:0.0537 2:0.0589 3:0.1022 4:0.1415 5:0.227 6:0.3569 7:0.2817 
1 1:0.2682 2:0.252 3:0.2775 4:0.2734 5:0.421 6:0.3155 7:0.2418 
1 1:0.1652 2:0.1655 3:0.2006 4:0.2156 5:0.3514 6:0.2548 7:0.1952 
1 1:0.2917 2:0.2673 3:0.2896 4:0.28121 5:0.4153 6:0.219 7:0.1939 
1 1:0.2263 2:0.208 3:0.2212 4:0.2181 5:0.368 6:0.2452 7:0.1842 
1 1:0.2842 2:0.2615 3:0.2642 4:0.2563 5:0.4153 6:0.2535 7:0.1579 
1 1:0.2237 2:0.2061 3:0.2494 4:0.2445 5:0.425 6:0.3037 7:0.2336 
1 1:0.1135 2:0.1075 3:0.1316 4:0.1416 5:0.2565 6:0.2521 7:0.1823 
1 1:0.0587 2:0.0522 3:0.0667 4:0.0824 5:0.1248 6:0.2394 7:0.2369 
1 1:0.0567 2:0.0583 3:0.0923 4:0.1229 5:0.2143 6:0.3449 7:0.2835 
1 1:0 2:0.317 3:0.3095 4:0.2997 5:0.5217 6:0.33321 7:0.2543 
1 1:0 2:0.247 3:0.24921 4:0.2446 5:0.4056 6:0.2996 7:0.2466 
1 1:0 2:0.19421 3:0.2019 4:0.198 5:0.3273 6:0.1945 7:0.1358 
1 1:0 2:0.2602 3:0.2815 4:0.2886 5:0.4487 6:0.4024 7:0.3359 
1 1:0.0289 2:0.0232 3:0.0298 4:0.0444 5:0.0969 6:0.1085 7:0.0859 
1 1:0 2:0.2785 3:0.2842 4:0.283 5:0.40921 6:0.2859 7:0.192 
1 1:0.2345 2:0.21721 3:0.2362 4:0.2261 5:0.4086 6:0.3191 7:0.2913 
1 1:0.1791 2:0.1677 3:0.1702 4:0.1761 5:0.30921 6:0.2663 7:0.2158 
1 1:0.1943 2:0.1785 3:0.1885 4:0.18621 5:0.3446 6:0.255 7:0.2247 
1 1:0 2:0.2831 3:0.28321 4:0.2714 5:0.4363 6:0.3159 7:0.2132 
1 1:0 2:0.294 3:0.30221 4:0.3074 5:0.4579 6:0.3434 7:0.2472 
1 1:0.216 2:0.20121 3:0.2092 4:0.2152 5:0.3442 6:0.2931 7:0.2521 
1 1:0.2325 2:0.2102 3:0.2414 4:0.2437 5:0.333 6:0.276 7:0.2024 
1 1:0.0577 2:0.0533 3:0.0632 4:0.0889 5:0.148 6:0.2947 7:0.2787 
1 1:0.2262 2:0.2142 3:0.2416 4:0.2554 5:0.3303 6:0.3381 7:0.2851 
1 1:0.2795 2:0.2536 3:0.2751 4:0.2686 5:0.4134 6:0.2891 7:0.2223 
1 1:0.1472 2:0.1343 3:0.1305 4:0.1286 5:0.2803 6:0.1691 7:0.1265 
1 1:0.1827 2:0.1627 3:0.1831 4:0.1715 5:0.42 6:0.2434 7:0.1833 
1 1:0.35121 2:0.3242 3:0.3357 4:0.3344 5:0.5195 6:0.3329 7:0.2317 
1 1:0.1793 2:0.16321 3:0.2272 4:0.2195 5:0.3476 6:0.2827 7:0.2204 
1 1:0 2:0.0602 3:0.0565 4:0.0753 5:0.0966 6:0.1443 7:0.2149 
1 1:0.2664 2:0.2461 3:0.2705 4:0.27921 5:0.4444 6:0.3341 7:0.3091 
1 1:0.1342 2:0.1234 3:0.1718 4:0.1603 5:0.4097 6:0.2892 7:0.1963 
1 1:0.18421 2:0.1686 3:0.1803 4:0.1784 5:0.3776 6:0.2845 7:0.2428 
1 1:0.1322 2:0.1215 3:0.1463 4:0.1437 5:0.3201 6:0.2585 7:0.2102 
1 1:0.2321 2:0.2271 3:0.21821 4:0.2285 5:0.3703 6:0.3107 7:0.2383 
1 1:0.0707 2:0.0657 3:0.0771 4:0.0955 5:0.1484 6:0.2371 7:0.2143 
1 1:0.0719 2:0.0665 3:0.0784 4:0.0991 5:0.1607 6:0.26 7:0.2311 
1 1:0.2255 2:0.2077 3:0.2172 4:0.2081 5:0.40921 6:0.3009 7:0.2484 
1 1:0.1522 2:0.1376 3:0.136 4:0.1425 5:0.2401 6:0.2635 7:0.1763 
1 1:0 2:0.2273 3:0.2305 4:0.2217 5:0.4337 6:0.3147 7:0.2641 
1 1:0 2:0.1431 3:0.1625 4:0.1547 5:0.3634 6:0.26421 7:0.2043 
1 1:0 2:0.2494 3:0.2483 4:0.2426 5:0.4072 6:0.2913 7:0.2251 
1 1:0.2666 2:0.2172 3:0.2918 4:0.2667 5:0.3468 6:0.2385 7:0.1612 
1 1:0.2897 2:0.26621 3:0.2604 4:0.2602 5:0.3394 6:0.3038 7:0.2245 
1 1:0.281 2:0.2477 3:0.2367 4:0.2294 5:0.2672 6:0.1837 7:0.1293 
1 1:0 2:0.23421 3:0.2195 4:0.213 5:0.3493 6:0.1834 7:0.1152 
1 1:0.275 2:0.2551 3:0.2256 4:0.235 5:0.2653 6:0.17921 7:0.1436 
1 1:0.1842 2:0.1744 3:0.1782 4:0.1783 5:0.3575 6:0.263 7:0.2388 
1 1:0.1774 2:0.1693 3:0.1791 4:0.18021 5:0.3184 6:0.234 7:0.1969 
1 1:0 2:0.2202 3:0.22721 4:0.2199 5:0.4213 6:0.3283 7:0.2975 
1 1:0.1851 2:0.1747 3:0.1717 4:0.167 5:0.3857 6:0.25121 7:0.1962 
1 1:0 2:0.2242 3:0.2334 4:0.2204 5:0.3892 6:0.219 7:0.1565 
1 1:0.0276 2:0.0236 3:0.0392 4:0.03021 5:0.2781 6:0.1631 7:0.071 
1 1:0 2:0.2592 3:0.2467 4:0.2381 5:0.2662 6:0.0561 7:0.0327 
1 1:0 2:0.2745 3:0.2752 4:0.26421 5:0.3783 6:0.2651 7:0.2075 
1 1:0.0542 2:0.0532 3:0.069 4:0.0657 5:0.2596 6:0.1685 7:0.1096 
1 1:0.1761 2:0.1646 3:0.1796 4:0.1734 5:0.33 6:0.2542 7:0.2097 
1 1:0.1806 2:0.1687 3:0.1772 4:0.1783 5:0.34 6:0.2345 7:0.1777 
1 1:0 2:0.2471 3:0.2454 4:0.2362 5:0.4515 6:0.3221 7:0.2405 
1 1:0 2:0.2572 3:0.2722 4:0.2694 5:0.44421 6:0.3413 7:0.3021 
1 1:0 2:0.0723 3:0.0658 4:0.0725 5:0.0829 6:0.1167 7:0.1977 
1 1:0.196 2:0.1845 3:0.192 4:0.1972 5:0.3525 6:0.2461 7:0.1867 
1 1:0.2957 2:0.2717 3:0.2732 4:0.2684 5:0.3781 6:0.162 7:0.1495 
1 1:0.171 2:0.1647 3:0.1704 4:0.1725 5:0.3912 6:0.2546 7:0.1891 
1 1:0.169 2:0.1516 3:0.1997 4:0.1946 5:0.3755 6:0.3075 7:0.2588 
1 1:0.1143 2:0.1085 3:0.1271 4:0.1181 5:0.3712 6:0.2397 7:0.1362 
1 1:0.2696 2:0.2517 3:0.2547 4:0.2521 5:0.4785 6:0.3351 7:0.2824 
1 1:0.0024 2:0.0094 3:0.0523 4:0.0593 5:0.1416 6:0.0856 7:0.0567 
1 1:0 2:0.12921 3:0.1389 4:0.1266 5:0.3262 6:0.1492 7:0.0953 
1 1:0.0853 2:0.0794 3:0.1024 4:0.092 5:0.3385 6:0.2145 7:0.1259 
1 1:0.0466 2:0.0481 3:0.0753 4:0.113 5:0.1646 6:0.2407 7:0.2251 
1 1:0.0372 2:0.0421 3:0.0776 4:0.1252 5:0.1813 6:0.2649 7:0.2443 
1 1:0 2:0.2473 3:0.2625 4:0.2571 5:0.5427 6:0.3574 7:0.293 
1 1:0.069 2:0.0702 3:0.0745 4:0.0761 5:0.33421 6:0.1984 7:0.101 
1 1:0.1515 2:0.1322 3:0.1332 4:0.1281 5:0.2581 6:0.1737 7:0.1141 
1 1:0.3101 2:0.2866 3:0.2955 4:0.2826 5:0.5226 6:0.38521 7:0.2544 
1 1:0 2:0.259 3:0.2597 4:0.2452 5:0.5522 6:0.3452 7:0.2737 
1 1:0 2:0.209 3:0.2113 4:0.2101 5:0.3731 6:0.28721 7:0.2286 
1 1:0.2296 2:0.2096 3:0.2184 4:0.2122 5:0.3342 6:0.1876 7:0.1618 
1 1:0 2:0.2187 3:0.2397 4:0.234 5:0.4427 6:0.3631 7:0.2942 
1 1:0.2742 2:0.2533 3:0.2741 4:0.2645 5:0.495 6:0.3358 7:0.2962 
1 1:0.2365 2:0.2302 3:0.2033 4:0.2247 5:0.3708 6:0.2953 7:0.2271 
1 1:0.1502 2:0.1397 3:0.1511 4:0.1495 5:0.36121 6:0.2443 7:0.193 
1 1:0.1467 2:0.12721 3:0.1279 4:0.116 5:0.3172 6:0.163 7:0.103 
1 1:0.2131 2:0.201 3:0.2141 4:0.2161 5:0.3075 6:0.2006 7:0.1723 
1 1:0.1532 2:0.1372 3:0.1465 4:0.14721 5:0.2941 6:0.2301 7:0.1611 
1 1:0 2:0.182 3:0.1802 4:0.166 5:0.3842 6:0.1758 7:0.0845 
1 1:0.1172 2:0.1114 3:0.1396 4:0.1336 5:0.42621 6:0.2543 7:0.1762 
1 1:0.1017 2:0.0863 3:0.09921 4:0.0843 5:0.307 6:0.1607 7:0.0905 
1 1:0.1012 2:0.0937 3:0.1085 4:0.1181 5:0.269 6:0.222 7:0.1361 
1 1:0.0161 2:0.0206 3:0.0403 4:0.0679 5:0.1662 6:0.2264 7:0.1371 
1 1:0.0474 2:0.0482 3:0.073 4:0.0993 5:0.217 6:0.2679 7:0.1865 
1 1:0 2:0.2356 3:0.2327 4:0.2222 5:0.34821 6:0.1939 7:0.1134 
1 1:0.1706 2:0.156 3:0.1656 4:0.15721 5:0.3196 6:0.1535 7:0.1095 
1 1:0.1406 2:0.1245 3:0.1306 4:0.11721 5:0.3697 6:0.1989 7:0.1296 
1 1:0.18121 2:0.166 3:0.1801 4:0.1705 5:0.3385 6:0.2515 7:0.214 
1 1:0.08521 2:0.0775 3:0.0962 4:0.0844 5:0.4465 6:0.2202 7:0.1204 
1 1:0 2:0.2666 3:0.2747 4:0.2704 5:0.4863 6:0.3432 7:0.291 
1 1:0.1267 2:0.112 3:0.1192 4:0.11521 5:0.3323 6:0.1896 7:0.1473 
1 1:0.2434 2:0.2197 3:0.2206 4:0.2141 5:0.4255 6:0.293 7:0.2683 
1 1:0.137 2:0.1212 3:0.16921 4:0.1582 5:0.3498 6:0.2547 7:0.211 
1 1:0 2:0.2512 3:0.2655 4:0.2554 5:0.4368 6:0.3164 7:0.2387 
1 1:0.1363 2:0.1223 3:0.1362 4:0.1275 5:0.3521 6:0.2423 7:0.1643 
1 1:0 2:0.14821 3:0.1546 4:0.1471 5:0.3254 6:0.2626 7:0.2135 
1 1:0.0324 2:0.0286 3:0.06221 4:0.0514 5:0.3636 6:0.226 7:0.1026 
1 1:0.0956 2:0.09421 3:0.091 4:0.093 5:0.3085 6:0.1721 7:0.1334 
1 1:0.1621 2:0.1641 3:0.208 4:0.2122 5:0.2984 6:0.2657 7:0.2403 
1 1:0.1301 2:0.1247 3:0.132 4:0.1352 5:0.2745 6:0.1874 7:0.1431 
1 1:0.1593 2:0.1443 3:0.1606 4:0.1517 5:0.363 6:0.2442 7:0.1865 
1 1:0.2644 2:0.2442 3:0.2481 4:0.2493 5:0.4161 6:0.3005 7:0.2354 
1 1:0.1962 2:0.1747 3:0.1667 4:0.1552 5:0.3445 6:0.20021 7:0.1565 
1 1:0.0765 2:0.0754 3:0.0942 4:0.0896 5:0.40221 6:0.2014 7:0.1157 
1 1:0.2622 2:0.2415 3:0.239 4:0.23521 5:0.3786 6:0.1638 7:0.1486 
1 1:0.1992 2:0.1825 3:0.1895 4:0.1891 5:0.3578 6:0.2546 7:0.1563 
1 1:0.167 2:0.1561 3:0.1662 4:0.1628 5:0.3188 6:0.24 7:0.1911 
1 1:0.27221 2:0.2504 3:0.26 4:0.2497 5:0.4343 6:0.2034 7:0.17 
1 1:0.0962 2:0.0847 3:0.1052 4:0.0985 5:0.2752 6:0.181 7:0.1444 
1 1:0.1202 2:0.10421 3:0.1311 4:0.1202 5:0.3421 6:0.2364 7:0.158 
1 1:0.1633 2:0.1522 3:0.1547 4:0.1626 5:0.2681 6:0.27721 7:0.2123 
1 1:0.0614 2:0.0503 3:0.0525 4:0.0554 5:0.1021 6:0.158 7:0.167 
1 1:0.0333 2:0.03 3:0.0532 4:0.0703 5:0.2072 6:0.2983 7:0.2413 
1 1:0.2283 2:0.2021 3:0.221 4:0.2067 5:0.3413 6:0.1725 7:0.1403 
1 1:0.0896 2:0.09121 3:0.113 4:0.1219 5:0.2974 6:0.1897 7:0.1482 
1 1:0.17321 2:0.1601 3:0.173 4:0.1761 5:0.3347 6:0.2706 7:0.1949 
1 1:0.272 2:0.2516 3:0.2577 4:0.2482 5:0.3921 6:0.1863 7:0.165 
1 1:0.0674 2:0.0672 3:0.0874 4:0.1082 5:0.1765 6:0.2591 7:0.1931 
1 1:0.0657 2:0.0577 3:0.0757 4:0.0656 5:0.3452 6:0.1783 7:0.0896 
1 1:0.055 2:0.0436 3:0.0561 4:0.0477 5:0.25421 6:0.128 7:0.0557 
1 1:0 2:0.2006 3:0.2114 4:0.1992 5:0.3357 6:0.2787 7:0.2085 
1 1:0 2:0.1872 3:0.2085 4:0.2131 5:0.4243 6:0.3257 7:0.2471 
1 1:0.2382 2:0.22 3:0.2267 4:0.2147 5:0.3831 6:0.1998 7:0.1599 
1 1:0.1263 2:0.1227 3:0.1315 4:0.1582 5:0.2442 6:0.3082 7:0.2447 
1 1:0.2141 2:0.19721 3:0.2069 4:0.2074 5:0.3873 6:0.3006 7:0.2609 
1 1:0.181 2:0.1794 3:0.2043 4:0.2333 5:0.3526 6:0.367 7:0.3145 
1 1:0.1425 2:0.1312 3:0.1526 4:0.1537 5:0.344 6:0.27621 7:0.1796 
1 1:0 2:0.1842 3:0.1986 4:0.191 5:0.3412 6:0.288 7:0.2233 
1 1:0 2:0.04421 3:0.0511 4:0.0383 5:0.281 6:0.1329 7:0.051 
1 1:0 2:0.2372 3:0.2354 4:0.2201 5:0.3963 6:0.3047 7:0.2341 
1 1:0.297 2:0.27421 3:0.2931 4:0.2892 5:0.4622 6:0.4081 7:0.3022 
1 1:0 2:0.1981 3:0.2125 4:0.1926 5:0.4272 6:0.24521 7:0.1767 
1 1:0 2:0.1706 3:0.1622 4:0.15621 5:0.2475 6:0.175 7:0.1317 
1 1:0.2307 2:0.1992 3:0.2346 4:0.2231 5:0.3671 6:0.24521 7:0.1717 
1 1:0.1784 2:0.173 3:0.1846 4:0.1932 5:0.36921 6:0.2262 7:0.1826 
1 1:0 2:0.14621 3:0.1566 4:0.1354 5:0.374 6:0.2142 7:0.114 
1 1:0 2:0.1715 3:0.18621 4:0.1749 5:0.3617 6:0.2491 7:0.1636 
1 1:0.2606 2:0.2517 3:0.26721 4:0.2687 5:0.4561 6:0.3325 7:0.2855 
1 1:0.2523 2:0.2264 3:0.2274 4:0.2246 5:0.3214 6:0.1736 7:0.1535 
1 1:0.14421 2:0.1454 3:0.1601 4:0.1675 5:0.3705 6:0.2272 7:0.1814 
1 1:0.2012 2:0.1906 3:0.2174 4:0.2293 5:0.35521 6:0.3383 7:0.2836 
1 1:0.127 2:0.1121 3:0.1412 4:0.1296 5:0.36421 6:0.2259 7:0.1403 
1 1:0 2:0.0574 3:0.0694 4:0.0494 5:0.3853 6:0.176 7:0.078 
1 1:0.1464 2:0.1296 3:0.1751 4:0.1605 5:0.3726 6:0.2442 7:0.1864 
1 1:0.2212 2:0.1821 3:0.2362 4:0.2145 5:0.4252 6:0.2884 7:0.2168 
1 1:0.1872 2:0.1722 3:0.175 4:0.1743 5:0.3406 6:0.2271 7:0.1474 
1 1:0.2243 2:0.2144 3:0.2456 4:0.2572 5:0.3618 6:0.3105 7:0.2861 
1 1:0 2:0.2304 3:0.2252 4:0.2125 5:0.3913 6:0.1931 7:0.1414 
1 1:0.19421 2:0.1747 3:0.1757 4:0.169 5:0.3327 6:0.1761 7:0.1284 
1 1:0.2191 2:0.1992 3:0.2242 4:0.2194 5:0.4076 6:0.3474 7:0.2563 
1 1:0.1897 2:0.1652 3:0.17721 4:0.1716 5:0.2667 6:0.2024 7:0.1785 
1 1:0.2876 2:0.2717 3:0.2937 4:0.29121 5:0.4874 6:0.3921 7:0.2987 
1 1:0.1555 2:0.1426 3:0.171 4:0.1715 5:0.3627 6:0.2822 7:0.1855 
1 1:0.15421 2:0.1374 3:0.1529 4:0.1447 5:0.3533 6:0.2384 7:0.1809 
1 1:0.186 2:0.1665 3:0.1693 4:0.1574 5:0.3927 6:0.2153 7:0.1344 
1 1:0.1054 2:0.0944 3:0.1095 4:0.1093 5:0.2546 6:0.18821 7:0.1158 
1 1:0.20621 2:0.1872 3:0.2052 4:0.2024 5:0.4314 6:0.311 7:0.2207 
1 1:0.1311 2:0.1172 3:0.1225 4:0.1167 5:0.2972 6:0.1977 7:0.1494 
1 1:0.09421 2:0.0831 3:0.0883 4:0.0822 5:0.2556 6:0.1521 7:0.0909 
1 1:0.2137 2:0.1992 3:0.2021 4:0.1993 5:0.3284 6:0.276 7:0.2168 
1 1:0.0495 2:0.0397 3:0.055 4:0.0455 5:0.2607 6:0.1322 7:0.0584 
1 1:0.2993 2:0.2912 3:0.2542 4:0.2655 5:0.4003 6:0.2705 7:0.2068 
1 1:0.2746 2:0.2455 3:0.259 4:0.2515 5:0.3697 6:0.1776 7:0.1544 
1 1:0.1102 2:0.0921 3:0.0958 4:0.0845 5:0.2717 6:0.1583 7:0.0737 
1 1:0.1827 2:0.179 3:0.1884 4:0.1942 5:0.3334 6:0.2747 7:0.2163 
1 1:0.2121 2:0.1937 3:0.1972 4:0.192 5:0.3354 6:0.2448 7:0.1787 
1 1:0.1385 2:0.1216 3:0.1251 4:0.1113 5:0.3341 6:0.2132 7:0.1094 
1 1:0 2:0.1591 3:0.1632 4:0.1437 5:0.3375 6:0.197 7:0.1607 
1 1:0 2:0.2152 3:0.2091 4:0.2074 5:0.2121 6:0.4772 7:0.3294 
1 1:0.2943 2:0.26021 3:0.2634 4:0.2509 5:0.3959 6:0.1962 7:0.1568 
1 1:0.2223 2:0.21 3:0.2044 4:0.2016 5:0.3573 6:0.24 7:0.192 
1 1:0.2062 2:0.1962 3:0.2071 4:0.2213 5:0.3534 6:0.2915 7:0.2379 
1 1:0.1671 2:0.1512 3:0.1403 4:0.1361 5:0.2777 6:0.1798 7:0.1285 
1 1:0.1936 2:0.1734 3:0.1791 4:0.1673 5:0.2327 6:0.1295 7:0.0929 
1 1:0.1652 2:0.13621 3:0.17 4:0.1512 5:0.3317 6:0.2135 7:0.1447 
1 1:0 2:0.172 3:0.1753 4:0.1672 5:0.3416 6:0.1678 7:0.1058 
1 1:0.20421 2:0.1813 3:0.2049 4:0.2002 5:0.3179 6:0.2925 7:0.2294 
1 1:0.2701 2:0.247 3:0.2434 4:0.2373 5:0.3787 6:0.2423 7:0.1765 
1 1:0.1312 2:0.1218 3:0.1392 4:0.1338 5:0.29021 6:0.2023 7:0.1533 
1 1:0.1737 2:0.1606 3:0.1524 4:0.1501 5:0.3094 6:0.1862 7:0.1563 
1 1:0.1815 2:0.1563 3:0.1642 4:0.1474 5:0.2922 6:0.1895 7:0.1262 
1 1:0.16721 2:0.1507 3:0.1715 4:0.1614 5:0.3189 6:0.2212 7:0.1873 
1 1:0.1826 2:0.1722 3:0.1842 4:0.1973 5:0.3704 6:0.2867 7:0.2071 
1 1:0 2:0.1412 3:0.1498 4:0.1431 5:0.2852 6:0.1573 7:0.0985 
1 1:0 2:0.16821 3:0.1687 4:0.1609 5:0.2863 6:0.2182 7:0.1933 
1 1:0.1544 2:0.1313 3:0.1432 4:0.1304 5:0.34921 6:0.1809 7:0.1232 
1 1:0.1307 2:0.1275 3:0.19921 4:0.2016 5:0.3612 6:0.3301 7:0.2981 
1 1:0.1442 2:0.1293 3:0.141 4:0.1361 5:0.2762 6:0.2337 7:0.1825 
1 1:0.2587 2:0.23921 3:0.2482 4:0.2503 5:0.3276 6:0.2207 7:0.1774 
1 1:0.2593 2:0.2326 3:0.2213 4:0.21621 5:0.3423 6:0.1732 7:0.132 
1 1:0.2821 2:0.2611 3:0.2722 4:0.2731 5:0.4344 6:0.3781 7:0.2769 
1 1:0 2:0.30121 3:0.3012 4:0.2969 5:0.4065 6:0.2363 7:0.182 
1 1:0.3042 2:0.2764 3:0.279 4:0.2737 5:0.4283 6:0.3201 7:0.2537 
1 1:0.2584 2:0.2323 3:0.231 4:0.22221 5:0.3433 6:0.1761 7:0.1397 
1 1:0.2874 2:0.2645 3:0.2462 4:0.2484 5:0.3744 6:0.2922 7:0.2313 
1 1:0.1905 2:0.1612 3:0.1904 4:0.1733 5:0.3905 6:0.272 7:0.2014 
1 1:0.2112 2:0.2143 3:0.1607 4:0.1724 5:0.383 6:0.25621 7:0.1966 
1 1:0.1822 2:0.1798 3:0.1771 4:0.1845 5:0.3597 6:0.2248 7:0.1681 
1 1:0 2:0.2242 3:0.2316 4:0.22821 5:0.4511 6:0.3113 7:0.2448 
1 1:0.1241 2:0.1174 3:0.1402 4:0.142 5:0.3732 6:0.2693 7:0.1825 
1 1:0.2791 2:0.2432 3:0.2832 4:0.2764 5:0.4982 6:0.375 7:0.2825 
1 1:0.26921 2:0.2227 3:0.2664 4:0.2415 5:0.3954 6:0.2667 7:0.1651 
1 1:0.1896 2:0.1807 3:0.2035 4:0.2244 5:0.4105 6:0.4115 7:0.3522 
1 1:0.2657 2:0.24 3:0.2337 4:0.2312 5:0.436 6:0.3022 7:0.2436 
1 1:0.1071 2:0.0943 3:0.0931 4:0.085 5:0.2774 6:0.1685 7:0.092 
1 1:0 2:0.1242 3:0.1373 4:0.1284 5:0.3601 6:0.2207 7:0.1757 
1 1:0.2522 2:0.2451 3:0.2637 4:0.2828 5:0.4283 6:0.3634 7:0.2911 
1 1:0.1687 2:0.1923 3:0.1592 4:0.1827 5:0.3595 6:0.162 7:0.0968 
1 1:0.209 2:0.19121 3:0.19 4:0.1855 5:0.3306 6:0.1459 7:0.1154 
1 1:0 2:0.0924 3:0.1035 4:0.0951 5:0.2965 6:0.1545 7:0.0825 
1 1:0.237 2:0.2161 3:0.22121 4:0.2126 5:0.4411 6:0.305 7:0.1961 
1 1:0 2:0.21621 3:0.2309 4:0.2387 5:0.386 6:0.3639 7:0.3201 
1 1:0.1913 2:0.1722 3:0.1818 4:0.1843 5:0.3821 6:0.3264 7:0.2684 
1 1:0.27321 2:0.2555 3:0.252 4:0.2513 5:0.3557 6:0.211 7:0.1911 
1 1:0.2875 2:0.2721 3:0.2782 4:0.28521 5:0.4542 6:0.4085 7:0.3034 
1 1:0.1682 2:0.1553 3:0.1507 4:0.1468 5:0.3496 6:0.232 7:0.1841 
1 1:0.2244 2:0.21021 3:0.234 4:0.2386 5:0.4302 6:0.3222 7:0.2781 
1 1:0.2735 2:0.2355 3:0.2526 4:0.2412 5:0.3906 6:0.2752 7:0.2474 
1 1:0.24621 2:0.2201 3:0.2267 4:0.2153 5:0.3587 6:0.2261 7:0.1546 
1 1:0 2:0.2403 3:0.2474 4:0.24021 5:0.4235 6:0.3145 7:0.2573 
1 1:0 2:0.1323 3:0.1516 4:0.1423 5:0.363 6:0.2561 7:0.1634 
1 1:0.09421 2:0.112 3:0.1584 4:0.1692 5:0.2705 6:0.2783 7:0.2144 
1 1:0.2566 2:0.2284 3:0.2356 4:0.2272 5:0.3718 6:0.2753 7:0.2281 
1 1:0.1732 2:0.1582 3:0.1693 4:0.163 5:0.3532 6:0.2413 7:0.213 
1 1:0.1972 2:0.1782 3:0.1695 4:0.1647 5:0.3408 6:0.2045 7:0.1586 
1 1:0 2:0.1443 3:0.1535 4:0.1412 5:0.3002 6:0.20121 7:0.1468 
1 1:0 2:0.2664 3:0.2754 4:0.2755 5:0.4045 6:0.3082 7:0.2595 
1 1:0.1574 2:0.1432 3:0.162 4:0.1555 5:0.3625 6:0.2716 7:0.193 
1 1:0.316 2:0.2825 3:0.2762 4:0.2635 5:0.3845 6:0.2 7:0.1563 
1 1:0.1738 2:0.1825 3:0.254 4:0.3037 5:0.4901 6:0.4364 7:0.3764 
1 1:0.0577 2:0.0521 3:0.0776 4:0.0943 5:0.247 6:0.2185 7:0.1424 
1 1:0 2:0.12721 3:0.1473 4:0.1674 5:0.2993 6:0.2222 7:0.1559 
1 1:0.1225 2:0.1122 3:0.147 4:0.1456 5:0.3452 6:0.269 7:0.1813 
1 1:0.2421 2:0.2213 3:0.2252 4:0.221 5:0.3746 6:0.2747 7:0.1992 
1 1:0.2391 2:0.21521 3:0.2173 4:0.2131 5:0.3662 6:0.246 7:0.1617 
1 1:0 2:0.2267 3:0.23021 4:0.2242 5:0.3881 6:0.2895 7:0.2216 
1 1:0 2:0.1765 3:0.1884 4:0.1801 5:0.3902 6:0.2943 7:0.2317 
1 1:0.2145 2:0.1956 3:0.1916 4:0.1853 5:0.3774 6:0.1616 7:0.1263 
1 1:0.1882 2:0.1768 3:0.1952 4:0.1875 5:0.4386 6:0.31421 7:0.2177 
1 1:0.21221 2:0.1863 3:0.1902 4:0.1814 5:0.3383 6:0.1252 7:0.0918 
1 1:0.1996 2:0.203 3:0.2184 4:0.225 5:0.396 6:0.2543 7:0.2024 
1 1:0 2:0.2692 3:0.2744 4:0.2732 5:0.4525 6:0.3594 7:0.2749 
1 1:0.243 2:0.2184 3:0.2406 4:0.2327 5:0.376 6:0.3156 7:0.2802 
1 1:0.2491 2:0.2304 3:0.2372 4:0.236 5:0.417 6:0.2761 7:0.222 
1 1:0.079 2:0.0855 3:0.1344 4:0.1891 5:0.2884 6:0.3465 7:0.3108 
1 1:0.2455 2:0.2523 3:0.2271 4:0.2275 5:0.3926 6:0.2841 7:0.2645 
1 1:0 2:0.1851 3:0.1905 4:0.17621 5:0.3394 6:0.1771 7:0.1145 
1 1:0.2137 2:0.1861 3:0.198 4:0.1823 5:0.3353 6:0.1473 7:0.1094 
1 1:0.1707 2:0.1532 3:0.169 4:0.1654 5:0.3712 6:0.2505 7:0.1968 
1 1:0.1664 2:0.1526 3:0.1622 4:0.1673 5:0.3865 6:0.2593 7:0.2053 
1 1:0.0365 2:0.0379 3:0.0659 4:0.0862 5:0.1967 6:0.2124 7:0.172 
1 1:0.0429 2:0.0444 3:0.0784 4:0.1059 5:0.2003 6:0.2813 7:0.2377 
1 1:0.1595 2:0.1446 3:0.1526 4:0.1462 5:0.3187 6:0.2204 7:0.18 
1 1:0.27821 2:0.2506 3:0.2554 4:0.249 5:0.3872 6:0.129 7:0.1149 
1 1:0 2:0.2212 3:0.2053 4:0.19521 5:0.3982 6:0.181 7:0.1291 
1 1:0 2:0.2252 3:0.2157 4:0.2051 5:0.4763 6:0.2132 7:0.1439 
1 1:0 2:0.1973 3:0.1862 4:0.1823 5:0.3556 6:0.1505 7:0.1141 
1 1:0.2162 2:0.1961 3:0.2322 4:0.219 5:0.4563 6:0.2894 7:0.2218 
1 1:0 2:0.2535 3:0.2684 4:0.2554 5:0.4281 6:0.3223 7:0.257 
1 1:0.1942 2:0.1703 3:0.1706 4:0.1584 5:0.3151 6:0.1936 7:0.1263 
1 1:0 2:0.322 3:0.2953 4:0.2903 5:0.4506 6:0.1846 7:0.1579 
1 1:0.3314 2:0.2957 3:0.3041 4:0.2911 5:0.43321 6:0.1773 7:0.1567 
1 1:0.2302 2:0.2013 3:0.2423 4:0.2284 5:0.3997 6:0.2648 7:0.2161 
1 1:0 2:0.2472 3:0.2625 4:0.2691 5:0.3962 6:0.3244 7:0.2549 
1 1:0.2443 2:0.2247 3:0.2243 4:0.2186 5:0.3246 6:0.1766 7:0.1471 
1 1:0.2782 2:0.26521 3:0.2441 4:0.2581 5:0.3892 6:0.2361 7:0.1768 
1 1:0 2:0.1461 3:0.139 4:0.1236 5:0.3023 6:0.1666 7:0.0969 
1 1:0.2922 2:0.2652 3:0.2803 4:0.2685 5:0.3813 6:0.2312 7:0.179 
1 1:0 2:0.2875 3:0.267 4:0.25721 5:0.4341 6:0.1762 7:0.1317 
1 1:0.101 2:0.0902 3:0.14521 4:0.1397 5:0.3352 6:0.2347 7:0.1773 
1 1:0.1907 2:0.1784 3:0.1782 4:0.1751 5:0.3503 6:0.1816 7:0.1378 
1 1:0.0422 2:0.039 3:0.0605 4:0.0772 5:0.139 6:0.1834 7:0.1486 
1 1:0.0102 2:0.0293 3:0.0585 4:0.0823 5:0.2504 6:0.2005 7:0.1512 
1 1:0.0975 2:0.0804 3:0.1017 4:0.091 5:0.2132 6:0.1265 7:0.0909 
1 1:0.2725 2:0.2492 3:0.2491 4:0.24321 5:0.3342 6:0.1903 7:0.1611 
1 1:0.2892 2:0.2652 3:0.2851 4:0.2807 5:0.429 6:0.3223 7:0.2688 
1 1:0 2:0.2953 3:0.29 4:0.2822 5:0.4193 6:0.27721 7:0.1981 
1 1:0.2735 2:0.25321 3:0.2705 4:0.2825 5:0.4581 6:0.3524 7:0.2842 
1 1:0.2224 2:0.1992 3:0.2278 4:0.2238 5:0.3861 6:0.2762 7:0.2105 
1 1:0 2:0.1092 3:0.10621 4:0.1005 5:0.1062 6:0.0986 7:0.0809 
1 1:0.217 2:0.22021 3:0.2562 4:0.2863 5:0.4309 6:0.4055 7:0.3524 
1 1:0.28821 2:0.2535 3:0.269 4:0.254 5:0.3756 6:0.2023 7:0.1683 
1 1:0 2:0.1741 3:0.1891 4:0.1823 5:0.399 6:0.3087 7:0.223 
1 1:0.02121 2:0.0235 3:0.1049 4:0.0936 5:0.3194 6:0.2554 7:0.1855 
1 1:0.1736 2:0.16521 3:0.1785 4:0.18 5:0.3211 6:0.2662 7:0.189 
1 1:0.2793 2:0.2537 3:0.25721 4:0.2567 5:0.4349 6:0.309 7:0.2506 
1 1:0.30121 2:0.2863 3:0.3057 4:0.2946 5:0.4917 6:0.3614 7:0.2823 
1 1:0.2835 2:0.2583 3:0.2632 4:0.26 5:0.42521 6:0.2804 7:0.2405 
1 1:0.2161 2:0.1887 3:0.2146 4:0.20521 5:0.3097 6:0.2436 7:0.1726 
1 1:0 2:0.1741 3:0.1781 4:0.168 5:0.3635 6:0.2474 7:0.1764 
1 1:0.0572 2:0.0741 3:0.1116 4:0.1346 5:0.31321 6:0.2621 7:0.1966 
1 1:0.1241 2:0.1104 3:0.121 4:0.1133 5:0.3122 6:0.2147 7:0.1631 
1 1:0.2001 2:0.1886 3:0.1966 4:0.1924 5:0.3396 6:0.2297 7:0.158 
1 1:0.1957 2:0.1823 3:0.2042 4:0.1955 5:0.3135 6:0.24121 7:0.1792 
1 1:0.3172 2:0.302 3:0.3287 4:0.3252 5:0.4838 6:0.29421 7:0.2008 
1 1:0.2256 2:0.224 3:0.2537 4:0.26921 5:0.3852 6:0.284 7:0.2234 
1 1:0.3161 2:0.2872 3:0.2877 4:0.2815 5:0.4123 6:0.1512 7:0.1323 
1 1:0.2504 2:0.2244 3:0.244 4:0.22921 5:0.4252 6:0.283 7:0.2509 
1 1:0.2745 2:0.2526 3:0.2672 4:0.2663 5:0.38821 6:0.2913 7:0.2184 
1 1:0.1411 2:0.1362 3:0.1487 4:0.1495 5:0.276 6:0.1896 7:0.1352 
1 1:0.2746 2:0.2533 3:0.2725 4:0.2765 5:0.447 6:0.3607 7:0.2982 
1 1:0 2:0.2892 3:0.2848 4:0.2834 5:0.4571 6:0.3273 7:0.2826 
1 1:0 2:0.1122 3:0.136 4:0.1222 5:0.37 6:0.2351 7:0.1705 
1 1:0.1375 2:0.1214 3:0.1452 4:0.1353 5:0.3747 6:0.228 7:0.1691 
1 1:0.1174 2:0.1023 3:0.14121 4:0.1339 5:0.3571 6:0.2243 7:0.1816 
1 1:0 2:0.244 3:0.2543 4:0.2514 5:0.4421 6:0.3186 7:0.2952 
1 1:0.1992 2:0.1732 3:0.2102 4:0.1964 5:0.3673 6:0.312 7:0.2441 
1 1:0.2033 2:0.2013 3:0.2255 4:0.2396 5:0.3624 6:0.3267 7:0.2789 
1 1:0.3133 2:0.2912 3:0.2788 4:0.28521 5:0.4901 6:0.3776 7:0.2829 
1 1:0.199 2:0.1925 3:0.2074 4:0.21021 5:0.3572 6:0.276 7:0.2165 
1 1:0.2322 2:0.2062 3:0.2681 4:0.25221 5:0.4647 6:0.3512 7:0.318 
1 1:0 2:0.236 3:0.23921 4:0.2342 5:0.4144 6:0.2762 7:0.2018 
1 1:0 2:0.2612 3:0.26521 4:0.2609 5:0.3954 6:0.2903 7:0.2364 
1 1:0.194 2:0.1806 3:0.1957 4:0.18821 5:0.4974 6:0.3145 7:0.2055 
1 1:0.2222 2:0.2145 3:0.2353 4:0.239 5:0.46421 6:0.3236 7:0.2394 
1 1:0.2606 2:0.2456 3:0.2176 4:0.225 5:0.424 6:0.2564 7:0.2149 
1 1:0.1927 2:0.1853 3:0.2124 4:0.2282 5:0.3821 6:0.35 7:0.2648 
1 1:0.26421 2:0.2432 3:0.2712 4:0.2812 5:0.439 6:0.3391 7:0.2555 
1 1:0.2983 2:0.2891 3:0.3143 4:0.3202 5:0.5004 6:0.4386 7:0.3325 
1 1:0.2745 2:0.261 3:0.2672 4:0.2723 5:0.4392 6:0.3336 7:0.2467 
1 1:0.1883 2:0.1517 3:0.2506 4:0.2282 5:0.45121 6:0.3296 7:0.2662 
1 1:0.1755 2:0.1615 3:0.1523 4:0.1494 5:0.3103 6:0.1874 7:0.1344 
1 1:0.2537 2:0.2336 3:0.2536 4:0.2512 5:0.4266 6:0.2711 7:0.2388 
1 1:0.1551 2:0.15121 3:0.1294 4:0.135 5:0.2742 6:0.0984 7:0.0767 
1 1:0.2521 2:0.2516 3:0.2397 4:0.2542 5:0.4807 6:0.3464 7:0.2421 
1 1:0.2335 2:0.2194 3:0.2382 4:0.236 5:0.3524 6:0.2918 7:0.2393 
1 1:0.31921 2:0.3045 3:0.3094 4:0.3121 5:0.4546 6:0.2934 7:0.2125 
1 1:0.2582 2:0.2438 3:0.2565 4:0.24921 5:0.4939 6:0.3809 7:0.2815 
1 1:0.2671 2:0.2421 3:0.271 4:0.2652 5:0.3877 6:0.2737 7:0.2039 
1 1:0.2421 2:0.2382 3:0.2637 4:0.28221 5:0.4432 6:0.389 7:0.3283 
1 1:0.2302 2:0.2161 3:0.2185 4:0.2186 5:0.3936 6:0.2883 7:0.2305 
1 1:0.19621 2:0.1839 3:0.2137 4:0.2166 5:0.3824 6:0.2917 7:0.2295 
1 1:0.199 2:0.181 3:0.1781 4:0.1805 5:0.4027 6:0.2534 7:0.1944 
1 1:0 2:0.3177 3:0.311 4:0.30821 5:0.5576 6:0.3441 7:0.2695 
1 1:0 2:0.1755 3:0.1772 4:0.17621 5:0.3719 6:0.2798 7:0.2308 
1 1:0.26321 2:0.2461 3:0.2189 4:0.2214 5:0.4142 6:0.2534 7:0.2071 
1 1:0 2:0.2286 3:0.2514 4:0.2424 5:0.4825 6:0.3615 7:0.2902 
1 1:0.2725 2:0.2526 3:0.2536 4:0.2526 5:0.4224 6:0.28621 7:0.2319 
1 1:0 2:0.18721 3:0.2023 4:0.1956 5:0.4132 6:0.2849 7:0.2282 
1 1:0 2:0.2055 3:0.2142 4:0.2052 5:0.5112 6:0.3301 7:0.2655 
1 1:0 2:0.2167 3:0.2396 4:0.2222 5:0.40721 6:0.2651 7:0.2242 
1 1:0.2292 2:0.2072 3:0.2332 4:0.2281 5:0.3727 6:0.2716 7:0.2229 
1 1:0 2:0.2083 3:0.20621 4:0.2034 5:0.4249 6:0.2686 7:0.2152 
1 1:0.2796 2:0.2602 3:0.276 4:0.272 5:0.41921 6:0.3737 7:0.2906 
1 1:0.0974 2:0.0835 3:0.1111 4:0.1022 5:0.2412 6:0.1734 7:0.1241 
1 1:0 2:0.2024 3:0.2016 4:0.19021 5:0.3967 6:0.2142 7:0.1461 
1 1:0.2453 2:0.2333 3:0.2326 4:0.235 5:0.4052 6:0.2912 7:0.2382 
1 1:0.169 2:0.15321 3:0.2051 4:0.198 5:0.3969 6:0.2761 7:0.2068 
1 1:0.1596 2:0.1462 3:0.1438 4:0.1612 5:0.2218 6:0.2568 7:0.2362 
1 1:0 2:0.21321 3:0.2257 4:0.2061 5:0.4356 6:0.27 7:0.1972 
1 1:0 2:0.1653 3:0.1754 4:0.15621 5:0.3187 6:0.2226 7:0.1851 
1 1:0.202 2:0.1954 3:0.20521 4:0.2139 5:0.3024 6:0.273 7:0.2112 
1 1:0.1307 2:0.1164 3:0.1316 4:0.1203 5:0.4117 6:0.2242 7:0.1507 
1 1:0 2:0.2227 3:0.2296 4:0.2106 5:0.3822 6:0.1584 7:0.1227 
1 1:0.265 2:0.2392 3:0.274 4:0.2681 5:0.46321 6:0.3622 7:0.2476 
1 1:0 2:0.173 3:0.1724 4:0.1634 5:0.3142 6:0.2063 7:0.1591 
1 1:0.2242 2:0.2 3:0.2227 4:0.2181 5:0.3391 6:0.1625 7:0.1407 
1 1:0.261 2:0.2382 3:0.2658 4:0.264 5:0.4237 6:0.3727 7:0.2861 
1 1:0.2591 2:0.2333 3:0.2522 4:0.2402 5:0.4766 6:0.1948 7:0.1541 
1 1:0.3222 2:0.291 3:0.3168 4:0.3035 5:0.49621 6:0.3876 7:0.3181 
1 1:0 2:0.2811 3:0.29121 4:0.2789 5:0.4382 6:0.3237 7:0.2578 
1 1:0.1876 2:0.1732 3:0.2053 4:0.2015 5:0.4155 6:0.3054 7:0.2252 
1 1:0 2:0.2022 3:0.2058 4:0.2032 5:0.4071 6:0.3067 7:0.239 
1 1:0 2:0.2795 3:0.31121 4:0.3126 5:0.4893 6:0.4016 7:0.3333 
1 1:0.3086 2:0.2827 3:0.2997 4:0.2946 5:0.47621 6:0.2913 7:0.2401 
1 1:0 2:0.192 3:0.2107 4:0.2082 5:0.4476 6:0.33021 7:0.2757 
1 1:0.1752 2:0.1636 3:0.1874 4:0.1966 5:0.3853 6:0.3993 7:0.3132 
1 1:0.1864 2:0.16721 3:0.208 4:0.197 5:0.4217 6:0.2921 7:0.2375 
1 1:0.1692 2:0.1581 3:0.1717 4:0.1766 5:0.30421 6:0.2575 7:0.2185 
1 1:0.1963 2:0.1854 3:0.2146 4:0.238 5:0.424 6:0.4175 7:0.3341 
1 1:0.1996 2:0.1927 3:0.2083 4:0.2125 5:0.4226 6:0.3676 7:0.251 
1 1:0.19021 2:0.1827 3:0.2133 4:0.2073 5:0.4193 6:0.2783 7:0.2145 
1 1:0 2:0.2181 3:0.2272 4:0.2196 5:0.425 6:0.251 7:0.1624 
1 1:0 2:0.2171 3:0.2252 4:0.2175 5:0.4007 6:0.2842 7:0.2182 
1 1:0.2133 2:0.198 3:0.2233 4:0.2272 5:0.42221 6:0.3383 7:0.259 
1 1:0.1633 2:0.1527 3:0.1976 4:0.2414 5:0.3597 6:0.4081 7:0.3472 
1 1:0.0882 2:0.0815 3:0.0949 4:0.1157 5:0.1694 6:0.2352 7:0.2208 
1 1:0.1064 2:0.1041 3:0.1283 4:0.1364 5:0.23721 6:0.2016 7:0.1552 
1 1:0.2612 2:0.2416 3:0.2438 4:0.2403 5:0.3408 6:0.27021 7:0.2266 
1 1:0.247 2:0.2306 3:0.271 4:0.2753 5:0.4843 6:0.2792 7:0.2293 
1 1:0.2436 2:0.2382 3:0.2733 4:0.2916 5:0.4445 6:0.4111 7:0.3239 
1 1:0.0414 2:0.0459 3:0.0952 4:0.1699 5:0.2404 6:0.3163 7:0.2784 
1 1:0.1523 2:0.1576 3:0.2172 4:0.2802 5:0.3375 6:0.3894 7:0.3123 
1 1:0.0954 2:0.1002 3:0.1636 4:0.2523 5:0.3322 6:0.4114 7:0.3385 
1 1:0.0343 2:0.0392 3:0.0909 4:0.17 5:0.2456 6:0.319 7:0.2756 
1 1:0 2:0.1076 3:0.1515 4:0.195 5:0.2827 6:0.2975 7:0.2276 
1 1:0.2113 2:0.1944 3:0.2626 4:0.2942 5:0.4181 6:0.3974 7:0.341 
1 1:0.2312 2:0.22721 3:0.2551 4:0.2731 5:0.4203 6:0.3058 7:0.2584 
1 1:0.2887 2:0.2614 3:0.2685 4:0.2743 5:0.3632 6:0.2716 7:0.2151 
1 1:0.1102 2:0.1037 3:0.1271 4:0.1363 5:0.2294 6:0.243 7:0.2254 
1 1:0 2:0.1984 3:0.2154 4:0.21521 5:0.3803 6:0.3207 7:0.2571 
1 1:0.1712 2:0.1434 3:0.1542 4:0.152 5:0.2296 6:0.1648 7:0.1311 
1 1:0.2261 2:0.2003 3:0.23621 4:0.2487 5:0.3983 6:0.3892 7:0.32 
1 1:0 2:0.2355 3:0.2452 4:0.2467 5:0.3554 6:0.2843 7:0.2487 
1 1:0.26521 2:0.2474 3:0.2592 4:0.2522 5:0.346 6:0.185 7:0.1644 
1 1:0.0562 2:0.0622 3:0.1012 4:0.1025 5:0.1747 6:0.257 7:0.1927 
1 1:0.028 2:0.0253 3:0.04 4:0.0567 5:0.0984 6:0.1772 7:0.1624 
1 1:0.0343 2:0.0435 3:0.0876 4:0.1249 5:0.2042 6:0.2864 7:0.2355 
1 1:0.036 2:0.0451 3:0.0869 4:0.1319 5:0.1909 6:0.3247 7:0.2815 
1 1:0.0661 2:0.0741 3:0.1191 4:0.1723 5:0.2414 6:0.3775 7:0.3397 
1 1:0.0023 2:0.0089 3:0.0484 4:0.0738 5:0.159 6:0.1935 7:0.1484 
1 1:0.0339 2:0.0322 3:0.0522 4:0.066 5:0.1276 6:0.1822 7:0.1646 
1 1:0.0472 2:0.0426 3:0.0545 4:0.0665 5:0.1148 6:0.1444 7:0.1157 
1 1:0.0937 2:0.0793 3:0.0804 4:0.0822 5:0.0966 6:0.1549 7:0.1709 
1 1:0.1972 2:0.1731 3:0.17921 4:0.1824 5:0.3297 6:0.2331 7:0.1513 
1 1:0 2:0.2315 3:0.24121 4:0.2307 5:0.4326 6:0.3266 7:0.2411 
1 1:0.0229 2:0.0265 3:0.0584 4:0.0861 5:0.1303 6:0.2245 7:0.2242 
1 1:0.1571 2:0.1442 3:0.1918 4:0.2001 5:0.3006 6:0.358 7:0.2939 
1 1:0.0384 2:0.0336 3:0.0499 4:0.0689 5:0.1216 6:0.2051 7:0.1938 
1 1:0 2:0.30121 3:0.3003 4:0.2992 5:0.4532 6:0.3495 7:0.2769 
1 1:0.2811 2:0.2583 3:0.2714 4:0.263 5:0.4422 6:0.3413 7:0.3042 
1 1:0 2:0.2262 3:0.24421 4:0.2334 5:0.5193 6:0.3351 7:0.2193 
1 1:0.0382 2:0.0328 3:0.0424 4:0.0541 5:0.0806 6:0.1269 7:0.1401 
1 1:0.2857 2:0.2635 3:0.2762 4:0.2713 5:0.4486 6:0.3675 7:0.3105 
1 1:0.3004 2:0.2765 3:0.2673 4:0.25821 5:0.4297 6:0.3031 7:0.2289 
1 1:0.0597 2:0.0681 3:0.1176 4:0.1801 5:0.2363 6:0.3189 7:0.281 
1 1:0.0414 2:0.0524 3:0.1034 4:0.1624 5:0.2103 6:0.306 7:0.2693 
1 1:0.0511 2:0.0619 3:0.113 4:0.1779 5:0.2326 6:0.3297 7:0.2908 
1 1:0.2601 2:0.2422 3:0.2493 4:0.2471 5:0.4284 6:0.295 7:0.206 
1 1:0 2:0.20721 3:0.2277 4:0.2274 5:0.412 6:0.3482 7:0.2474 
1 1:0.1672 2:0.1543 3:0.1623 4:0.1593 5:0.3552 6:0.2807 7:0.2049 
1 1:0 2:0.2055 3:0.2031 4:0.1952 5:0.3131 6:0.188 7:0.1524 
1 1:0.2911 2:0.2771 3:0.2841 4:0.2882 5:0.5068 6:0.3513 7:0.2757 
1 1:0.0336 2:0.0315 3:0.0445 4:0.0567 5:0.0813 6:0.1331 7:0.1447 
1 1:0.0481 2:0.0427 3:0.0469 4:0.0492 5:0.0522 6:0.0697 7:0.0788 
1 1:0.0202 2:0.0229 3:0.0515 4:0.0753 5:0.1132 6:0.1817 7:0.1787 
1 1:0.0339 2:0.0387 3:0.0703 4:0.0992 5:0.1422 6:0.225 7:0.2227 
1 1:0.0375 2:0.0351 3:0.0519 4:0.0731 5:0.1155 6:0.1529 7:0.131 
1 1:0.0461 2:0.0384 3:0.0523 4:0.0749 5:0.1332 6:0.1972 7:0.1741 
1 1:0.0419 2:0.0351 3:0.0472 4:0.0602 5:0.1289 6:0.2243 7:0.1964 
1 1:0.0345 2:0.0331 3:0.0505 4:0.0704 5:0.1757 6:0.2239 7:0.178 
1 1:0.0062 2:0.0036 3:0.0197 4:0.0351 5:0.0755 6:0.1099 7:0.1153 
1 1:0.0443 2:0.0366 3:0.0443 4:0.056 5:0.0777 6:0.127 7:0.1297 
1 1:0.0389 2:0.0356 3:0.0517 4:0.0695 5:0.1124 6:0.1575 7:0.1363 
1 1:0.0161 2:0.0179 3:0.0352 4:0.0529 5:0.084 6:0.1267 7:0.1213 
1 1:0.0361 2:0.0357 3:0.053 4:0.0732 5:0.1102 6:0.1662 7:0.1572 
1 1:0.3275 2:0.30521 3:0.2935 4:0.2953 5:0.5294 6:0.3172 7:0.2543 
1 1:0.0706 2:0.0692 3:0.0884 4:0.1128 5:0.1635 6:0.2417 7:0.1989 
1 1:0.0726 2:0.0645 3:0.0766 4:0.0947 5:0.1474 6:0.2354 7:0.1958 
1 1:0.0366 2:0.0286 3:0.0331 4:0.0377 5:0.0742 6:0.0882 7:0.0656 
1 1:0.0273 2:0.0187 3:0.022 4:0.0281 5:0.0397 6:0.0581 7:0.0628 
1 1:0.1936 2:0.178 3:0.1976 4:0.1921 5:0.3405 6:0.2371 7:0.1726 
1 1:0.0509 2:0.046 3:0.0549 4:0.0689 5:0.1003 6:0.1402 7:0.1333 
1 1:0.2657 2:0.2453 3:0.2647 4:0.2603 5:0.4434 6:0.3421 7:0.3103 
1 1:0 2:0.2677 3:0.2846 4:0.2777 5:0.465 6:0.3612 7:0.2998 
1 1:0.0709 2:0.0652 3:0.0751 4:0.0873 5:0.1163 6:0.1823 7:0.1748 
1 1:0.061 2:0.0562 3:0.0701 4:0.0868 5:0.1292 6:0.2215 7:0.2136 
1 1:0.065 2:0.0544 3:0.0597 4:0.0676 5:0.0822 6:0.1207 7:0.121 
1 1:0.3132 2:0.3 3:0.2812 4:0.2883 5:0.5036 6:0.3831 7:0.3177 
1 1:0.0283 2:0.0261 3:0.0382 4:0.056 5:0.0861 6:0.1129 7:0.1134 
1 1:0.028 2:0.0267 3:0.043 4:0.0624 5:0.1086 6:0.1382 7:0.1394 
1 1:0 2:0.2253 3:0.2287 4:0.2102 5:0.3414 6:0.1673 7:0.1348 
1 1:0.0524 2:0.0456 3:0.0582 4:0.0734 5:0.1066 6:0.1663 7:0.1661 
1 1:-0.0065 2:0.0257 3:0.03421 4:0.0543 5:0.1532 6:0.1037 7:0.0747 
1 1:-0.02 2:-0.0187 3:-0.0037 4:0.0086 5:0.0302 6:0.0596 7:0.0597 
1 1:0 2:0.2082 3:0.2164 4:0.2093 5:0.39821 6:0.3197 7:0.2694 
1 1:0.1712 2:0.1618 3:0.1872 4:0.1844 5:0.3851 6:0.2814 7:0.2507 
1 1:0.0703 2:0.0642 3:0.0723 4:0.0853 5:0.1254 6:0.1597 7:0.1339 
1 1:0.0669 2:0.0582 3:0.0629 4:0.0652 5:0.0841 6:0.0887 7:0.0868 
1 1:0.0557 2:0.049 3:0.0561 4:0.0634 5:0.0832 6:0.1534 7:0.1777 
1 1:0.0533 2:0.045 3:0.0529 4:0.0624 5:0.0872 6:0.1597 7:0.1842 
1 1:0.0585 2:0.051 3:0.0574 4:0.0632 5:0.0869 6:0.1089 7:0.1035 
1 1:0.0705 2:0.0624 3:0.0731 4:0.0824 5:0.1386 6:0.169 7:0.1611 
1 1:0.0386 2:0.0323 3:0.0393 4:0.0523 5:0.0733 6:0.1261 7:0.1248 
1 1:0.0506 2:0.0432 3:0.0543 4:0.0709 5:0.1069 6:0.1833 7:0.1797 
1 1:0.0523 2:0.0442 3:0.0485 4:0.0507 5:0.0579 6:0.0552 7:0.0641 
1 1:0 2:0.2535 3:0.262 4:0.2563 5:0.5073 6:0.353 7:0.3015 
1 1:0.0731 2:0.0622 3:0.0653 4:0.0716 5:0.0858 6:0.1157 7:0.1315 
1 1:0 2:0.3042 3:0.3165 4:0.311 5:0.5555 6:0.3813 7:0.2715 
1 1:0.0513 2:0.0455 3:0.0556 4:0.0722 5:0.1104 6:0.2176 7:0.2324 
1 1:0.0127 2:0.0105 3:0.0199 4:0.0302 5:0.0473 6:0.0762 7:0.0776 
1 1:0.0639 2:0.0561 3:0.0642 4:0.0782 5:0.1199 6:0.1613 7:0.1427 
1 1:0.0737 2:0.0666 3:0.0733 4:0.0792 5:0.1115 6:0.1229 7:0.1174 
1 1:0.0717 2:0.065 3:0.0724 4:0.0822 5:0.1317 6:0.17 7:0.1725 
1 1:0.0615 2:0.0536 3:0.0569 4:0.0585 5:0.0716 6:0.0862 7:0.0838 
1 1:0.0386 2:0.0325 3:0.0392 4:0.0464 5:0.0618 6:0.0854 7:0.0927 
1 1:0.1007 2:0.0887 3:0.0873 4:0.0867 5:0.1009 6:0.0936 7:0.0896 
1 1:0.0455 2:0.0383 3:0.0462 4:0.0564 5:0.1092 6:0.1261 7:0.1043 
1 1:0.1482 2:0.13721 3:0.1735 4:0.1901 5:0.2219 6:0.2978 7:0.2876 
1 1:0.0541 2:0.0485 3:0.0664 4:0.0991 5:0.1359 6:0.2087 7:0.1881 
1 1:0.0409 2:0.0405 3:0.0583 4:0.0753 5:0.1289 6:0.1663 7:0.1548 
1 1:0.1746 2:0.1602 3:0.1813 4:0.1961 5:0.2473 6:0.3204 7:0.2662 
1 1:0.2724 2:0.2523 3:0.2695 4:0.264 5:0.4096 6:0.3407 7:0.2913 
1 1:0.0039 2:0.0047 3:0.0175 4:0.0262 5:0.0521 6:0.089 7:0.0994 
1 1:0.3203 2:0.2987 3:0.3482 4:0.3486 5:0.5724 6:0.50821 7:0.4061 
1 1:0.2102 2:0.199 3:0.1792 4:0.1998 5:0.2774 6:0.2501 7:0.1973 
1 1:0.20121 2:0.2027 3:0.2396 4:0.2812 5:0.3906 6:0.4827 7:0.4287 
1 1:0.21 2:0.1932 3:0.2202 4:0.2116 5:0.3903 6:0.2564 7:0.1897 
1 1:0.0416 2:0.0369 3:0.0479 4:0.0632 5:0.093 6:0.1463 7:0.1513 
1 1:0.0287 2:0.0223 3:0.0276 4:0.0365 5:0.0507 6:0.0672 7:0.0696 
1 1:0.0453 2:0.0396 3:0.049 4:0.0547 5:0.0742 6:0.087 7:0.094 
1 1:0.0559 2:0.0477 3:0.0517 4:0.0569 5:0.0672 6:0.0969 7:0.1193 
1 1:0.2154 2:0.2006 3:0.2036 4:0.2024 5:0.3187 6:0.272 7:0.2219 
1 1:0.0124 2:0.0124 3:0.0252 4:0.0353 5:0.0736 6:0.0638 7:0.0385 
1 1:0.2142 2:0.2011 3:0.2153 4:0.2122 5:0.4091 6:0.2966 7:0.2384 
1 1:0.2023 2:0.18221 3:0.2029 4:0.1959 5:0.3763 6:0.2663 7:0.226 
1 1:0.0304 2:0.0212 3:0.0322 4:0.0235 5:0.0948 6:0.0412 7:0.0171 
1 1:-0.0101 2:-0.0121 3:0.002 4:0.004 5:0.0656 6:0.0467 7:0.0238 
1 1:0.10521 2:0.091 3:0.0939 4:0.0933 5:0.135 6:0.1196 7:0.0985 
1 1:0.0559 2:0.0454 3:0.0561 4:0.0603 5:0.1113 6:0.1449 7:0.1266 
1 1:0.2283 2:0.21321 3:0.214 4:0.2157 5:0.242 6:0.1914 7:0.1629 
1 1:0.0469 2:0.0405 3:0.0504 4:0.0523 5:0.1095 6:0.125 7:0.1091 
1 1:0.0703 2:0.0623 3:0.0737 4:0.0767 5:0.124 6:0.1413 7:0.1402 
1 1:0.0721 2:0.0642 3:0.0684 4:0.0678 5:0.0857 6:0.0823 7:0.0829 
1 1:0.0427 2:0.0384 3:0.0527 4:0.0686 5:0.1429 6:0.1442 7:0.0996 
1 1:0.0461 2:0.0389 3:0.0439 4:0.0486 5:0.0789 6:0.0867 7:0.0889 
1 1:0.0481 2:0.0414 3:0.0462 4:0.054 5:0.0768 6:0.1099 7:0.1137 
1 1:0.027 2:0.0236 3:0.0343 4:0.0431 5:0.07 6:0.0994 7:0.0971 
1 1:0.049 2:0.0442 3:0.0586 4:0.0736 5:0.1259 6:0.1852 7:0.1656 
1 1:0.043 2:0.0367 3:0.0506 4:0.0573 5:0.1225 6:0.1417 7:0.1237 
1 1:0.0647 2:0.0544 3:0.0624 4:0.0674 5:0.1006 6:0.1034 7:0.1014 
1 1:0 2:0.26 3:0.273 4:0.2746 5:0.4393 6:0.3731 7:0.3266 
1 1:0 2:0.0423 3:0.0369 4:0.0477 5:0.0633 6:0.0882 7:0.0998 
1 1:0.2263 2:0.2131 3:0.2341 4:0.2261 5:0.4216 6:0.31421 7:0.239 
1 1:0.0466 2:0.0393 3:0.0445 4:0.0499 5:0.0711 6:0.0962 7:0.0942 
1 1:0.1522 2:0.145 3:0.1634 4:0.1808 5:0.2796 6:0.29421 7:0.2116 
1 1:0 2:0.2047 3:0.2051 4:0.2002 5:0.3252 6:0.21421 7:0.1527 
1 1:0.2861 2:0.2584 3:0.2637 4:0.2524 5:0.3766 6:0.3054 7:0.2213 
1 1:0.0462 2:0.0473 3:0.0631 4:0.0929 5:0.1526 6:0.1904 7:0.1718 
1 1:0.2455 2:0.2307 3:0.2564 4:0.2552 5:0.4132 6:0.3238 7:0.2811 
1 1:0.025 2:0.0223 3:0.0342 4:0.0524 5:0.0974 6:0.1376 7:0.1124 
1 1:0.28721 2:0.2669 3:0.2302 4:0.2339 5:0.3782 6:0.2762 7:0.2256 
1 1:0.1462 2:0.1402 3:0.139 4:0.14321 5:0.2611 6:0.2143 7:0.1597 
1 1:0.1901 2:0.1696 3:0.1775 4:0.1725 5:0.27921 6:0.171 7:0.1252 
1 1:0.0712 2:0.0672 3:0.0895 4:0.0892 5:0.2916 6:0.2295 7:0.1218 
1 1:0.0583 2:0.0519 3:0.0649 4:0.0796 5:0.154 6:0.1639 7:0.129 
1 1:0.1932 2:0.1738 3:0.17 4:0.1641 5:0.2783 6:0.162 7:0.1264 
1 1:0.0897 2:0.0915 3:0.1305 4:0.1717 5:0.2506 6:0.3244 7:0.2795 
1 1:0.0782 2:0.0838 3:0.1203 4:0.1624 5:0.2368 6:0.3062 7:0.2467 
1 1:0.0841 2:0.0807 3:0.1027 4:0.1261 5:0.2006 6:0.253 7:0.202 
1 1:0.1329 2:0.1257 3:0.1525 4:0.1886 5:0.2565 6:0.2909 7:0.2433 
1 1:0 2:0.1752 3:0.1773 4:0.1741 5:0.2273 6:0.2346 7:0.1799 
1 1:0.02 2:0.0162 3:0.0244 4:0.0325 5:0.0669 6:0.1091 7:0.0904 
1 1:0.1814 2:0.1823 3:0.228 4:0.2813 5:0.4221 6:0.5217 7:0.4509 
1 1:-0.0041 2:-0.0017 3:0.0133 4:0.0262 5:0.0487 6:0.082 7:0.0823 
1 1:0.199 2:0.1802 3:0.2045 4:0.2062 5:0.3623 6:0.2244 7:0.1682 
1 1:0.0226 2:0.021 3:0.0392 4:0.0482 5:0.1036 6:0.1125 7:0.0769 
1 1:0.0475 2:0.0423 3:0.0508 4:0.0605 5:0.1229 6:0.1989 7:0.1762 
1 1:0.0274 2:0.0306 3:0.053 4:0.0746 5:0.1192 6:0.1811 7:0.1761 
1 1:0.1803 2:0.164 3:0.18821 4:0.2047 5:0.268 6:0.3253 7:0.2498 
1 1:0.0432 2:0.038 3:0.0492 4:0.0634 5:0.1122 6:0.151 7:0.1301 
1 1:0.282 2:0.2526 3:0.2687 4:0.2581 5:0.4246 6:0.1873 7:0.1514 
1 1:0.2357 2:0.2165 3:0.2634 4:0.2804 5:0.3811 6:0.33821 7:0.2398 
1 1:0.3214 2:0.2996 3:0.31721 4:0.3137 5:0.5643 6:0.3874 7:0.2907 
1 1:0.2432 2:0.2322 3:0.2658 4:0.2993 5:0.4332 6:0.4102 7:0.3395 
1 1:0.0574 2:0.0725 3:0.1251 4:0.185 5:0.2804 6:0.2809 7:0.1815 
1 1:0.0387 2:0.0383 3:0.0686 4:0.092 5:0.136 6:0.1975 7:0.1697 
1 1:0.0463 2:0.0411 3:0.0476 4:0.0572 5:0.0753 6:0.1063 7:0.1085 
1 1:0.2423 2:0.24121 3:0.2856 4:0.3236 5:0.4831 6:0.5685 7:0.4758 
1 1:0.0256 2:0.0247 3:0.043 4:0.0652 5:0.1075 6:0.2071 7:0.2146 
1 1:0.0669 2:0.0692 3:0.1055 4:0.1525 5:0.2401 6:0.3492 7:0.2936 
1 1:0.0827 2:0.0817 3:0.1137 4:0.157 5:0.2526 6:0.3465 7:0.2735 
1 1:0.0515 2:0.0482 3:0.0622 4:0.0804 5:0.1225 6:0.1564 7:0.1299 
1 1:0 2:0.2542 3:0.276 4:0.2567 5:0.4742 6:0.329 7:0.2599 
1 1:0.17721 2:0.1732 3:0.1567 4:0.1693 5:0.3672 6:0.285 7:0.1835 
1 1:0.1252 2:0.1176 3:0.1144 4:0.1151 5:0.2312 6:0.1506 7:0.1103 
1 1:0 2:0.2604 3:0.272 4:0.2667 5:0.4726 6:0.3661 7:0.3017 
1 1:0 2:0.216 3:0.2402 4:0.2327 5:0.4131 6:0.33 7:0.2667 
1 1:0.1967 2:0.1804 3:0.2234 4:0.2176 5:0.4615 6:0.3075 7:0.2154 
1 1:0.0601 2:0.0559 3:0.074 4:0.0831 5:0.1545 6:0.1819 7:0.1498 
1 1:0.2174 2:0.2077 3:0.2212 4:0.23721 5:0.328 6:0.3354 7:0.2916 
1 1:0.0542 2:0.0521 3:0.0683 4:0.0822 5:0.1238 6:0.1871 7:0.1801 
1 1:0.0742 2:0.0711 3:0.0861 4:0.1067 5:0.1588 6:0.2006 7:0.1716 
1 1:0.0577 2:0.0514 3:0.0603 4:0.0723 5:0.1135 6:0.2081 7:0.2202 
1 1:0 2:0.20421 3:0.2161 4:0.2023 5:0.4169 6:0.2606 7:0.2008 
1 1:0.0485 2:0.0453 3:0.0655 4:0.0844 5:0.1622 6:0.2236 7:0.19 
1 1:0.0562 2:0.0525 3:0.0627 4:0.0709 5:0.0882 6:0.1117 7:0.1057 
1 1:0.0911 2:0.0845 3:0.0959 4:0.1104 5:0.1492 6:0.184 7:0.1714 
1 1:0.1289 2:0.1415 3:0.2327 4:0.3162 5:0.4374 6:0.5446 7:0.3826 
1 1:0.153 2:0.1682 3:0.2706 4:0.3704 5:0.4908 6:0.603 7:0.4259 
1 1:0.1552 2:0.1702 3:0.2713 4:0.3848 5:0.4901 6:0.5722 7:0.4189 
1 1:0.1433 2:0.1603 3:0.267 4:0.3883 5:0.4981 6:0.5942 7:0.4308 
1 1:0.0293 2:0.0271 3:0.0356 4:0.0463 5:0.0614 6:0.0803 7:0.0839 
1 1:0.3117 2:0.2896 3:0.3282 4:0.3234 5:0.57321 6:0.4467 7:0.3581 
1 1:0 2:0.3096 3:0.3451 4:0.32921 5:0.526 6:0.416 7:0.3286 
1 1:0.3347 2:0.3136 3:0.2992 4:0.2917 5:0.5021 6:0.3246 7:0.2735 
1 1:0.0472 2:0.0447 3:0.0581 4:0.075 5:0.1223 6:0.2195 7:0.2169 
1 1:0.1526 2:0.1493 3:0.1893 4:0.20121 5:0.3601 6:0.3529 7:0.2869 
1 1:0.1882 2:0.1764 3:0.1822 4:0.1977 5:0.2557 6:0.255 7:0.2388 
1 1:0.0579 2:0.051 3:0.068 4:0.0796 5:0.1541 6:0.2223 7:0.199 
1 1:0.043 2:0.0423 3:0.0601 4:0.0794 5:0.1264 6:0.2181 7:0.2117 
1 1:0.1482 2:0.136 3:0.147 4:0.1611 5:0.2488 6:0.2376 7:0.2042 
1 1:0.0559 2:0.0521 3:0.064 4:0.0766 5:0.1027 6:0.1649 7:0.1774 
1 1:0.0543 2:0.0562 3:0.0886 4:0.1149 5:0.1775 6:0.2504 7:0.2211 
1 1:0.0426 2:0.0474 3:0.0713 4:0.0989 5:0.1476 6:0.2009 7:0.1867 
1 1:0.0449 2:0.0495 3:0.074 4:0.1042 5:0.1599 6:0.2362 7:0.2182 
1 1:0.2543 2:0.2322 3:0.2935 4:0.294 5:0.4481 6:0.3817 7:0.3359 
1 1:0.039 2:0.0384 3:0.0582 4:0.0799 5:0.1202 6:0.1625 7:0.1346 
1 1:0.1023 2:0.0996 3:0.1286 4:0.148 5:0.2255 6:0.2631 7:0.2033 
1 1:0.058 2:0.0525 3:0.0679 4:0.0822 5:0.1203 6:0.2099 7:0.2341 
1 1:0 2:0.3141 3:0.3353 4:0.323 5:0.5304 6:0.3762 7:0.2825 
1 1:0.054 2:0.0544 3:0.083 4:0.109 5:0.1492 6:0.2232 7:0.2035 
1 1:0.1103 2:0.1105 3:0.1454 4:0.1742 5:0.2375 6:0.2935 7:0.24 
1 1:0.258 2:0.2371 3:0.2512 4:0.23921 5:0.4806 6:0.2889 7:0.2148 
1 1:0 2:0.2542 3:0.2785 4:0.27 5:0.4454 6:0.3094 7:0.2465 
1 1:0 2:0.1822 3:0.2183 4:0.2275 5:0.4094 6:0.2404 7:0.1877 
1 1:0.0432 2:0.0423 3:0.0644 4:0.0883 5:0.1354 6:0.1566 7:0.1279 
1 1:0.0237 2:0.0211 3:0.041 4:0.0562 5:0.0842 6:0.1024 7:0.0866 
1 1:0.255 2:0.2392 3:0.2753 4:0.291 5:0.5108 6:0.3883 7:0.2971 
1 1:0.0782 2:0.1106 3:0.1958 4:0.2815 5:0.4048 6:0.3801 7:0.2557 
1 1:0.0989 2:0.1236 3:0.2052 4:0.2892 5:0.3824 6:0.4353 7:0.3358 
1 1:0.0986 2:0.1102 3:0.1884 4:0.2766 5:0.3652 6:0.4524 7:0.3805 
1 1:0.0557 2:0.062 3:0.1436 4:0.2622 5:0.3071 6:0.4468 7:0.4297 
1 1:0.0731 2:0.0813 3:0.1576 4:0.2782 5:0.3276 6:0.462 7:0.4362 
1 1:0.0753 2:0.0804 3:0.1529 4:0.2714 5:0.3234 6:0.4514 7:0.4127 
1 1:0.0841 2:0.0871 3:0.1602 4:0.2723 5:0.3211 6:0.4533 7:0.4134 
1 1:0.1132 2:0.1237 3:0.2374 4:0.3628 5:0.4505 6:0.6819 7:0.6076 
1 1:0.0705 2:0.0743 3:0.1353 4:0.1996 5:0.258 6:0.2913 7:0.2666 
1 1:0.1242 2:0.1357 3:0.2241 4:0.3432 5:0.471 6:0.6136 7:0.4878 
1 1:0.132 2:0.1446 3:0.232 4:0.3549 5:0.4923 6:0.6327 7:0.4967 
1 1:0.1469 2:0.1579 3:0.2405 4:0.3624 5:0.4877 6:0.6326 7:0.5077 
1 1:0.1101 2:0.1239 3:0.2054 4:0.3165 5:0.4399 6:0.573 7:0.4372 
1 1:0 2:0.1657 3:0.2464 4:0.3673 5:0.4852 6:0.6323 7:0.4873 
1 1:0.1254 2:0.1407 3:0.235 4:0.342 5:0.4591 6:0.5945 7:0.4622 
1 1:0.1602 2:0.1742 3:0.2747 4:0.391 5:0.514 6:0.6559 7:0.527 
1 1:0.1579 2:0.1723 3:0.2682 4:0.3846 5:0.505 6:0.65 7:0.5163 
1 1:0.1842 2:0.1937 3:0.2801 4:0.379 5:0.4873 6:0.5848 7:0.4598 
1 1:0 2:0.1813 3:0.2679 4:0.363 5:0.4702 6:0.6065 7:0.4688 
1 1:0.0399 2:0.059 3:0.1323 4:0.2051 5:0.2876 6:0.3636 7:0.3313 
1 1:0.0754 2:0.0885 3:0.1559 4:0.2415 5:0.3294 6:0.4222 7:0.3788 
1 1:0.0645 2:0.0803 3:0.1561 4:0.2447 5:0.3357 6:0.4272 7:0.3881 
1 1:0.0549 2:0.0694 3:0.1414 4:0.2219 5:0.3071 6:0.3859 7:0.3362 
1 1:0.0361 2:0.0526 3:0.1171 4:0.1884 5:0.2752 6:0.3347 7:0.2947 
1 1:0.2844 2:0.2611 3:0.331 4:0.3251 5:0.4962 6:0.4394 7:0.3326 
1 1:0.01021 2:0.0149 3:0.0452 4:0.0524 5:0.1507 6:0.1496 7:0.1017 
1 1:0.0632 2:0.0727 3:0.1218 4:0.1794 5:0.2628 6:0.4186 7:0.3548 
1 1:0.0383 2:0.0507 3:0.097 4:0.1395 5:0.2267 6:0.3072 7:0.2492 
1 1:0.0572 2:0.0645 3:0.1081 4:0.1587 5:0.2274 6:0.3686 7:0.312 
1 1:0.0715 2:0.0806 3:0.1304 4:0.1864 5:0.2641 6:0.4247 7:0.3772 
1 1:0 2:0.086 3:0.1223 4:0.1621 5:0.2529 6:0.4029 7:0.3316 
1 1:0.174 2:0.1526 3:0.1931 4:0.2152 5:0.2597 6:0.2971 7:0.2415 
1 1:0.1824 2:0.1635 3:0.1712 4:0.163 5:0.30421 6:0.2181 7:0.1645 
1 1:0 2:0.3262 3:0.344 4:0.3295 5:0.498 6:0.3452 7:0.2515 
1 1:0 2:0.2093 3:0.2036 4:0.2032 5:0.3747 6:0.2534 7:0.1825 
1 1:0.2102 2:0.19321 3:0.1996 4:0.207 5:0.383 6:0.3234 7:0.2487 
1 1:0.2552 2:0.2296 3:0.2644 4:0.269 5:0.4122 6:0.3214 7:0.2644 
1 1:0 2:0.1956 3:0.256 4:0.3117 5:0.4647 6:1.6 7:0.498 
1 1:0.3236 2:0.2885 3:0.2684 4:0.2542 5:0.3753 6:0.182 7:0.1165 
1 1:0.0492 2:0.0515 3:0.0772 4:0.107 5:0.1682 6:0.2769 7:0.2624 
1 1:0.0696 2:0.0714 3:0.1039 4:0.1404 5:0.2126 6:0.3323 7:0.3152 
1 1:0.0669 2:0.0623 3:0.0832 4:0.1171 5:0.2029 6:0.3134 7:0.2703 
1 1:0 2:0.0329 3:0.0322 4:0.0543 5:0.0788 6:0.132 7:0.2217 
1 1:0 2:0.0423 3:0.0434 4:0.0682 5:0.0935 6:0.1653 7:0.2583 
1 1:0.1491 2:0.14521 3:0.1371 4:0.1466 5:0.3322 6:0.1944 7:0.154 
1 1:0.0478 2:0.0473 3:0.0796 4:0.1154 5:0.2341 6:0.31121 7:0.2543 
1 1:0.0557 2:0.0532 3:0.0892 4:0.1306 5:0.2456 6:0.3313 7:0.2656 
1 1:0.1205 2:0.1126 3:0.1406 4:0.1651 5:0.2971 6:0.3464 7:0.2629 
1 1:0.0567 2:0.0523 3:0.0593 4:0.075 5:0.1089 6:0.2052 7:0.2044 
1 1:0.131 2:0.113 3:0.1482 4:0.1481 5:0.3015 6:0.2284 7:0.1256 
1 1:0 2:0.2205 3:0.234 4:0.2275 5:0.4544 6:0.3663 7:0.316 
1 1:0 2:0.28721 3:0.2853 4:0.2586 5:0.5143 6:0.3134 7:0.2042 
1 1:0.1773 2:0.1712 3:0.19521 4:0.2031 5:0.3743 6:0.2849 7:0.2222 
1 1:0 2:0.212 3:0.2235 4:0.2243 5:0.3542 6:0.24121 7:0.1638 
1 1:0.0259 2:0.0189 3:0.0301 4:0.0395 5:0.0609 6:0.0973 7:0.1017 
1 1:0.2165 2:0.2093 3:0.2284 4:0.2442 5:0.3871 6:0.4041 7:0.3309 
1 1:0.228 2:0.21821 3:0.2532 4:0.2675 5:0.4206 6:0.4449 7:0.3117 
1 1:0.2964 2:0.28121 3:0.2677 4:0.2742 5:0.427 6:0.3324 7:0.2656 
1 1:0.2677 2:0.2512 3:0.27221 4:0.2664 5:0.4787 6:0.356 7:0.3209 
1 1:0.1824 2:0.1694 3:0.169 4:0.1634 5:0.2742 6:0.1894 7:0.1296 
1 1:0.303 2:0.28821 3:0.2394 4:0.2456 5:0.4224 6:0.3373 7:0.2196 
1 1:0.0695 2:0.0653 3:0.0851 4:0.0927 5:0.1733 6:0.167 7:0.1244 
1 1:0.149 2:0.1346 3:0.1484 4:0.1412 5:0.3082 6:0.1987 7:0.1495 
1 1:0.193 2:0.1696 3:0.1961 4:0.1892 5:0.3864 6:0.27121 7:0.2093 
1 1:0.036 2:0.0325 3:0.0447 4:0.0591 5:0.1015 6:0.1322 7:0.1141 
1 1:0.2314 2:0.21321 3:0.2341 4:0.225 5:0.4311 6:0.3106 7:0.2775 
1 1:0.2825 2:0.2612 3:0.28621 4:0.2837 5:0.4216 6:0.3473 7:0.247 
1 1:0.0736 2:0.0633 3:0.0651 4:0.0692 5:0.09 6:0.1119 7:0.113 
1 1:0 2:0.1994 3:0.2035 4:0.1943 5:0.3465 6:0.215 7:0.1422 
1 1:0 2:0.2485 3:0.2392 4:0.2222 5:0.3966 6:0.2182 7:0.1394 
1 1:0.309 2:0.28521 3:0.2874 4:0.2846 5:0.5156 6:0.3976 7:0.3048 
1 1:0 2:0.2835 3:0.2911 4:0.2717 5:0.46721 6:0.3382 7:0.2528 
1 1:0 2:0.206 3:0.2142 4:0.2036 5:0.4375 6:0.3071 7:0.2057 
1 1:0.055 2:0.0523 3:0.0687 4:0.091 5:0.1777 6:0.2177 7:0.1724 
1 1:0 2:0.2947 3:0.3054 4:0.2892 5:0.5172 6:0.3481 7:0.2885 
1 1:0.1862 2:0.174 3:0.20421 4:0.1998 5:0.3897 6:0.3425 7:0.2555 
1 1:0.0355 2:0.0314 3:0.0422 4:0.0526 5:0.0846 6:0.1299 7:0.126 
1 1:0.0837 2:0.0706 3:0.0727 4:0.0774 5:0.1254 6:0.2107 7:0.2206 
1 1:0.2776 2:0.2603 3:0.2882 4:0.2933 5:0.4373 6:0.3664 7:0.289 
1 1:0.0855 2:0.0747 3:0.0789 4:0.085 5:0.1293 6:0.1532 7:0.1233 
1 1:0.0899 2:0.078 3:0.0823 4:0.0892 5:0.1239 6:0.1393 7:0.1158 
1 1:0.2082 2:0.1862 3:0.1717 4:0.1712 5:0.349 6:0.1565 7:0.13 
1 1:0.22121 2:0.197 3:0.2029 4:0.1904 5:0.3546 6:0.1863 7:0.1414 
1 1:0 2:0.21721 3:0.2192 4:0.2202 5:0.3714 6:0.3152 7:0.2542 
1 1:0.02 2:0.022 3:0.0381 4:0.0539 5:0.1059 6:0.1289 7:0.0997 
1 1:0.022 2:0.0217 3:0.0371 4:0.0556 5:0.0953 6:0.1307 7:0.1181 
1 1:0.1976 2:0.17021 3:0.2197 4:0.2041 5:0.4087 6:0.3552 7:0.2727 
1 1:0.1691 2:0.1613 3:0.1966 4:0.1922 5:0.40321 6:0.353 7:0.2549 
1 1:0.2112 2:0.19 3:0.194 4:0.2056 5:0.313 6:0.3055 7:0.2304 
1 1:0.2385 2:0.2212 3:0.25921 4:0.2793 5:0.3761 6:0.367 7:0.2948 
1 1:0.2041 2:0.19721 3:0.2185 4:0.2279 5:0.4051 6:0.315 7:0.248 
1 1:0.2286 2:0.2082 3:0.2367 4:0.233 5:0.4114 6:0.3463 7:0.2873 
1 1:0.1271 2:0.1242 3:0.13321 4:0.1407 5:0.3162 6:0.2736 7:0.178 
1 1:0 2:0.30221 3:0.3089 4:0.3124 5:0.45 6:0.3202 7:0.2304 
1 1:0.2052 2:0.1758 3:0.2095 4:0.1904 5:0.3948 6:0.2657 7:0.2284 
1 1:0.1625 2:0.1385 3:0.1944 4:0.1806 5:0.3564 6:0.2874 7:0.2099 
1 1:0.2712 2:0.2412 3:0.259 4:0.2502 5:0.3213 6:0.2423 7:0.1685 
1 1:0.1976 2:0.1896 3:0.166 4:0.1882 5:0.3204 6:0.2683 7:0.2126 
1 1:0.21521 2:0.2035 3:0.2159 4:0.2272 5:0.3259 6:0.3295 7:0.2519 
1 1:0.0263 2:0.0282 3:0.0474 4:0.0636 5:0.1022 6:0.1349 7:0.1281 
1 1:0.0217 2:0.0187 3:0.0281 4:0.0373 5:0.0624 6:0.1021 7:0.1 
1 1:0.2302 2:0.2276 3:0.2103 4:0.258 5:0.35 6:0.36021 7:0.2709 
1 1:0.2714 2:0.254 3:0.25221 4:0.2533 5:0.4421 6:0.3192 7:0.2632 
1 1:0.1862 2:0.1837 3:0.1955 4:0.2384 5:0.31421 6:0.3694 7:0.2943 
1 1:0.0302 2:0.0327 3:0.0595 4:0.0858 5:0.1866 6:0.1999 7:0.1508 
1 1:0.2364 2:0.2315 3:0.254 4:0.2712 5:0.4252 6:0.3735 7:0.3301 
1 1:0.1021 2:0.094 3:0.1327 4:0.1291 5:0.2755 6:0.1714 7:0.1111 
1 1:0.2777 2:0.2576 3:0.2644 4:0.2653 5:0.3652 6:0.1973 7:0.1651 
1 1:0.0627 2:0.0647 3:0.0935 4:0.14 5:0.233 6:0.3109 7:0.2533 
1 1:0.0592 2:0.0595 3:0.0918 4:0.1374 5:0.219 6:0.3497 7:0.3977 
1 1:0.14621 2:0.1452 3:0.2056 4:0.2601 5:0.3494 6:0.3981 7:0.3295 
1 1:0.17021 2:0.1582 3:0.1712 4:0.1782 5:0.258 6:0.2627 7:0.2125 
1 1:0.1216 2:0.1162 3:0.1424 4:0.1508 5:0.2321 6:0.2575 7:0.2013 
1 1:0 2:0.1772 3:0.18121 4:0.1649 5:0.2612 6:0.1619 7:0.1087 
1 1:0.0765 2:0.0692 3:0.0792 4:0.0907 5:0.1433 6:0.1947 7:0.1685 
1 1:0 2:0.1912 3:0.1874 4:0.1695 5:0.3092 6:0.174 7:0.1188 
1 1:0.2452 2:0.2361 3:0.2547 4:0.3024 5:0.3991 6:0.4856 7:0.3776 
1 1:0.0653 2:0.0595 3:0.0699 4:0.0779 5:0.1382 6:0.1571 7:0.1243 
1 1:0.2753 2:0.2522 3:0.2831 4:0.28421 5:0.4062 6:0.2404 7:0.1601 
1 1:0.1854 2:0.1853 3:0.2086 4:0.2251 5:0.3614 6:0.301 7:0.2477 
1 1:0.1426 2:0.1297 3:0.1446 4:0.1456 5:0.2635 6:0.2245 7:0.1674 
1 1:0.2424 2:0.2254 3:0.235 4:0.2286 5:0.4355 6:0.2854 7:0.2132 
1 1:0.2007 2:0.1893 3:0.1975 4:0.2045 5:0.3487 6:0.2482 7:0.2086 
1 1:0.0436 2:0.0392 3:0.0514 4:0.0636 5:0.0891 6:0.1383 7:0.148 
1 1:0.0336 2:0.0323 3:0.0455 4:0.063 5:0.1051 6:0.1312 7:0.1145 
1 1:0.0521 2:0.0485 3:0.0693 4:0.0741 5:0.2175 6:0.1751 7:0.0978 
1 1:0 2:0.176 3:0.19421 4:0.1699 5:0.4063 6:0.2633 7:0.2308 
1 1:0.3132 2:0.2876 3:0.278 4:0.273 5:0.4577 6:0.2595 7:0.2164 
1 1:0 2:0.1724 3:0.1977 4:0.194 5:0.3901 6:0.3232 7:0.2496 
1 1:0.2057 2:0.2001 3:0.2147 4:0.2477 5:0.3382 6:0.3677 7:0.2899 
1 1:0.281 2:0.2633 3:0.2754 4:0.3032 5:0.3918 6:0.28821 7:0.194 
1 1:0 2:0.2225 3:0.2216 4:0.2232 5:0.4702 6:0.3104 7:0.2748 
1 1:0.0279 2:0.0257 3:0.0421 4:0.0614 5:0.0952 6:0.1433 7:0.142 
1 1:0.1926 2:0.1692 3:0.243 4:0.2876 5:0.3382 6:0.3877 7:0.3201 
1 1:0.1076 2:0.1014 3:0.1131 4:0.1223 5:0.1625 6:0.1802 7:0.1649 
1 1:0 2:0.28421 3:0.2982 4:0.2869 5:0.4795 6:0.2989 7:0.2526 
1 1:0.1692 2:0.16421 3:0.1486 4:0.1844 5:0.2908 6:0.3184 7:0.2451 
1 1:0 2:0.0794 3:0.1042 4:0.1005 5:0.2845 6:0.1861 7:0.1165 
1 1:0.245 2:0.2184 3:0.2285 4:0.2162 5:0.4145 6:0.2181 7:0.1644 
1 1:0.1712 2:0.1474 3:0.2031 4:0.2061 5:0.3923 6:0.3423 7:0.2366 
1 1:0 2:0.1477 3:0.1652 4:0.1506 5:0.3648 6:0.2335 7:0.1681 
1 1:0 2:0.3047 3:0.3071 4:0.2927 5:0.50121 6:0.3373 7:0.2614 
1 1:0.0293 2:0.0282 3:0.0832 4:0.1324 5:0.2315 6:0.1817 7:0.1047 
1 1:0.2863 2:0.2715 3:0.2792 4:0.2751 5:0.4703 6:0.3601 7:0.3279 
1 1:0 2:0.2402 3:0.2365 4:0.2282 5:0.3953 6:0.2246 7:0.1675 
1 1:0 2:0.2492 3:0.2422 4:0.236 5:0.3914 6:0.2313 7:0.1889 
1 1:0.2842 2:0.2622 3:0.2781 4:0.27121 5:0.4786 6:0.3496 7:0.3145 
1 1:0.2552 2:0.2271 3:0.2585 4:0.2458 5:0.43621 6:0.342 7:0.2691 
1 1:0.0414 2:0.0373 3:0.058 4:0.0789 5:0.1621 6:0.2591 7:0.2058 
1 1:0.2556 2:0.2361 3:0.2474 4:0.2405 5:0.4972 6:0.33021 7:0.273 
1 1:0.2053 2:0.1882 3:0.2304 4:0.2412 5:0.3902 6:0.3954 7:0.3098 
1 1:0 2:0.2617 3:0.2637 4:0.2542 5:0.4106 6:0.3182 7:0.2648 
1 1:0.2462 2:0.226 3:0.2543 4:0.2602 5:0.36321 6:0.3406 7:0.3018 
1 1:0.0591 2:0.0563 3:0.0733 4:0.092 5:0.143 6:0.2382 7:0.2325 
1 1:0.0959 2:0.0953 3:0.1202 4:0.1554 5:0.2829 6:0.343 7:0.2335 
1 1:0.0523 2:0.0519 3:0.0802 4:0.1121 5:0.2467 6:0.3425 7:0.2576 
1 1:0.0899 2:0.1 3:0.1451 4:0.1949 5:0.331 6:0.4064 7:0.2959 
1 1:0.0979 2:0.1113 3:0.1585 4:0.2183 5:0.3453 6:0.4479 7:0.3397 
1 1:0.1031 2:0.1069 3:0.1499 4:0.1776 5:0.2117 6:0.1985 7:0.1451 
1 1:0.2277 2:0.1945 3:0.22321 4:0.2002 5:0.4449 6:0.2816 7:0.2247 
1 1:0.0497 2:0.0481 3:0.0707 4:0.1002 5:0.1445 6:0.2311 7:0.2327 
1 1:0 2:0.3011 3:0.29621 4:0.2917 5:0.5365 6:0.3823 7:0.3569 
1 1:0 2:0.22721 3:0.2417 4:0.2432 5:0.4071 6:0.3607 7:0.2908 
1 1:0.1092 2:0.121 3:0.1999 4:0.2936 5:0.3852 6:0.482 7:0.3914 
1 1:0.1195 2:0.1341 3:0.2162 4:0.3204 5:0.4152 6:0.5223 7:0.4157 
1 1:0.1292 2:0.1419 3:0.223 4:0.3222 5:0.415 6:0.5192 7:0.4136 
1 1:0.1274 2:0.1415 3:0.224 4:0.3317 5:0.4244 6:0.5299 7:0.4254 
1 1:0 2:0.17 3:0.1865 4:0.1885 5:0.3544 6:0.3471 7:0.2647 
1 1:0.29621 2:0.2822 3:0.3099 4:0.3114 5:0.516 6:0.3784 7:0.3197 
1 1:0.3135 2:0.2867 3:0.3174 4:0.3026 5:0.5202 6:0.4187 7:0.3445 
1 1:0.2773 2:0.2592 3:0.2623 4:0.2644 5:0.4063 6:0.3066 7:0.2264 
1 1:0 2:0.25021 3:0.3013 4:0.3129 5:0.5 6:0.4671 7:0.3762 
1 1:0.0375 2:0.0342 3:0.0497 4:0.0702 5:0.1104 6:0.1392 7:0.1262 
1 1:0.0406 2:0.0397 3:0.0592 4:0.0792 5:0.1333 6:0.158 7:0.1291 
1 1:0.0146 2:0.011 3:0.0197 4:0.0289 5:0.0597 6:0.0792 7:0.0769 
1 1:0.0671 2:0.0715 3:0.1336 4:0.1926 5:0.2806 6:0.4254 7:0.3389 
1 1:0.0753 2:0.0802 3:0.1454 4:0.2097 5:0.2918 6:0.4472 7:0.3626 
1 1:0.0842 2:0.0899 3:0.1516 4:0.2072 5:0.3082 6:0.4191 7:0.3409 
1 1:0.2742 2:0.25421 3:0.2903 4:0.2967 5:0.4321 6:0.3439 7:0.264 
1 1:0.06 2:0.0675 3:0.1465 4:0.2565 5:0.3262 6:0.4198 7:0.3792 
1 1:0.0765 2:0.0865 3:0.1693 4:0.2904 5:0.3659 6:0.4601 7:0.4032 
1 1:0.088 2:0.0952 3:0.1815 4:0.3087 5:0.3813 6:0.482 7:0.422 
1 1:0.0582 2:0.0653 3:0.1455 4:0.2586 5:0.3292 6:0.4254 7:0.387 
1 1:0.0814 2:0.0884 3:0.141 4:0.2019 5:0.2775 6:0.3801 7:0.3334 
1 1:0.1096 2:0.1169 3:0.176 4:0.2453 5:0.3235 6:0.4389 7:0.3876 
1 1:0 2:0.23421 3:0.2805 4:0.2994 5:0.5069 6:0.4894 7:0.368 
1 1:0.2125 2:0.205 3:0.249 4:0.2747 5:0.4143 6:0.2996 7:0.2582 
1 1:0.1409 2:0.1566 3:0.259 4:0.3784 5:0.4779 6:0.6027 7:0.5202 
1 1:0.1155 2:0.1357 3:0.233 4:0.3459 5:0.4992 6:0.5623 7:0.5026 
1 1:0 2:0.1896 3:0.3054 4:0.4186 5:0.5562 6:0.5925 7:0.4832 
1 1:0.1472 2:0.1682 3:0.269 4:0.3724 5:0.4573 6:0.4457 7:0.3751 
1 1:0.1567 2:0.1734 3:0.265 4:0.3742 5:0.4733 6:0.469 7:0.3767 
1 1:0.1347 2:0.1553 3:0.2492 4:0.359 5:0.4447 6:0.4327 7:0.3531 
1 1:0.1432 2:0.1639 3:0.2641 4:0.3742 5:0.4541 6:0.4393 7:0.3745 
1 1:0.1334 2:0.1484 3:0.2575 4:0.3803 5:0.4696 6:0.6276 7:0.5467 
1 1:0.0714 2:0.0774 3:0.1526 4:0.27 5:0.3835 6:0.6087 7:0.5767 
1 1:0.0997 2:0.1036 3:0.1715 4:0.2836 5:0.391 6:0.6294 7:0.5795 
1 1:0.0802 2:0.0824 3:0.1506 4:0.2649 5:0.3824 6:0.6246 7:0.5628 
1 1:0.073 2:0.0762 3:0.1482 4:0.2635 5:0.3769 6:0.613 7:0.5752 
1 1:0 2:0.1075 3:0.1735 4:0.2792 5:0.38 6:0.5962 7:0.5506 
1 1:0.1563 2:0.169 3:0.2547 4:0.3521 5:0.4305 6:0.5786 7:0.4768 
1 1:0.1541 2:0.1692 3:0.2625 4:0.3623 5:0.4372 6:0.5452 7:0.4312 
1 1:0.1546 2:0.1674 3:0.2517 4:0.3444 5:0.4362 6:0.5461 7:0.4338 
1 1:0.1111 2:0.1214 3:0.2039 4:0.3061 5:0.4015 6:0.5747 7:0.5226 
1 1:0.1357 2:0.144 3:0.2263 4:0.3305 5:0.4242 6:0.6019 7:0.5273 
1 1:0.1023 2:0.1095 3:0.184 4:0.285 5:0.3949 6:0.5849 7:0.5156 
1 1:0.0852 2:0.0951 3:0.1757 4:0.2801 5:0.3896 6:0.5734 7:0.5105 
1 1:0.0961 2:0.1026 3:0.1794 4:0.2825 5:0.3936 6:0.5904 7:0.531 
1 1:0.1062 2:0.1215 3:0.2317 4:0.3929 5:0.4851 6:0.6392 7:0.5834 
1 1:0.0975 2:0.1127 3:0.2029 4:0.2963 5:0.3802 6:0.5606 7:0.5201 
1 1:0.1087 2:0.1226 3:0.2127 4:0.3156 5:0.4032 6:0.5852 7:0.5511 
1 1:0.1363 2:0.1482 3:0.2371 4:0.3337 5:0.4228 6:0.5911 7:0.5371 
1 1:0.1074 2:0.1227 3:0.2202 4:0.3199 5:0.4057 6:0.5774 7:0.5276 
1 1:0.0764 2:0.0869 3:0.179 4:0.3207 5:0.434 6:0.614 7:0.5926 
1 1:0.0762 2:0.0862 3:0.1768 4:0.324 5:0.4442 6:0.6294 7:0.6036 
1 1:0.0832 2:0.091 3:0.1781 4:0.3196 5:0.4385 6:0.6202 7:0.5785 
1 1:0.0723 2:0.0811 3:0.1625 4:0.2901 5:0.3942 6:0.5443 7:0.5268 
1 1:0 2:0.1129 3:0.1782 4:0.314 5:0.4292 6:0.6027 7:0.5681 
1 1:0.1132 2:0.1231 3:0.2049 4:0.2739 5:0.4152 6:0.4439 7:0.3735 
1 1:0.1192 2:0.1349 3:0.2231 4:0.3106 5:0.3989 6:0.4932 7:0.4136 
1 1:0.1113 2:0.1233 3:0.2221 4:0.3132 5:0.3819 6:0.4725 7:0.4016 
1 1:0 2:0.154 3:0.2329 4:0.317 5:0.3847 6:0.4804 7:0.4187 
1 1:0.1037 2:0.1111 3:0.1739 4:0.247 5:0.3123 6:0.4185 7:0.359 
1 1:0.1401 2:0.1455 3:0.2152 4:0.2974 5:0.3702 6:0.4731 7:0.3994 
1 1:0.145 2:0.1491 3:0.2123 4:0.2942 5:0.3695 6:0.4734 7:0.3973 
1 1:0.1234 2:0.1305 3:0.197 4:0.273 5:0.3422 6:0.4495 7:0.3806 
1 1:0.1285 2:0.1336 3:0.1955 4:0.2762 5:0.3456 6:0.4522 7:0.4034 
1 1:0.1652 2:0.175 3:0.2453 4:0.3325 5:0.4289 6:0.5922 7:0.4791 
1 1:0.1176 2:0.1265 3:0.2005 4:0.3011 5:0.4241 6:0.6243 7:0.5145 
1 1:0.1215 2:0.1305 3:0.2046 4:0.3106 5:0.4365 6:0.6357 7:0.5133 
1 1:0.1031 2:0.1113 3:0.1843 4:0.292 5:0.4191 6:0.624 7:0.5151 
1 1:0.118 2:0.1259 3:0.2014 4:0.308 5:0.4429 6:0.654 7:0.5365 
1 1:0.2702 2:0.2473 3:0.2582 4:0.25621 5:0.3499 6:0.178 7:0.1664 
1 1:0.1401 2:0.1443 3:0.1793 4:0.213 5:0.2552 6:0.3297 7:0.324 
1 1:0.1446 2:0.1394 3:0.1492 4:0.15521 5:0.2756 6:0.2261 7:0.1822 
1 1:0.1504 2:0.1467 3:0.1681 4:0.2023 5:0.29121 6:0.3685 7:0.2726 
1 1:0.148 2:0.134 3:0.1463 4:0.138 5:0.384 6:0.209 7:0.1638 
1 1:0.2123 2:0.2191 3:0.2619 4:0.2974 5:0.352 6:0.3752 7:0.2882 
1 1:0.1983 2:0.2052 3:0.251 4:0.288 5:0.337 6:0.3601 7:0.2781 
1 1:0.1983 2:0.2052 3:0.2475 4:0.283 5:0.3244 6:0.346 7:0.269 
1 1:0.1931 2:0.2014 3:0.2423 4:0.2781 5:0.3274 6:0.3608 7:0.2841 
1 1:0 2:0.2262 3:0.2636 4:0.2892 5:0.3469 6:0.3677 7:0.252 
1 1:0.2104 2:0.1742 3:0.1733 4:0.1562 5:0.2412 6:0.1345 7:0.0807 
1 1:0.1836 2:0.1594 3:0.21 4:0.20121 5:0.3042 6:0.2091 7:0.1598 
1 1:0 2:0.2302 3:0.2486 4:0.2402 5:0.4113 6:0.3258 7:0.2843 
1 1:0 2:0.0232 3:0.0185 4:0.0292 5:0.0422 6:0.0741 7:0.1118 
1 1:0 2:0.1697 3:0.1751 4:0.1601 5:0.2866 6:0.2084 7:0.1867 
1 1:0 2:0.1727 3:0.1706 4:0.1511 5:0.3104 6:0.1821 7:0.1209 
1 1:0.2346 2:0.2153 3:0.2193 4:0.21621 5:0.3475 6:0.2769 7:0.2114 
1 1:0 2:0.2761 3:0.2774 4:0.2652 5:0.37421 6:0.1982 7:0.1674 
1 1:0.1917 2:0.1765 3:0.2252 4:0.2204 5:0.379 6:0.3043 7:0.2711 
1 1:0.0542 2:0.0475 3:0.0533 4:0.0582 5:0.0852 6:0.1037 7:0.0966 
1 1:0.1345 2:0.1295 3:0.1423 4:0.1392 5:0.3138 6:0.2297 7:0.1619 
1 1:0.1593 2:0.1405 3:0.1582 4:0.1534 5:0.3286 6:0.2116 7:0.1616 
1 1:0.096 2:0.0832 3:0.0814 4:0.07921 5:0.1764 6:0.1009 7:0.0739 
1 1:0.18821 2:0.1732 3:0.1752 4:0.1762 5:0.2712 6:0.218 7:0.1925 
1 1:0 2:0.1816 3:0.1964 4:0.193 5:0.3222 6:0.2563 7:0.1928 
1 1:0.2791 2:0.2697 3:0.2621 4:0.2735 5:0.3463 6:0.0755 7:0.0601 
1 1:0 2:0.1656 3:0.1832 4:0.1832 5:0.2938 6:0.1805 7:0.116 
1 1:0.2665 2:0.2507 3:0.26921 4:0.2822 5:0.4164 6:0.3572 7:0.2958 
1 1:0.1667 2:0.1466 3:0.1427 4:0.1432 5:0.211 6:0.0944 7:0.0518 
1 1:0 2:0.2297 3:0.2432 4:0.2401 5:0.3433 6:0.2761 7:0.239 
1 1:0 2:0.2893 3:0.2991 4:0.294 5:0.4183 6:0.285 7:0.2129 
1 1:0.2587 2:0.2346 3:0.2221 4:0.21921 5:0.3382 6:0.1947 7:0.1727 
1 1:0.2342 2:0.2197 3:0.2117 4:0.2118 5:0.3456 6:0.2803 7:0.2474 
1 1:0.1872 2:0.16621 3:0.1666 4:0.1523 5:0.3612 6:0.219 7:0.1558 
1 1:0.2942 2:0.2932 3:0.2933 4:0.3222 5:0.5331 6:0.4016 7:0.3147 
1 1:0.198 2:0.195 3:0.21921 4:0.2382 5:0.3195 6:0.301 7:0.2705 
1 1:0.202 2:0.1797 3:0.199 4:0.1883 5:0.3205 6:0.2345 7:0.1906 
1 1:0.2025 2:0.18821 3:0.1781 4:0.1754 5:0.2975 6:0.1966 7:0.1539 
1 1:0.1971 2:0.1851 3:0.1984 4:0.1992 5:0.2972 6:0.2504 7:0.1911 
1 1:0 2:0.1426 3:0.16 4:0.1516 5:0.3642 6:0.2277 7:0.167 
1 1:0.131 2:0.1244 3:0.1425 4:0.15 5:0.1852 6:0.1617 7:0.1375 
1 1:0.1713 2:0.1513 3:0.1644 4:0.1625 5:0.1942 6:0.1722 7:0.1398 
1 1:0 2:0.2131 3:0.2386 4:0.222 5:0.4692 6:0.3028 7:0.2302 
1 1:0.1986 2:0.1886 3:0.1922 4:0.1954 5:0.3403 6:0.2272 7:0.1675 
1 1:0 2:0.23821 3:0.2449 4:0.2406 5:0.3637 6:0.2962 7:0.2491 
1 1:0 2:0.1763 3:0.196 4:0.1824 5:0.3631 6:0.243 7:0.223 
1 1:0.0407 2:0.0392 3:0.0505 4:0.0684 5:0.1137 6:0.217 7:0.2347 
1 1:0 2:0.247 3:0.2492 4:0.2466 5:0.4313 6:0.3066 7:0.2643 
1 1:0.2082 2:0.1822 3:0.2261 4:0.2174 5:0.41821 6:0.3581 7:0.2159 
1 1:0.18421 2:0.1623 3:0.2267 4:0.2139 5:0.3124 6:0.2677 7:0.2273 
1 1:0 2:0.2175 3:0.2563 4:0.2435 5:0.4272 6:0.3238 7:0.2491 
1 1:0.0992 2:0.1036 3:0.153 4:0.186 5:0.2959 6:0.3563 7:0.294 
1 1:0.2426 2:0.22721 3:0.2412 4:0.2486 5:0.3162 6:0.2383 7:0.211 
1 1:0 2:0.1811 3:0.2012 4:0.1902 5:0.3847 6:0.2722 7:0.2052 
1 1:0.1775 2:0.177 3:0.1563 4:0.1812 5:0.3442 6:0.25821 7:0.2208 
1 1:0.0491 2:0.0623 3:0.1264 4:0.2087 5:0.2704 6:0.2946 7:0.2843 
1 1:0.0564 2:0.0664 3:0.1276 4:0.2092 5:0.2742 6:0.2993 7:0.2854 
1 1:0.066 2:0.0743 3:0.1362 4:0.2179 5:0.28 6:0.3074 7:0.2861 
1 1:0.0516 2:0.0674 3:0.1386 4:0.2251 5:0.2892 6:0.3125 7:0.2888 
1 1:0.0902 2:0.0974 3:0.1561 4:0.224 5:0.3301 6:0.3179 7:0.2612 
1 1:0.0996 2:0.1035 3:0.1341 4:0.1622 5:0.2223 6:0.3236 7:0.2992 
1 1:0.0925 2:0.0972 3:0.1346 4:0.1633 5:0.2288 6:0.3101 7:0.2775 
1 1:0.0043 2:0.001 3:0.0107 4:0.0251 5:0.0603 6:0.1179 7:0.1223 
1 1:0.0581 2:0.0605 3:0.1336 4:0.226 5:0.2832 6:0.3142 7:0.2041 
1 1:0.0407 2:0.0451 3:0.1145 4:0.1977 5:0.2517 6:0.2881 7:0.1853 
1 1:0 2:0.1084 3:0.1652 4:0.2313 5:0.2715 6:0.2847 7:0.1873 
1 1:0.0602 2:0.0682 3:0.1491 4:0.2315 5:0.2734 6:0.2814 7:0.191 
1 1:0.0879 2:0.0929 3:0.1711 4:0.2552 5:0.3038 6:0.331 7:0.2242 
1 1:0.0937 2:0.1024 3:0.2013 4:0.3192 5:0.3868 6:0.4549 7:0.3544 
1 1:0.0681 2:0.0781 3:0.1723 4:0.2815 5:0.3446 6:0.4076 7:0.3061 
1 1:0 2:0.1111 3:0.1787 4:0.2505 5:0.3001 6:0.3361 7:0.2304 
1 1:0.0636 2:0.0679 3:0.1454 4:0.2285 5:0.2842 6:0.1865 7:0.1109 
1 1:0.1565 2:0.168 3:0.2624 4:0.3584 5:0.4153 6:0.319 7:0.1814 
1 1:0.0917 2:0.1 3:0.1793 4:0.2755 5:0.3459 6:0.3379 7:0.2143 
1 1:0.0851 2:0.086 3:0.158 4:0.2455 5:0.2944 6:0.2142 7:0.1352 
1 1:0.1541 2:0.1642 3:0.2576 4:0.3673 5:0.4294 6:0.4279 7:0.2941 
1 1:0.1103 2:0.1182 3:0.1962 4:0.3044 5:0.3735 6:0.3967 7:0.2779 
1 1:0.0782 2:0.082 3:0.1544 4:0.2413 5:0.2923 6:0.2332 7:0.1389 
1 1:0 2:0.1401 3:0.2102 4:0.2887 5:0.3417 6:0.2671 7:0.1454 
1 1:0.0851 2:0.0882 3:0.1466 4:0.2192 5:0.308 6:0.4568 7:0.3646 
1 1:0.1122 2:0.1222 3:0.188 4:0.2702 5:0.3662 6:0.5179 7:0.428 
1 1:0.116 2:0.1244 3:0.185 4:0.2656 5:0.356 6:0.5057 7:0.4063 
1 1:0.0911 2:0.0984 3:0.1602 4:0.2336 5:0.3219 6:0.4723 7:0.3712 
1 1:0 2:0.1423 3:0.2004 4:0.2697 5:0.3562 6:0.4934 7:0.3854 
1 1:0.1645 2:0.167 3:0.2313 4:0.3251 5:0.4219 6:0.5226 7:0.4279 
1 1:0.1196 2:0.1302 3:0.208 4:0.3071 5:0.4149 6:0.5646 7:0.4618 
1 1:0.1265 2:0.1369 3:0.2123 4:0.3089 5:0.4067 6:0.5469 7:0.4416 
1 1:0.1036 2:0.1132 3:0.1881 4:0.2757 5:0.3725 6:0.5057 7:0.3947 
1 1:0 2:0.1482 3:0.2221 4:0.3057 5:0.3956 6:0.5258 7:0.4254 
1 1:0.0449 2:0.0573 3:0.1344 4:0.2254 5:0.2735 6:0.2453 7:0.1263 
1 1:0.161 2:0.1723 3:0.248 4:0.3361 5:0.384 6:0.3893 7:0.3088 
1 1:0.1986 2:0.2022 3:0.2694 4:0.3446 5:0.3821 6:0.3473 7:0.2363 
1 1:0.0546 2:0.06 3:0.1242 4:0.2087 5:0.2579 6:0.2423 7:0.1278 
1 1:0.0387 2:0.0427 3:0.0952 4:0.1559 5:0.195 6:0.1962 7:0.1069 
1 1:0.1062 2:0.1088 3:0.1638 4:0.2323 5:0.2701 6:0.2651 7:0.1659 
1 1:0.1181 2:0.1184 3:0.165 4:0.2293 5:0.2771 6:0.2347 7:0.1064 
1 1:0.0589 2:0.0645 3:0.1159 4:0.1832 5:0.2323 6:0.2119 7:0.0912 
1 1:0.018 2:0.0146 3:0.0444 4:0.0769 5:0.0963 6:0.109 7:0.0559 
1 1:0.0423 2:0.0466 3:0.1002 4:0.1592 5:0.1899 6:0.1747 7:0.1024 
1 1:0.1073 2:0.1123 3:0.1687 4:0.2391 5:0.2716 6:0.2193 7:0.1228 
1 1:0.1187 2:0.1189 3:0.1683 4:0.2342 5:0.2645 6:0.2263 7:0.1349 
1 1:0.0637 2:0.0636 3:0.1022 4:0.1547 5:0.186 6:0.1976 7:0.139 
1 1:0.0664 2:0.0557 3:0.1114 4:0.11621 5:0.1192 6:0.2012 7:0.2074 
1 1:0.0603 2:0.0633 3:0.087 4:0.09 5:0.1432 6:0.1461 7:0.1225 
1 1:0.0427 2:0.0505 3:0.096 4:0.1203 5:0.1952 6:0.1826 7:0.1616 
1 1:0.1217 2:0.1366 3:0.223 4:0.2916 5:0.3764 6:0.4322 7:0.3963 
1 1:0.1079 2:0.1243 3:0.2072 4:0.2689 5:0.3632 6:0.3861 7:0.3405 
1 1:0.0872 2:0.101 3:0.1787 4:0.2406 5:0.3159 6:0.3518 7:0.3158 
1 1:0.1225 2:0.1351 3:0.2116 4:0.2839 5:0.3605 6:0.4124 7:0.3653 
1 1:0.1041 2:0.1093 3:0.1779 4:0.2364 5:0.3253 6:0.3476 7:0.2945 
1 1:0.2323 2:0.2163 3:0.2276 4:0.2286 5:0.294 6:0.2323 7:0.1891 
1 1:0 2:0.0996 3:0.0886 4:0.0855 5:0.0861 6:0.0697 7:0.0529 
1 1:0.131 2:0.1411 3:0.2129 4:0.2795 5:0.3171 6:0.3246 7:0.3076 
1 1:0.1105 2:0.1252 3:0.1951 4:0.2622 5:0.3075 6:0.3217 7:0.3103 
1 1:0.1125 2:0.1219 3:0.1939 4:0.2611 5:0.3042 6:0.3239 7:0.3129 
1 1:0.1411 2:0.1455 3:0.19221 4:0.2257 5:0.1394 6:0.1162 7:0.1019 
1 1:0.0875 2:0.0863 3:0.1351 4:0.1652 5:0.1924 6:0.2759 7:0.2375 
1 1:0.0199 2:0.02 3:0.0561 4:0.071 5:0.0797 6:0.111 7:0.1023 
1 1:0.0713 2:0.0752 3:0.12 4:0.1532 5:0.1858 6:0.2611 7:0.2419 
1 1:0.0883 2:0.0897 3:0.1332 4:0.1674 5:0.204 6:0.2783 7:0.2535 
1 1:0 2:0.1414 3:0.1683 4:0.1577 5:0.2071 6:0.1973 7:0.1529 
1 1:0.2086 2:0.1931 3:0.242 4:0.2314 5:0.2951 6:0.3183 7:0.2849 
1 1:0 2:0.1447 3:0.1404 4:0.1342 5:0.151 6:0.12621 7:0.1124 
1 1:0 2:0.2072 3:0.2137 4:0.1951 5:0.2344 6:0.2065 7:0.1747 
1 1:0 2:0.2111 3:0.2096 4:0.2025 5:0.2345 6:0.2082 7:0.1723 
1 1:0.3023 2:0.2795 3:0.2932 4:0.28721 5:0.4027 6:0.2744 7:0.2059 
1 1:0.099 2:0.0923 3:0.1045 4:0.1133 5:0.1392 6:0.1063 7:0.08 
1 1:0.1122 2:0.123 3:0.187 4:0.2507 5:0.2825 6:0.3125 7:0.2678 
1 1:0 2:0.17321 3:0.1837 4:0.1636 5:0.1901 6:0.1546 7:0.1286 
1 1:0 2:0.1266 3:0.144 4:0.1253 5:0.1112 6:0.1103 7:0.0984 
1 1:0.0967 2:0.0955 3:0.1943 4:0.2047 5:0.2137 6:0.2941 7:0.2842 
1 1:0.1032 2:0.0995 3:0.1735 4:0.2116 5:0.2526 6:0.3714 7:0.3081 
1 1:0 2:0.0935 3:0.0995 4:0.0926 5:0.0943 6:0.1032 7:0.1009 
1 1:0.0549 2:0.0545 3:0.0935 4:0.1254 5:0.1641 6:0.2085 7:0.1789 
1 1:0.0699 2:0.0694 3:0.112 4:0.149 5:0.1924 6:0.2904 7:0.2662 
1 1:0.26821 2:0.2439 3:0.2681 4:0.253 5:0.3636 6:0.2903 7:0.2588 
1 1:0 2:0.2222 3:0.2213 4:0.2187 5:0.3145 6:0.2115 7:0.1543 
1 1:0 2:0.1943 3:0.2044 4:0.1996 5:0.3862 6:0.2976 7:0.2103 
1 1:0 2:0.212 3:0.243 4:0.3516 5:0.3493 6:0.0302 7:0.0223 
1 1:0.0344 2:0.0323 3:0.0515 4:0.05 5:0.0339 6:0.0655 7:0.0607 
1 1:0.18721 2:0.1733 3:0.203 4:0.1844 5:0.1985 6:0.116 7:0.0977 
1 1:0.2122 2:0.20921 3:0.2225 4:0.2444 5:0.2611 6:0.1687 7:0.1609 
1 1:0.094 2:0.1013 3:0.1604 4:0.1963 5:0.3551 6:0.3502 7:0.3084 
1 1:0.0922 2:0.0827 3:0.1534 4:0.1862 5:0.364 6:0.3456 7:0.2826 
1 1:0.1179 2:0.1232 3:0.203 4:0.2922 5:0.3548 6:0.4577 7:0.3992 
1 1:0 2:0.1387 3:0.2157 4:0.2156 5:0.1612 6:0.107 7:0.1002 
1 1:0.0706 2:0.0752 3:0.1323 4:0.1772 5:0.1536 6:0.1931 7:0.1617 
1 1:0.1727 2:0.1841 3:0.224 4:0.2222 5:0.2245 6:0.2906 7:0.1914 
1 1:0.1514 2:0.1686 3:0.2157 4:0.2227 5:0.2337 6:0.3465 7:0.2683 
1 1:0.1541 2:0.1532 3:0.2107 4:0.2514 5:0.3764 6:0.4582 7:0.392 
1 1:0.0946 2:0.1101 3:0.1626 4:0.19 5:0.2947 6:0.3821 7:0.3261 
1 1:0.1117 2:0.1237 3:0.161 4:0.2207 5:0.311 6:0.4271 7:0.3584 
1 1:0.124 2:0.1352 3:0.1659 4:0.214 5:0.3073 6:0.4419 7:0.3795 
1 1:0 2:0.2944 3:0.2916 4:0.27221 5:0.3675 6:0.1604 7:0.126 
1 1:0 2:0.22721 3:0.2386 4:0.2329 5:0.2604 6:0.2036 7:0.1559 
1 1:0.1913 2:0.1796 3:0.2036 4:0.2046 5:0.3186 6:0.2997 7:0.2223 
1 1:0.1292 2:0.1333 3:0.1881 4:0.2423 5:0.3114 6:0.3615 7:0.3278 
1 1:0.1134 2:0.1167 3:0.1792 4:0.2361 5:0.3052 6:0.3431 7:0.3253 
1 1:0.1109 2:0.115 3:0.1691 4:0.2123 5:0.2964 6:0.3372 7:0.3114 
1 1:0.1234 2:0.1275 3:0.1796 4:0.2246 5:0.3104 6:0.3404 7:0.2996 
1 1:0.1152 2:0.1126 3:0.15521 4:0.1909 5:0.297 6:0.1585 7:0.1192 
1 1:0.2083 2:0.1866 3:0.2161 4:0.21 5:0.3522 6:0.2644 7:0.2128 
1 1:0.1365 2:0.1422 3:0.2257 4:0.3137 5:0.398 6:0.5623 7:0.4936 
1 1:0.1089 2:0.1167 3:0.1762 4:0.2601 5:0.3329 6:0.4786 7:0.415 
1 1:0.1087 2:0.0955 3:0.1117 4:0.1042 5:0.1395 6:0.093 7:0.0792 
1 1:0.1307 2:0.1344 3:0.2007 4:0.2732 5:0.3629 6:0.4792 7:0.4624 
1 1:0.1283 2:0.1323 3:0.1934 4:0.2636 5:0.353 6:0.48 7:0.4616 
1 1:0 2:0.135 3:0.205 4:0.2797 5:0.3343 6:0.439 7:0.3797 
1 1:0 2:0.1062 3:0.1098 4:0.1066 5:0.1297 6:0.0951 7:0.0741 
1 1:0 2:0.2112 3:0.2206 4:0.2144 5:0.356 6:0.2503 7:0.1941 
1 1:0.0857 2:0.0907 3:0.1577 4:0.2284 5:0.3171 6:0.5037 7:0.4692 
1 1:0.1105 2:0.115 3:0.1853 4:0.2644 5:0.3575 6:0.5625 7:0.515 
1 1:0.2873 2:0.274 3:0.2702 4:0.2791 5:0.3991 6:0.2787 7:0.198 
1 1:0.124 2:0.1235 3:0.1562 4:0.1988 5:0.3029 6:0.3625 7:0.3202 
1 1:0.1175 2:0.1355 3:0.2196 4:0.3104 5:0.4135 6:0.5981 7:0.522 
1 1:0 2:0.213 3:0.2252 4:0.2183 5:0.359 6:0.2122 7:0.1556 
1 1:0.0506 2:0.0555 3:0.1021 4:0.1463 5:0.2971 6:0.3305 7:0.2597 
1 1:0.0644 2:0.06821 3:0.1134 4:0.1618 5:0.2856 6:0.3691 7:0.3134 
1 1:0.07221 2:0.0758 3:0.1256 4:0.188 5:0.2924 6:0.4118 7:0.3812 
1 1:0.0674 2:0.0682 3:0.1145 4:0.1622 5:0.26 6:0.3308 7:0.2742 
1 1:0 2:0.0827 3:0.1216 4:0.12321 5:0.3675 6:0.2928 7:0.1799 
1 1:0.1165 2:0.1204 3:0.1733 4:0.23 5:0.2566 6:0.2989 7:0.2972 
1 1:0.1187 2:0.1204 3:0.1563 4:0.2022 5:0.2515 6:0.3103 7:0.3043 
1 1:0.0761 2:0.075 3:0.09721 4:0.0993 5:0.0865 6:0.0762 7:0.0672 
1 1:0.0483 2:0.0477 3:0.0627 4:0.0632 5:0.0577 6:0.0456 7:0.0399 
1 1:0.1054 2:0.1101 3:0.1647 4:0.2309 5:0.311 6:0.4511 7:0.4101 
1 1:0.1035 2:0.1042 3:0.1623 4:0.2206 5:0.3094 6:0.4632 7:0.4059 
1 1:0.125 2:0.1294 3:0.1844 4:0.2402 5:0.387 6:0.4393 7:0.3235 
1 1:0.0996 2:0.0996 3:0.1482 4:0.196 5:0.2279 6:0.2523 7:0.2144 
1 1:0.0852 2:0.0806 3:0.1152 4:0.1444 5:0.1582 6:0.1804 7:0.1501 
1 1:0.109 2:0.1077 3:0.152 4:0.2015 5:0.2731 6:0.4031 7:0.3783 
1 1:0.1612 2:0.1495 3:0.17 4:0.1756 5:0.3131 6:0.2808 7:0.2045 
1 1:0.078 2:0.0754 3:0.12 4:0.1183 5:0.0625 6:0.0635 7:0.0466 
1 1:0 2:0.22221 3:0.228 4:0.2315 5:0.3661 6:0.314 7:0.2715 
1 1:0.21921 2:0.2102 3:0.2062 4:0.2108 5:0.3532 6:0.2612 7:0.2376 
1 1:0.1992 2:0.1803 3:0.2148 4:0.2076 5:0.3537 6:0.2822 7:0.2466 
1 1:0.1445 2:0.128 3:0.1343 4:0.1267 5:0.1657 6:0.1284 7:0.0919 
1 1:0.2292 2:0.2284 3:0.2253 4:0.2351 5:0.3573 6:0.2557 7:0.2062 
1 1:0.1711 2:0.1561 3:0.1794 4:0.1742 5:0.212 6:0.19721 7:0.1649 
1 1:0.014 2:0.0156 3:0.0252 4:0.0371 5:0.0659 6:0.1209 7:0.128 
1 1:0.0586 2:0.0529 3:0.0599 4:0.0709 5:0.0973 6:0.1572 7:0.1634 
1 1:0.1964 2:0.184 3:0.1951 4:0.1962 5:0.2952 6:0.2217 7:0.2095 
1 1:0 2:0.2946 3:0.3122 4:0.2975 5:0.4575 6:0.4292 7:0.3035 
1 1:0 2:0.2392 3:0.2511 4:0.2485 5:0.3071 6:0.2315 7:0.1959 
1 1:0.2502 2:0.2383 3:0.2528 4:0.2587 5:0.35521 6:0.3198 7:0.2731 
1 1:0.1436 2:0.1345 3:0.1614 4:0.1642 5:0.3025 6:0.2546 7:0.1644 
1 1:0.1125 2:0.113 3:0.1523 4:0.2084 5:0.3355 6:0.5356 7:0.5433 
1 1:0.239 2:0.2265 3:0.2276 4:0.2351 5:0.3351 6:0.2672 7:0.2238 
1 1:0 2:0.258 3:0.2727 4:0.27421 5:0.4952 6:0.3945 7:0.2846 
1 1:0.1094 2:0.1022 3:0.1238 4:0.1554 5:0.2444 6:0.4436 7:0.4466 
1 1:0.1193 2:0.1097 3:0.1319 4:0.1663 5:0.2862 6:0.4972 7:0.4824 
1 1:0 2:0.2926 3:0.3053 4:0.2983 5:0.4441 6:0.3357 7:0.2415 
1 1:0.1393 2:0.1304 3:0.15221 4:0.1576 5:0.2441 6:0.2282 7:0.1676 
1 1:0.0162 2:0.0133 3:0.0344 4:0.0394 5:0.061 6:0.011 7:0.0085 
1 1:0.01721 2:0.0107 3:0.024 4:0.0201 5:0.0672 6:0.0069 7:0.0063 
1 1:0.0455 2:0.0452 3:0.0707 4:0.0981 5:0.1145 6:0.0271 7:0.025 
1 1:0.0156 2:0.01221 3:0.0303 4:0.0281 5:0.0885 6:0.011 7:0.0085 
1 1:0.0375 2:0.037 3:0.065 4:0.09821 5:0.1181 6:0.0217 7:0.0184 
1 1:0.2342 2:0.2205 3:0.2214 4:0.2382 5:0.3726 6:0.2917 7:0.24 
1 1:0 2:0.2032 3:0.176 4:0.2054 5:0.1902 6:0.3321 7:0.2322 
1 1:0.1927 2:0.1646 3:0.19821 4:0.1962 5:0.3317 6:0.2531 7:0.2118 
1 1:0 2:0.1864 3:0.2061 4:0.2175 5:0.3014 6:0.31621 7:0.276 
1 1:0.18821 2:0.1694 3:0.1904 4:0.1839 5:0.2922 6:0.2203 7:0.1584 
1 1:0 2:0.1607 3:0.1721 4:0.1753 5:0.2307 6:0.1857 7:0.1606 
1 1:0.2366 2:0.2132 3:0.2252 4:0.2353 5:0.307 6:0.2424 7:0.2159 
1 1:0.1604 2:0.1445 3:0.1457 4:0.144 5:0.2032 6:0.1704 7:0.1347 
1 1:0.192 2:0.1795 3:0.1925 4:0.19621 5:0.2221 6:0.2499 7:0.2273 
1 1:0.1352 2:0.144 3:0.2222 4:0.3026 5:0.4532 6:0.5801 7:0.5355 
1 1:0.1271 2:0.1395 3:0.2111 4:0.2823 5:0.3852 6:0.4481 7:0.4285 
1 1:0.0243 2:0.0387 3:0.0449 4:0.074 5:0.1107 6:0.1335 7:0.1077 
1 1:0.1453 2:0.1382 3:0.1216 4:0.1263 5:0.2266 6:0.1492 7:0.116 
1 1:0.2482 2:0.2462 3:0.2766 4:0.3134 5:0.4466 6:0.4842 7:0.3853 
1 1:0.2413 2:0.219 3:0.2393 4:0.2373 5:0.3076 6:0.2362 7:0.1772 
1 1:0 2:0.2262 3:0.2394 4:0.2492 5:0.3842 6:0.3573 7:0.2621 
1 1:0.16 2:0.1404 3:0.1582 4:0.1646 5:0.2281 6:0.1687 7:0.1488 
1 1:0.2451 2:0.2262 3:0.2264 4:0.2306 5:0.2905 6:0.1837 7:0.1708 
1 1:0.1222 2:0.1111 3:0.1187 4:0.123 5:0.1383 6:0.1067 7:0.0763 
1 1:0.2431 2:0.22 3:0.2192 4:0.2122 5:0.3326 6:0.2685 7:0.2172 
1 1:0.2686 2:0.2455 3:0.2382 4:0.2251 5:0.331 6:0.1464 7:0.1214 
1 1:0.10421 2:0.1033 3:0.1036 4:0.1116 5:0.1624 6:0.1195 7:0.0958 
1 1:0.247 2:0.2392 3:0.2694 4:0.2811 5:0.3566 6:0.2834 7:0.2121 
1 1:0.23221 2:0.212 3:0.2135 4:0.2175 5:0.2774 6:0.2529 7:0.205 
1 1:0.2613 2:0.238 3:0.2407 4:0.2402 5:0.314 6:0.199 7:0.177 
1 1:0.1153 2:0.0992 3:0.1003 4:0.1002 5:0.1906 6:0.1257 7:0.113 
1 1:0.0956 2:0.0834 3:0.0787 4:0.0786 5:0.1662 6:0.1064 7:0.0813 
1 1:0.2561 2:0.2326 3:0.2443 4:0.24421 5:0.3934 6:0.3015 7:0.2974 
1 1:0.2142 2:0.1912 3:0.2037 4:0.2018 5:0.33621 6:0.2738 7:0.2537 
1 1:0.2192 2:0.2171 3:0.1927 4:0.213 5:0.2637 6:0.1812 7:0.1669 
1 1:0.0862 2:0.093 3:0.1399 4:0.1775 5:0.2535 6:0.2936 7:0.2789 
1 1:0.0957 2:0.0983 3:0.142 4:0.1752 5:0.2491 6:0.2856 7:0.2713 
1 1:0.0864 2:0.0913 3:0.1316 4:0.16 5:0.27 6:0.2792 7:0.2549 
1 1:0.1329 2:0.1349 3:0.1844 4:0.2167 5:0.3141 6:0.3152 7:0.2779 
1 1:0.1962 2:0.1765 3:0.1721 4:0.1692 5:0.2013 6:0.1083 7:0.088 
1 1:0.1415 2:0.1282 3:0.1261 4:0.1193 5:0.2136 6:0.1741 7:0.1525 
1 1:0.25221 2:0.2262 3:0.2329 4:0.2335 5:0.312 6:0.2571 7:0.2173 
1 1:0.0402 2:0.03221 3:0.0446 4:0.0502 5:0.0481 6:0.0406 7:0.0262 
1 1:0.1177 2:0.1046 3:0.1202 4:0.1262 5:0.224 6:0.16721 7:0.1143 
1 1:0.1906 2:0.171 3:0.1822 4:0.1745 5:0.2986 6:0.2337 7:0.2282 
1 1:0.22721 2:0.2099 3:0.2264 4:0.2331 5:0.2726 6:0.2742 7:0.2255 
1 1:0.19521 2:0.1933 3:0.229 4:0.2492 5:0.4052 6:0.4169 7:0.3614 
1 1:0.2782 2:0.2619 3:0.2742 4:0.2885 5:0.2792 6:0.0642 7:0.0381 
1 1:0.2265 2:0.237 3:0.3323 4:0.4296 5:0.4797 6:0.1611 7:0.09 
1 1:0.2513 2:0.2336 3:0.2651 4:0.2672 5:0.401 6:0.3532 7:0.2838 
1 1:0 2:0.1446 3:0.158 4:0.1572 5:0.276 6:0.1675 7:0.1185 
1 1:0.2172 2:0.2152 3:0.1925 4:0.209 5:0.3065 6:0.2142 7:0.1951 
1 1:0 2:0.1542 3:0.1645 4:0.1684 5:0.2845 6:0.2157 7:0.1799 
1 1:0 2:0.1815 3:0.19121 4:0.1967 5:0.2492 6:0.2258 7:0.1963 
1 1:0 2:0.2593 3:0.2593 4:0.2535 5:0.4045 6:0.298 7:0.2491 
1 1:0.1236 2:0.1231 3:0.1132 4:0.1162 5:0.18721 6:0.145 7:0.1256 
1 1:0.2396 2:0.217 3:0.2296 4:0.2205 5:0.4225 6:0.3284 7:0.2864 
1 1:0.20321 2:0.1985 3:0.2193 4:0.2292 5:0.3034 6:0.2805 7:0.2346 
1 1:0.2637 2:0.2512 3:0.2631 4:0.2703 5:0.345 6:0.2292 7:0.1403 
1 1:0.263 2:0.2512 3:0.2842 4:0.2996 5:0.4208 6:0.364 7:0.2903 
1 1:0.229 2:0.2084 3:0.222 4:0.2154 5:0.3472 6:0.2504 7:0.2151 
1 1:0.2522 2:0.2342 3:0.25 4:0.2481 5:0.397 6:0.324 7:0.2607 
1 1:0.2391 2:0.2185 3:0.2381 4:0.242 5:0.3534 6:0.1972 7:0.1437 
1 1:0.1336 2:0.1281 3:0.1563 4:0.1807 5:0.2446 6:0.3179 7:0.2816 
1 1:0.0577 2:0.0613 3:0.1122 4:0.1522 5:0.1258 6:0.0929 7:0.0889 
1 1:0.0792 2:0.0796 3:0.1211 4:0.1566 5:0.1253 6:0.0885 7:0.0837 
1 1:0.2442 2:0.2454 3:0.1981 4:0.2282 5:0.3175 6:0.2224 7:0.2043 
1 1:0.2014 2:0.1862 3:0.2083 4:0.2026 5:0.3411 6:0.28 7:0.2146 
1 1:0.2242 2:0.2085 3:0.2146 4:0.2133 5:0.3515 6:0.24721 7:0.2081 
1 1:0.2425 2:0.2327 3:0.2525 4:0.2517 5:0.3726 6:0.2734 7:0.2096 
1 1:0.1713 2:0.1553 3:0.1587 4:0.1611 5:0.3312 6:0.2292 7:0.1415 
1 1:0 2:0.2172 3:0.2163 4:0.2147 5:0.3464 6:0.2717 7:0.2036 
1 1:0.17421 2:0.1661 3:0.1902 4:0.1937 5:0.3119 6:0.2857 7:0.2083 
1 1:0.21221 2:0.1987 3:0.2294 4:0.2202 5:0.3746 6:0.3356 7:0.2519 
1 1:0.0355 2:0.0332 3:0.0562 4:0.069 5:0.0285 6:0.0162 7:0.0128 
1 1:0.0542 2:0.054 3:0.1059 4:0.1509 5:0.2471 6:0.3503 7:0.2495 
1 1:0.0454 2:0.0459 3:0.0832 4:0.1061 5:0.167 6:0.1446 7:0.0921 
1 1:0 2:0.2275 3:0.2511 4:0.234 5:0.3546 6:0.23921 7:0.2064 
1 1:0.1304 2:0.1143 3:0.1313 4:0.1177 5:0.3384 6:0.2182 7:0.1739 
1 1:0.1104 2:0.111 3:0.1597 4:0.208 5:0.2827 6:0.4331 7:0.4137 
1 1:0.1149 2:0.1221 3:0.1989 4:0.2736 5:0.361 6:0.5192 7:0.4517 
1 1:0.2963 2:0.28 3:0.2791 4:0.27921 5:0.4017 6:0.2996 7:0.2274 
1 1:0.1423 2:0.1332 3:0.1697 4:0.1982 5:0.2614 6:0.3082 7:0.2412 
1 1:0.088 2:0.0932 3:0.145 4:0.207 5:0.2954 6:0.4003 7:0.3587 
1 1:0.1223 2:0.1267 3:0.1884 4:0.2526 5:0.3276 6:0.4624 7:0.3927 
1 1:0.1816 2:0.1614 3:0.1816 4:0.1742 5:0.2931 6:0.2203 7:0.1766 
1 1:0.1174 2:0.11321 3:0.0996 4:0.1113 5:0.2219 6:0.1782 7:0.1262 
1 1:0.2257 2:0.2243 3:0.2515 4:0.2735 5:0.36521 6:0.2781 7:0.2007 
1 1:0.0972 2:0.1015 3:0.1638 4:0.2346 5:0.3108 6:0.4373 7:0.4239 
1 1:0.0956 2:0.1041 3:0.1876 4:0.276 5:0.3643 6:0.52 7:0.4585 
1 1:0 2:0.2172 3:0.2464 4:0.22521 5:0.44 6:0.3684 7:0.2941 
1 1:0.0913 2:0.0919 3:0.134 4:0.1764 5:0.234 6:0.3699 7:0.3569 
1 1:0.0742 2:0.0756 3:0.1134 4:0.1347 5:0.1573 6:0.1873 7:0.1553 
1 1:0.1187 2:0.1283 3:0.125 4:0.13021 5:0.2565 6:0.2426 7:0.1832 
1 1:0.1153 2:0.121 3:0.1831 4:0.2492 5:0.344 6:0.4545 7:0.4099 
1 1:0.1191 2:0.1256 3:0.197 4:0.2705 5:0.3694 6:0.489 7:0.4218 
1 1:0.0947 2:0.1 3:0.1631 4:0.2277 5:0.3185 6:0.4129 7:0.3582 
1 1:0.1372 2:0.1474 3:0.2139 4:0.2779 5:0.3646 6:0.5283 7:0.4906 
1 1:0.2756 2:0.25321 3:0.2759 4:0.2716 5:0.4212 6:0.338 7:0.2572 
1 1:0.1322 2:0.1379 3:0.2178 4:0.2978 5:0.3956 6:0.5704 7:0.5037 
1 1:0 2:0.1234 3:0.1614 4:0.1796 5:0.2817 6:0.1981 7:0.1595 
1 1:0.1023 2:0.1083 3:0.1963 4:0.2889 5:0.3743 6:0.571 7:0.5394 
1 1:0.0744 2:0.0785 3:0.1685 4:0.259 5:0.3492 6:0.6313 7:0.5551 
1 1:0.287 2:0.2596 3:0.25421 4:0.247 5:0.5062 6:0.3073 7:0.2645 
1 1:0.0413 2:0.0392 3:0.0537 4:0.0702 5:0.0942 6:0.1589 7:0.1531 
1 1:0.0405 2:0.0383 3:0.0579 4:0.0843 5:0.1193 6:0.2173 7:0.1966 
1 1:0.1436 2:0.1381 3:0.182 4:0.19 5:0.2322 6:0.25121 7:0.2005 
1 1:0.0556 2:0.0595 3:0.1076 4:0.1459 5:0.1831 6:0.3034 7:0.2773 
1 1:0.06 2:0.0626 3:0.1121 4:0.1609 5:0.2061 6:0.2929 7:0.2751 
1 1:0.0559 2:0.0593 3:0.1081 4:0.1382 5:0.1462 6:0.2106 7:0.1835 
1 1:0.1446 2:0.1454 3:0.2002 4:0.254 5:0.3346 6:0.4639 7:0.4229 
1 1:0.0973 2:0.1054 3:0.1646 4:0.2165 5:0.3099 6:0.4729 7:0.4286 
1 1:0.1402 2:0.1449 3:0.2189 4:0.2848 5:0.395 6:0.4944 7:0.4362 
1 1:0.2595 2:0.2425 3:0.258 4:0.2623 5:0.4136 6:0.3542 7:0.2991 
1 1:0 2:0.2283 3:0.2442 4:0.2406 5:0.4131 6:0.3521 7:0.2505 
1 1:0.1725 2:0.1667 3:0.2455 4:0.2641 5:0.3934 6:0.3331 7:0.272 
1 1:0.1527 2:0.161 3:0.2563 4:0.3319 5:0.4327 6:0.5376 7:0.473 
1 1:0.1645 2:0.15721 3:0.2029 4:0.2222 5:0.3419 6:0.3127 7:0.2643 
1 1:0.0467 2:0.0554 3:0.1797 4:0.3929 5:0.4541 6:0.2433 7:0.0946 
1 1:0.1676 2:0.1696 3:0.2409 4:0.2945 5:0.3841 6:0.4362 7:0.344 
1 1:0.2331 2:0.2127 3:0.23621 4:0.2352 5:0.3522 6:0.2774 7:0.2188 
1 1:0.0717 2:0.0634 3:0.0757 4:0.0862 5:0.087 6:0.0791 7:0.0655 
1 1:0.1049 2:0.0997 3:0.1132 4:0.1291 5:0.1331 6:0.1265 7:0.1042 
1 1:0.1375 2:0.1434 3:0.1819 4:0.2109 5:0.2287 6:0.2201 7:0.1799 
1 1:0.1061 2:0.0991 3:0.1125 4:0.1265 5:0.1292 6:0.1226 7:0.1023 
1 1:0 2:0.101 3:0.1 4:0.1092 5:0.1182 6:0.1032 7:0.0925 
1 1:0.2792 2:0.2577 3:0.2682 4:0.26721 5:0.3916 6:0.2071 7:0.1839 
1 1:0.0672 2:0.0719 3:0.115 4:0.1523 5:0.2654 6:0.3402 7:0.2384 
1 1:0.1025 2:0.1064 3:0.1503 4:0.1929 5:0.3002 6:0.369 7:0.2749 
1 1:0.0702 2:0.0801 3:0.1366 4:0.217 5:0.2997 6:0.4171 7:0.3494 
1 1:0.0882 2:0.0999 3:0.161 4:0.2489 5:0.3501 6:0.4674 7:0.4095 
1 1:0.0721 2:0.0787 3:0.1433 4:0.2122 5:0.3027 6:0.4055 7:0.3147 
1 1:0.177 2:0.1679 3:0.201 4:0.2324 5:0.3255 6:0.3566 7:0.2897 
1 1:0 2:0.1191 3:0.1617 4:0.2016 5:0.276 6:0.4022 7:0.3533 
1 1:0.0604 2:0.0653 3:0.0949 4:0.1287 5:0.2023 6:0.3071 7:0.2619 
1 1:0.0747 2:0.0795 3:0.1153 4:0.1553 5:0.2445 6:0.3655 7:0.3026 
1 1:0.0859 2:0.0914 3:0.1291 4:0.1717 5:0.2601 6:0.3701 7:0.2987 
1 1:0.054 2:0.0584 3:0.0882 4:0.1194 5:0.1782 6:0.2722 7:0.2353 
1 1:0.13 2:0.1339 3:0.1759 4:0.2194 5:0.2924 6:0.406 7:0.3514 
1 1:0.1171 2:0.1231 3:0.1651 4:0.2079 5:0.2802 6:0.386 7:0.3162 
1 1:0.0806 2:0.0837 3:0.1823 4:0.2649 5:0.3237 6:0.5523 7:0.4977 
1 1:0.0866 2:0.0872 3:0.1724 4:0.2515 5:0.3106 6:0.5436 7:0.4981 
1 1:0.1645 2:0.169 3:0.2345 4:0.2874 5:0.3395 6:0.3362 7:0.2799 
1 1:0.1489 2:0.1636 3:0.2522 4:0.3301 5:0.4093 6:0.4926 7:0.3875 
1 1:0.1462 2:0.1554 3:0.2062 4:0.2501 5:0.3259 6:0.4375 7:0.3343 
1 1:0.1723 2:0.1941 3:0.3369 4:0.4372 5:0.4954 6:0.0971 7:0.0626 
1 1:0.1057 2:0.1149 3:0.1932 4:0.2516 5:0.3237 6:0.3626 7:0.2604 
1 1:0.0882 2:0.0958 3:0.1639 4:0.2205 5:0.303 6:0.3944 7:0.317 
1 1:0.1346 2:0.1423 3:0.2073 4:0.2664 5:0.3401 6:0.4257 7:0.3462 
1 1:0.1755 2:0.1802 3:0.217 4:0.2806 5:0.3718 6:0.4706 7:0.3822 
1 1:0.1222 2:0.1274 3:0.2051 4:0.2774 5:0.3374 6:0.444 7:0.3911 
1 1:0.1086 2:0.1132 3:0.1775 4:0.2323 5:0.28 6:0.3421 7:0.2937 
1 1:0.1673 2:0.1724 3:0.2539 4:0.3216 5:0.3849 6:0.4677 7:0.3903 
1 1:0.0759 2:0.0794 3:0.1372 4:0.1872 5:0.2893 6:0.3121 7:0.2495 
1 1:0.0893 2:0.0926 3:0.1461 4:0.2003 5:0.2697 6:0.3427 7:0.2749 
1 1:0.107 2:0.1102 3:0.1682 4:0.2207 5:0.2843 6:0.3526 7:0.2885 
1 1:0.1811 2:0.1833 3:0.2379 4:0.3002 5:0.3542 6:0.3701 7:0.2591 
1 1:0.0997 2:0.1042 3:0.1542 4:0.22 5:0.2784 6:0.2932 7:0.2465 
1 1:0 2:0.1306 3:0.1523 4:0.1933 5:0.2371 6:0.2456 7:0.1902 
1 1:0.0655 2:0.0704 3:0.1272 4:0.185 5:0.2426 6:0.3886 7:0.3122 
1 1:0.0754 2:0.0781 3:0.1323 4:0.1888 5:0.2492 6:0.4021 7:0.3174 
1 1:0.0927 2:0.0965 3:0.1474 4:0.1976 5:0.2655 6:0.3777 7:0.278 
1 1:0.0739 2:0.0754 3:0.1284 4:0.1794 5:0.2344 6:0.3771 7:0.2891 
1 1:0.074 2:0.0774 3:0.1316 4:0.1872 5:0.2457 6:0.3963 7:0.3072 
1 1:0.117 2:0.1272 3:0.2131 4:0.3001 5:0.3916 6:0.487 7:0.4059 
1 1:0.1286 2:0.1381 3:0.2293 4:0.3352 5:0.4204 6:0.521 7:0.4181 
1 1:0.1304 2:0.1446 3:0.2033 4:0.25 5:0.3372 6:0.4562 7:0.4159 
1 1:0.1502 2:0.1642 3:0.2203 4:0.2713 5:0.3553 6:0.4871 7:0.4398 
1 1:0.1225 2:0.1379 3:0.1883 4:0.2372 5:0.3264 6:0.4382 7:0.3874 
1 1:0 2:0.1803 3:0.2332 4:0.2816 5:0.377 6:0.477 7:0.4194 
1 1:0.1103 2:0.1262 3:0.1722 4:0.2244 5:0.3267 6:0.3837 7:0.3265 
1 1:0.1383 2:0.1503 3:0.2023 4:0.2523 5:0.3575 6:0.4281 7:0.3756 
1 1:0.1252 2:0.1351 3:0.1819 4:0.2179 5:0.3273 6:0.3973 7:0.3227 
1 1:0.0951 2:0.1063 3:0.1593 4:0.2042 5:0.3119 6:0.3727 7:0.3049 
1 1:0.1247 2:0.1349 3:0.1901 4:0.2365 5:0.3365 6:0.4096 7:0.3544 
1 1:0.0816 2:0.0833 3:0.1457 4:0.2121 5:0.2805 6:0.4319 7:0.3638 
1 1:0.0947 2:0.1019 3:0.1639 4:0.2354 5:0.3103 6:0.4536 7:0.3668 
1 1:0.098 2:0.101 3:0.1684 4:0.2405 5:0.3179 6:0.4675 7:0.3551 
1 1:0.1131 2:0.1286 3:0.2079 4:0.2892 5:0.3453 6:0.3588 7:0.332 
1 1:0.0907 2:0.0932 3:0.1506 4:0.1973 5:0.2723 6:0.2803 7:0.2083 
1 1:0.1002 2:0.1065 3:0.1785 4:0.2571 5:0.3542 6:0.4501 7:0.3662 
1 1:0.1481 2:0.1544 3:0.2014 4:0.2406 5:0.2606 6:0.2973 7:0.2778 
1 1:0.1033 2:0.1026 3:0.1386 4:0.1527 5:0.1386 6:0.1514 7:0.1359 
1 1:0 2:0.1452 3:0.1827 4:0.2144 5:0.2403 6:0.2206 7:0.1957 
1 1:0.0937 2:0.1085 3:0.22 4:0.3463 5:0.4033 6:0.5702 7:0.5164 
1 1:0.1145 2:0.1256 3:0.2284 4:0.3472 5:0.4051 6:0.5762 7:0.5101 
1 1:0.0932 2:0.1062 3:0.2171 4:0.3416 5:0.3967 6:0.5661 7:0.5085 
1 1:0.0923 2:0.1057 3:0.2201 4:0.3443 5:0.3933 6:0.5583 7:0.5026 
1 1:0.0497 2:0.0552 3:0.0954 4:0.1558 5:0.2555 6:0.2924 7:0.2234 
1 1:0.1152 2:0.1181 3:0.1693 4:0.2311 5:0.3284 6:0.3866 7:0.3013 
1 1:0.1082 2:0.112 3:0.1657 4:0.2296 5:0.3178 6:0.376 7:0.2897 
1 1:0.0576 2:0.0635 3:0.1085 4:0.1697 5:0.2673 6:0.3223 7:0.248 
1 1:0 2:0.1323 3:0.1832 4:0.2414 5:0.3252 6:0.3602 7:0.2673 
1 1:0.1686 2:0.1707 3:0.2261 4:0.2795 5:0.3089 6:0.1887 7:0.0996 
1 1:0.0847 2:0.0965 3:0.176 4:0.2824 5:0.345 6:0.391 7:0.2912 
1 1:0.1164 2:0.1259 3:0.1997 4:0.3042 5:0.3736 6:0.4272 7:0.3304 
1 1:0.1139 2:0.1223 3:0.1944 4:0.3009 5:0.3703 6:0.4153 7:0.3081 
1 1:0.0871 2:0.0973 3:0.177 4:0.2799 5:0.3401 6:0.3796 7:0.2769 
1 1:0.1224 2:0.134 3:0.2133 4:0.3254 5:0.3973 6:0.4491 7:0.3485 
1 1:0.1544 2:0.1753 3:0.2951 4:0.4136 5:0.4787 6:0.5521 7:0.4034 
1 1:0.1619 2:0.1824 3:0.2892 4:0.3994 5:0.4666 6:0.5391 7:0.3841 
