svm_type c_svc
kernel_type rbf
gamma 0.1
nr_class 2
total_sv 24137
rho 3.24531
label 0 1
nr_sv 12069 12068
SV
1 1:-0.71731 2:-0.768711 3:-0.845881 4:-0.874079 5:-0.851283 6:-0.841472 7:-0.870695 
1 1:-0.697922 2:-0.750667 3:-0.83135 4:-0.852085 5:-0.840312 6:-0.840743 7:-0.882734 
1 1:-0.611566 2:-0.64274 3:-0.652288 4:-0.589245 5:-0.547388 6:-0.530005 7:-0.606182 
1 1:-0.607778 2:-0.637746 3:-0.653089 4:-0.609668 5:-0.576035 6:-0.566691 7:-0.654222 
1 1:-0.602429 2:-0.636157 3:-0.652975 4:-0.599637 5:-0.555312 6:-0.542396 7:-0.628292 
1 1:-0.772244 2:-0.61641 3:-0.64611 4:-0.596979 5:-0.551655 6:-0.54932 7:-0.625051 
1 1:-0.530782 2:-0.583953 3:-0.605721 4:-0.621027 5:-0.521046 6:-0.720481 7:-0.77635 
1 1:-0.690233 2:-0.733076 3:-0.752517 4:-0.687492 5:-0.674651 6:-0.437925 7:-0.624588 
1 1:-0.684885 2:-0.724678 3:-0.744508 4:-0.675891 5:-0.653928 6:-0.400996 7:-0.589628 
1 1:-0.669842 2:-0.707768 3:-0.720938 4:-0.658973 5:-0.626867 6:-0.429422 7:-0.635122 
1 1:-0.705165 2:-0.747489 3:-0.771053 4:-0.716858 5:-0.706223 6:-0.465379 7:-0.656538 
1 1:-0.683436 2:-0.725926 3:-0.741419 4:-0.674562 5:-0.654294 6:-0.420068 7:-0.611507 
1 1:-0.65246 2:-0.680758 3:-0.648513 4:-0.522779 5:-0.462546 6:-0.287293 7:-0.449673 
1 1:-0.6431 2:-0.672133 3:-0.639703 4:-0.503082 5:-0.439995 6:-0.253523 7:-0.411009 
1 1:-0.643657 2:-0.673722 3:-0.659268 4:-0.561934 5:-0.494606 6:-0.319606 7:-0.482433 
1 1:-0.662042 2:-0.69222 3:-0.665561 4:-0.546344 5:-0.479978 6:-0.310496 7:-0.475025 
1 1:-0.760878 2:-0.799353 3:-0.843936 4:-0.841692 5:-0.827878 6:-0.859815 7:-0.935753 
1 1:-0.662265 2:-0.696079 3:-0.716705 4:-0.66997 5:-0.621259 6:-0.658892 7:-0.803554 
1 1:-0.575798 2:-0.607899 3:-0.605835 4:-0.537402 5:-0.480953 6:-0.51154 7:-0.663831 
1 1:-0.673631 2:-0.708676 3:-0.729748 4:-0.688097 5:-0.635521 6:-0.662415 7:-0.80228 
1 1:-0.668728 2:-0.702094 3:-0.725172 4:-0.676979 5:-0.628695 6:-0.65707 7:-0.80066 
1 1:-0.669842 2:-0.692901 3:-0.663158 4:-0.542598 5:-0.446212 6:-0.359694 7:-0.455229 
1 1:-0.655803 2:-0.682347 3:-0.665904 4:-0.559275 5:-0.467544 6:-0.377187 7:-0.480118 
1 1:-0.658254 2:-0.680758 3:-0.66659 4:-0.558066 5:-0.459987 6:-0.373056 7:-0.48197 
1 1:-0.668617 2:-0.690291 3:-0.664416 4:-0.547795 5:-0.447553 6:-0.366375 7:-0.481739 
1 1:-0.699593 2:-0.727969 3:-0.729519 4:-0.665619 5:-0.591882 6:-0.534014 7:-0.61278 
1 1:-0.678534 2:-0.707655 3:-0.719451 4:-0.665378 5:-0.612117 6:-0.529883 7:-0.611507 
1 1:-0.676528 2:-0.707655 3:-0.717162 4:-0.660785 5:-0.59883 6:-0.527454 7:-0.60815 
1 1:-0.706947 2:-0.733757 3:-0.740046 4:-0.691843 5:-0.633815 6:-0.544704 7:-0.633501 
1 1:-0.664048 2:-0.696987 3:-0.713959 4:-0.660181 5:-0.60395 6:-0.556244 7:-0.634312 
1 1:-0.687336 2:-0.723089 3:-0.731808 4:-0.673595 5:-0.632108 6:-0.51069 7:-0.563813 
1 1:-0.657028 2:-0.691312 3:-0.696796 4:-0.634562 5:-0.596148 6:-0.459305 7:-0.532558 
1 1:-0.679202 2:-0.711967 3:-0.718307 4:-0.656073 5:-0.619553 6:-0.476433 7:-0.526191 
1 1:-0.691682 2:-0.730239 3:-0.737414 4:-0.680363 5:-0.640154 6:-0.522838 7:-0.581409 
1 1:-0.772244 2:-0.696646 3:-0.72643 4:-0.679154 5:-0.641373 6:-0.524174 7:-0.600972 
1 1:-0.699036 2:-0.731601 3:-0.744966 4:-0.696435 5:-0.665021 6:-0.598518 7:-0.653181 
1 1:-0.664048 2:-0.6971 3:-0.70881 4:-0.650514 5:-0.615652 6:-0.549198 7:-0.617642 
1 1:-0.677531 2:-0.712875 3:-0.724371 4:-0.664169 5:-0.629061 6:-0.557337 7:-0.612433 
1 1:-0.696028 2:-0.726494 3:-0.742563 4:-0.694381 5:-0.66112 6:-0.598639 7:-0.661863 
1 1:-0.772244 2:-0.700051 3:-0.73032 4:-0.690151 5:-0.662827 6:-0.597182 7:-0.662904 
1 1:-0.686556 2:-0.725018 3:-0.743593 4:-0.699456 5:-0.669166 6:-0.579203 7:-0.65156 
1 1:-0.672628 2:-0.711286 3:-0.734325 4:-0.690151 5:-0.657098 6:-0.569242 7:-0.647392 
1 1:-0.679536 2:-0.718096 3:-0.744737 4:-0.700423 5:-0.666362 6:-0.581511 7:-0.655264 
1 1:-0.684885 2:-0.72343 3:-0.746796 4:-0.705257 5:-0.671969 6:-0.582362 7:-0.661747 
1 1:-0.772244 2:-0.690291 3:-0.722769 4:-0.689184 5:-0.651856 6:-0.583576 7:-0.651907 
1 1:-0.669285 2:-0.698235 3:-0.672769 4:-0.561088 5:-0.488877 6:-0.374271 7:-0.473288 
1 1:-0.656248 2:-0.684957 3:-0.664073 4:-0.549849 5:-0.461206 6:-0.343416 7:-0.453493 
1 1:-0.659145 2:-0.690745 3:-0.682723 4:-0.574381 5:-0.48205 6:-0.362974 7:-0.48197 
1 1:-0.673742 2:-0.698349 3:-0.681121 4:-0.56568 5:-0.493631 6:-0.378887 7:-0.497366 
1 1:-0.772244 2:-0.679169 3:-0.681579 4:-0.58429 5:-0.510209 6:-0.388605 7:-0.502576 
1 1:-0.72745 2:-0.770414 3:-0.808696 4:-0.790211 5:-0.772292 6:-0.675049 7:-0.74521 
1 1:-0.678422 2:-0.715258 3:-0.735812 4:-0.685317 5:-0.641738 6:-0.485058 7:-0.593101 
1 1:-0.681654 2:-0.7215 3:-0.751602 4:-0.709849 5:-0.674651 6:-0.542031 7:-0.643804 
1 1:-0.722547 2:-0.764512 3:-0.802517 4:-0.783202 5:-0.762418 6:-0.652697 7:-0.741159 
1 1:-0.772244 2:-0.723543 3:-0.759382 4:-0.729668 5:-0.703054 6:-0.587099 7:-0.68432 
1 1:-0.652794 2:-0.689383 3:-0.710412 4:-0.665498 5:-0.655757 6:-0.64723 7:-0.697864 
1 1:-0.647223 2:-0.684503 3:-0.707895 4:-0.662477 5:-0.652344 6:-0.639942 7:-0.693581 
1 1:-0.650343 2:-0.689043 3:-0.719108 4:-0.67565 5:-0.665021 6:-0.653183 7:-0.704 
1 1:-0.653797 2:-0.691539 3:-0.717963 4:-0.677946 5:-0.669531 6:-0.661443 7:-0.719048 
1 1:-0.647223 2:-0.686319 3:-0.710297 4:-0.663565 5:-0.651246 6:-0.641885 7:-0.695896 
1 1:-0.668171 2:-0.702888 3:-0.717391 4:-0.647251 5:-0.624185 6:-0.606657 7:-0.659895 
1 1:-0.655023 2:-0.690405 3:-0.706064 4:-0.634562 5:-0.604925 6:-0.582119 7:-0.640794 
1 1:-0.660482 2:-0.697554 3:-0.717162 4:-0.64713 5:-0.616261 6:-0.597182 7:-0.656885 
1 1:-0.670511 2:-0.708903 3:-0.72849 4:-0.669366 5:-0.645639 6:-0.629981 7:-0.690571 
1 1:-0.660371 2:-0.695625 3:-0.710412 4:-0.636737 5:-0.604681 6:-0.584913 7:-0.646235 
1 1:-0.691682 2:-0.72604 3:-0.71968 4:-0.627674 5:-0.596879 6:-0.423834 7:-0.534641 
1 1:-0.686111 2:-0.722522 3:-0.719794 4:-0.626465 5:-0.590297 6:-0.403061 7:-0.520866 
1 1:-0.702045 2:-0.741701 3:-0.747025 4:-0.65281 5:-0.617358 6:-0.420068 7:-0.54205 
1 1:-0.695248 2:-0.732849 3:-0.733982 4:-0.646526 5:-0.615774 6:-0.434038 7:-0.561845 
1 1:-0.690679 2:-0.724564 3:-0.720595 4:-0.625498 5:-0.590297 6:-0.406098 7:-0.530937 
1 1:-0.660705 2:-0.694036 3:-0.711098 4:-0.650876 5:-0.625526 6:-0.607021 7:-0.665798 
1 1:-0.639423 2:-0.674403 3:-0.6873 4:-0.61571 5:-0.583958 6:-0.563168 7:-0.624703 
1 1:-0.646888 2:-0.683936 3:-0.700915 4:-0.634683 5:-0.606509 6:-0.583212 7:-0.644267 
1 1:-0.656137 2:-0.692107 3:-0.713387 4:-0.656556 5:-0.630524 6:-0.614796 7:-0.681195 
1 1:-0.646108 2:-0.680872 3:-0.693478 4:-0.624894 5:-0.593954 6:-0.571429 7:-0.641026 
1 1:-0.646777 2:-0.678942 3:-0.675858 4:-0.600967 5:-0.575059 6:-0.533771 7:-0.588702 
1 1:-0.639089 2:-0.6727 3:-0.683066 4:-0.618127 5:-0.592369 6:-0.551263 7:-0.605719 
1 1:-0.649451 2:-0.680872 3:-0.685126 4:-0.607251 5:-0.578107 6:-0.54033 7:-0.594721 
1 1:-0.648003 2:-0.67951 3:-0.679634 4:-0.604834 5:-0.578229 6:-0.531827 7:-0.586039 
1 1:-0.652237 2:-0.687 3:-0.690732 4:-0.60713 5:-0.565795 6:-0.471817 7:-0.531169 
1 1:-0.649786 2:-0.683936 3:-0.685812 4:-0.593233 5:-0.547388 6:-0.446914 7:-0.504775 
1 1:-0.647111 2:-0.685638 3:-0.696224 4:-0.61281 5:-0.567624 6:-0.470967 7:-0.532095 
1 1:-0.660148 2:-0.695398 3:-0.703204 4:-0.615227 5:-0.569574 6:-0.473639 7:-0.532095 
1 1:-0.653908 2:-0.686886 3:-0.690275 4:-0.600483 5:-0.554702 6:-0.45809 7:-0.520634 
1 1:-0.679648 2:-0.711513 3:-0.714645 4:-0.656073 5:-0.6393 6:-0.575316 7:-0.674017 
1 1:-0.675079 2:-0.710946 3:-0.720137 4:-0.665619 5:-0.647955 6:-0.584548 7:-0.679111 
1 1:-0.664271 2:-0.700165 3:-0.711556 4:-0.654985 5:-0.634181 6:-0.573737 7:-0.676448 
1 1:-0.676305 2:-0.709925 3:-0.719565 4:-0.662961 5:-0.644298 6:-0.588071 7:-0.687214 
1 1:-0.679536 2:-0.713783 3:-0.723913 4:-0.670211 5:-0.652831 6:-0.590136 7:-0.687909 
1 1:-0.694802 2:-0.733757 3:-0.767048 4:-0.731722 5:-0.712806 6:-0.709062 7:-0.755976 
1 1:-0.676751 2:-0.715712 3:-0.745767 4:-0.700906 5:-0.676358 6:-0.671283 7:-0.722521 
1 1:-0.682656 2:-0.724451 3:-0.760069 4:-0.721329 5:-0.697568 6:-0.693513 7:-0.744284 
1 1:-0.697253 2:-0.736935 3:-0.769222 4:-0.728459 5:-0.706101 6:-0.698251 7:-0.747873 
1 1:-0.684328 2:-0.724224 3:-0.75492 4:-0.711662 5:-0.686353 6:-0.678571 7:-0.732129 
1 1:-0.669285 2:-0.702661 3:-0.711327 4:-0.661752 5:-0.648199 6:-0.624028 7:-0.656653 
1 1:-0.650008 2:-0.685865 3:-0.69405 4:-0.640725 5:-0.626745 6:-0.599004 7:-0.632228 
1 1:-0.645217 2:-0.679737 3:-0.693478 4:-0.646647 5:-0.630767 6:-0.607629 7:-0.651097 
1 1:-0.65558 2:-0.690405 3:-0.703547 4:-0.656918 5:-0.642713 6:-0.615282 7:-0.660705 
1 1:-0.655914 2:-0.690859 3:-0.706865 4:-0.659819 5:-0.646249 6:-0.622085 7:-0.653528 
1 1:-0.666054 2:-0.698689 3:-0.70286 4:-0.633112 5:-0.6393 6:-0.613581 7:-0.685246 
1 1:-0.653574 2:-0.685298 3:-0.691991 4:-0.622719 5:-0.625282 6:-0.593416 7:-0.665914 
1 1:-0.638866 2:-0.674403 3:-0.688444 4:-0.633353 5:-0.636009 6:-0.617833 7:-0.697054 
1 1:-0.657028 2:-0.69188 3:-0.69714 4:-0.62864 5:-0.628086 6:-0.606535 7:-0.689992 
1 1:-0.650677 2:-0.684163 3:-0.693021 4:-0.627069 5:-0.632962 6:-0.607872 7:-0.683278 
1 1:-0.669842 2:-0.700165 3:-0.702059 4:-0.624773 5:-0.596026 6:-0.563168 7:-0.609886 
1 1:-0.651457 2:-0.683936 3:-0.685927 4:-0.606405 5:-0.576888 6:-0.540087 7:-0.584997 
1 1:-0.644883 2:-0.680191 3:-0.693936 4:-0.626465 5:-0.596026 6:-0.570092 7:-0.628987 
1 1:-0.6587 2:-0.69188 3:-0.694966 4:-0.616677 5:-0.585665 6:-0.552114 7:-0.611854 
1 1:-0.652794 2:-0.686886 3:-0.693822 4:-0.620544 5:-0.59115 6:-0.555272 7:-0.604329 
1 1:-0.639646 2:-0.665778 3:-0.648513 4:-0.557221 5:-0.540928 6:-0.482143 7:-0.588123 
1 1:-0.675748 2:-0.704023 3:-0.690847 4:-0.588036 5:-0.548973 6:-0.448737 7:-0.498408 
1 1:-0.678311 2:-0.705839 3:-0.693135 4:-0.592991 5:-0.550436 6:-0.447765 7:-0.502344 
1 1:-0.672628 2:-0.703342 3:-0.696568 4:-0.599758 5:-0.553971 6:-0.453474 7:-0.515194 
1 1:-0.666165 2:-0.695398 3:-0.685011 4:-0.585257 5:-0.537758 6:-0.434281 7:-0.503039 
1 1:-0.665942 2:-0.698689 3:-0.693249 4:-0.602659 5:-0.561894 6:-0.45967 7:-0.511952 
1 1:-0.721656 2:-0.761221 3:-0.774371 4:-0.670332 5:-0.626745 6:-0.453717 7:-0.525265 
1 1:-0.685219 2:-0.727629 3:-0.750343 4:-0.654622 5:-0.606997 6:-0.430029 7:-0.520634 
1 1:-0.641874 2:-0.68246 3:-0.700915 4:-0.615347 5:-0.575913 6:-0.433431 7:-0.540198 
1 1:-0.677531 2:-0.716847 3:-0.731693 4:-0.643021 5:-0.605169 6:-0.457119 7:-0.531979 
1 1:-0.722547 2:-0.756795 3:-0.764073 4:-0.65716 5:-0.613092 6:-0.479106 7:-0.541934 
1 1:-0.693131 2:-0.730579 3:-0.741762 4:-0.637946 5:-0.597489 6:-0.460155 7:-0.525265 
1 1:-0.682768 2:-0.721273 3:-0.731922 4:-0.629728 5:-0.583836 6:-0.441448 7:-0.52758 
1 1:-0.665385 2:-0.701186 3:-0.714416 4:-0.620423 5:-0.580789 6:-0.448737 7:-0.529548 
1 1:-0.676862 2:-0.713556 3:-0.72254 4:-0.616193 5:-0.56738 6:-0.423348 7:-0.497135 
1 1:-0.724107 2:-0.756909 3:-0.737872 4:-0.591178 5:-0.531663 6:-0.347789 7:-0.421659 
1 1:-0.690679 2:-0.72638 3:-0.723341 4:-0.592508 5:-0.531176 6:-0.348761 7:-0.43937 
1 1:-0.666054 2:-0.703342 3:-0.701373 4:-0.578006 5:-0.521058 6:-0.347425 7:-0.435319 
1 1:-0.660594 2:-0.697327 3:-0.699314 4:-0.583202 5:-0.528494 6:-0.362366 7:-0.47352 
1 1:-0.698033 2:-0.734778 3:-0.7246 4:-0.57148 5:-0.49997 6:-0.282677 7:-0.371071 
1 1:-0.70951 2:-0.741361 3:-0.716247 4:-0.563142 5:-0.498141 6:-0.350462 7:-0.408925 
1 1:-0.677531 2:-0.711513 3:-0.699886 4:-0.561088 5:-0.49485 6:-0.345117 7:-0.422469 
1 1:-0.675748 2:-0.710038 3:-0.695995 4:-0.549849 5:-0.48205 6:-0.329568 7:-0.406378 
1 1:-0.682879 2:-0.719798 3:-0.706178 4:-0.560483 5:-0.492168 6:-0.333698 7:-0.398854 
1 1:-0.605103 2:-0.621404 3:-0.552174 4:-0.430574 5:-0.251905 6:-0.120019 7:-0.311802 
1 1:-0.607109 2:-0.623447 3:-0.572654 4:-0.456556 5:-0.314561 6:-0.167274 7:-0.328587 
1 1:-0.689788 2:-0.72377 3:-0.734668 4:-0.662598 5:-0.541659 6:-0.453353 7:-0.642299 
1 1:-0.694913 2:-0.726948 3:-0.732609 4:-0.659577 5:-0.555921 6:-0.469509 7:-0.641373 
1 1:-0.670845 2:-0.704364 3:-0.697368 4:-0.60145 5:-0.485098 6:-0.376215 7:-0.565202 
1 1:-0.663157 2:-0.695171 3:-0.702632 4:-0.617644 5:-0.540928 6:-0.406098 7:-0.592753 
1 1:-0.687336 2:-0.711854 3:-0.703204 4:-0.632628 5:-0.594076 6:-0.502794 7:-0.573421 
1 1:-0.671402 2:-0.701072 3:-0.696911 4:-0.622236 5:-0.570671 6:-0.481657 7:-0.574347 
1 1:-0.648671 2:-0.676673 3:-0.677231 4:-0.59565 5:-0.543609 6:-0.440355 7:-0.519129 
1 1:-0.678422 2:-0.70391 3:-0.698169 4:-0.626707 5:-0.582861 6:-0.497813 7:-0.58083 
1 1:-0.772244 2:-0.670317 3:-0.677918 4:-0.614381 5:-0.546901 6:-0.461856 7:-0.559762 
1 1:-0.672628 2:-0.701867 3:-0.698856 4:-0.59855 5:-0.493996 6:-0.371599 7:-0.52295 
1 1:-0.64622 2:-0.676786 3:-0.673913 4:-0.573172 5:-0.472177 6:-0.347911 7:-0.505238 
1 1:-0.651791 2:-0.681779 3:-0.680206 4:-0.576193 5:-0.46596 6:-0.33309 7:-0.48579 
1 1:-0.64622 2:-0.679623 3:-0.684325 4:-0.589849 5:-0.494118 6:-0.364067 7:-0.510332 
1 1:-0.772244 2:-0.668955 3:-0.678947 4:-0.593958 5:-0.503383 6:-0.386176 7:-0.548648 
1 1:-0.627166 2:-0.64762 3:-0.607094 4:-0.477583 5:-0.377705 6:-0.276118 7:-0.411125 
1 1:-0.6353 2:-0.653861 3:-0.614874 4:-0.481692 5:-0.377217 6:-0.261905 7:-0.423164 
1 1:-0.63218 2:-0.658968 3:-0.618421 4:-0.495347 5:-0.379411 6:-0.270894 7:-0.456271 
1 1:-0.646888 2:-0.662373 3:-0.615561 4:-0.476495 5:-0.375389 6:-0.278183 7:-0.410199 
1 1:-0.772244 2:-0.65023 3:-0.612243 4:-0.488822 5:-0.394405 6:-0.306851 7:-0.452451 
1 1:-0.640314 2:-0.666459 3:-0.640847 4:-0.535347 5:-0.441336 6:-0.39395 7:-0.494472 
1 1:-0.635077 2:-0.663735 3:-0.646568 4:-0.56568 5:-0.463278 6:-0.438654 7:-0.561151 
1 1:-0.642766 2:-0.66714 3:-0.631236 4:-0.515408 5:-0.41659 6:-0.390063 7:-0.466458 
1 1:-0.772244 2:-0.660898 3:-0.634783 4:-0.54284 5:-0.444627 6:-0.411079 7:-0.488106 
1 1:-0.772244 2:-0.570107 3:-0.610297 4:-0.614502 5:-0.433169 6:-0.526482 7:-0.640794 
1 1:-0.456906 2:-0.511434 3:-0.567277 4:-0.570393 5:-0.433278 6:-0.47449 7:-0.634312 
1 1:-0.64856 2:-0.674062 3:-0.62643 4:-0.461511 5:-0.35369 6:-0.230078 7:-0.368756 
1 1:-0.648448 2:-0.672473 3:-0.625858 4:-0.449909 5:-0.330895 6:-0.194728 7:-0.348382 
1 1:-0.650565 2:-0.676105 3:-0.629062 4:-0.447372 5:-0.33053 6:-0.196064 7:-0.334144 
1 1:-0.666834 2:-0.687908 3:-0.639245 4:-0.4771 5:-0.374779 6:-0.257046 7:-0.394918 
1 1:-0.65168 2:-0.674289 3:-0.624142 4:-0.446647 5:-0.330895 6:-0.198737 7:-0.340626 
1 1:-0.64388 2:-0.674857 3:-0.657208 4:-0.559758 5:-0.519717 6:-0.368562 7:-0.502113 
1 1:-0.622709 2:-0.653407 3:-0.641762 4:-0.554079 5:-0.520449 6:-0.36844 7:-0.50165 
1 1:-0.641986 2:-0.672814 3:-0.661098 4:-0.557221 5:-0.512281 6:-0.348397 7:-0.483591 
1 1:-0.642877 2:-0.673722 3:-0.650915 4:-0.543927 5:-0.500091 6:-0.345603 7:-0.489958 
1 1:-0.628949 2:-0.661238 3:-0.636842 4:-0.535831 5:-0.488633 6:-0.332726 7:-0.481044 
1 1:-0.631289 2:-0.668955 3:-0.683181 4:-0.587311 5:-0.536052 6:-0.528183 7:-0.594143 
1 1:-0.63608 2:-0.668728 3:-0.674714 4:-0.575468 5:-0.52825 6:-0.516035 7:-0.575273 
1 1:-0.655023 2:-0.684617 3:-0.702632 4:-0.668036 5:-0.585543 6:-0.497206 7:-0.593216 
1 1:-0.627166 2:-0.658628 3:-0.674371 4:-0.631903 5:-0.546535 6:-0.455053 7:-0.558835 
1 1:-0.630843 2:-0.66033 3:-0.668078 4:-0.613172 5:-0.501798 6:-0.391764 7:-0.526885 
1 1:-0.641428 2:-0.678034 3:-0.710297 4:-0.68568 5:-0.596636 6:-0.509232 7:-0.623198 
1 1:-0.635077 2:-0.66782 3:-0.654233 4:-0.566647 5:-0.537393 6:-0.342809 7:-0.484517 
1 1:-0.624937 2:-0.65772 3:-0.650343 4:-0.5629 5:-0.527763 6:-0.330661 7:-0.472015 
1 1:-0.62828 2:-0.661352 3:-0.650915 4:-0.558308 5:-0.523374 6:-0.321186 7:-0.46449 
1 1:-0.772244 2:-0.650116 3:-0.643021 4:-0.560725 5:-0.52118 6:-0.340379 7:-0.486716 
1 1:-0.723104 2:-0.776202 3:-0.853432 4:-0.877704 5:-0.86969 6:-0.830782 7:-0.847659 
1 1:-0.670399 2:-0.721387 3:-0.769108 4:-0.799396 5:-0.714756 6:-0.878644 7:-0.967934 
1 1:-0.644548 2:-0.697214 3:-0.7627 4:-0.78574 5:-0.708417 6:-0.712221 7:-0.861666 
1 1:-0.664605 2:-0.710038 3:-0.747483 4:-0.765196 5:-0.692448 6:-0.751458 7:-0.902182 
1 1:-0.635969 2:-0.686092 3:-0.74508 4:-0.762417 5:-0.701347 6:-0.74757 7:-0.884586 
1 1:-0.693911 2:-0.753731 3:-0.827574 4:-0.865015 5:-0.846285 6:-0.883625 7:-0.96041 
1 1:-0.717422 2:-0.759973 3:-0.811098 4:-0.807009 5:-0.808618 6:-0.841229 7:-0.883776 
1 1:-0.693465 2:-0.733417 3:-0.776545 4:-0.756012 5:-0.74901 6:-0.78292 7:-0.833073 
1 1:-0.680762 2:-0.723884 3:-0.770938 4:-0.759879 5:-0.753642 6:-0.784621 7:-0.844302 
1 1:-0.709399 2:-0.754185 3:-0.806407 4:-0.798066 5:-0.791552 6:-0.822279 7:-0.870579 
1 1:-0.772244 2:-0.725132 3:-0.780892 4:-0.783444 5:-0.780947 6:-0.816691 7:-0.868496 
1 1:-0.70015 2:-0.741361 3:-0.794508 4:-0.787915 5:-0.75035 6:-0.735301 7:-0.791283 
1 1:-0.684996 2:-0.727061 3:-0.772311 4:-0.759275 5:-0.726946 6:-0.719874 7:-0.785148 
1 1:-0.692351 2:-0.737048 3:-0.787757 4:-0.784048 5:-0.748766 6:-0.733601 7:-0.798113 
1 1:-0.702379 2:-0.745446 3:-0.792563 4:-0.782598 5:-0.75035 6:-0.74016 7:-0.795566 
1 1:-0.707616 2:-0.749872 3:-0.798398 4:-0.792266 5:-0.755714 6:-0.739553 7:-0.795682 
1 1:-0.703605 2:-0.745333 3:-0.785927 4:-0.773776 5:-0.750229 6:-0.767371 7:-0.825317 
1 1:-0.705165 2:-0.746695 3:-0.795881 4:-0.792145 5:-0.773511 6:-0.793853 7:-0.846038 
1 1:-0.708285 2:-0.75044 3:-0.799886 4:-0.789486 5:-0.754495 6:-0.788022 7:-0.848585 
1 1:-0.723104 2:-0.764058 3:-0.815446 4:-0.807372 5:-0.773389 6:-0.809038 7:-0.860855 
1 1:-0.689342 2:-0.724678 3:-0.758581 4:-0.735347 5:-0.721217 6:-0.74672 7:-0.822423 
1 1:-0.679759 2:-0.717188 3:-0.752746 4:-0.733535 5:-0.719266 6:-0.743076 7:-0.824159 
1 1:-0.676417 2:-0.713443 3:-0.752746 4:-0.742477 5:-0.730115 6:-0.75741 7:-0.83261 
1 1:-0.697365 2:-0.733644 3:-0.771854 4:-0.751903 5:-0.736698 6:-0.761297 7:-0.832841 
1 1:-0.772244 2:-0.712648 3:-0.767506 4:-0.762054 5:-0.699153 6:-0.77053 7:-0.851016 
1 1:-0.717087 2:-0.752823 3:-0.786041 4:-0.755891 5:-0.720485 6:-0.710155 7:-0.781328 
1 1:-0.693242 2:-0.730466 3:-0.759268 4:-0.725317 5:-0.683184 6:-0.680394 7:-0.762111 
1 1:-0.681988 2:-0.720819 3:-0.753776 4:-0.726163 5:-0.694764 6:-0.693149 7:-0.771951 
1 1:-0.717533 2:-0.756909 3:-0.790503 4:-0.765196 5:-0.733163 6:-0.714043 7:-0.783296 
1 1:-0.772244 2:-0.715485 3:-0.772998 4:-0.764955 5:-0.725605 6:-0.729227 7:-0.805985 
1 1:-0.658254 2:-0.702094 3:-0.736499 4:-0.72145 5:-0.516304 6:-0.533042 7:-0.656422 
1 1:-0.685999 2:-0.731147 3:-0.765206 4:-0.755529 5:-0.563357 6:-0.574101 7:-0.680732 
1 1:-0.700262 2:-0.738297 3:-0.751602 4:-0.719275 5:-0.575547 6:-0.541181 7:-0.638132 
1 1:-0.653897 2:-0.69449 3:-0.720252 4:-0.682779 5:-0.568843 6:-0.453839 7:-0.556636 
1 1:-0.772244 2:-0.60404 3:-0.656293 4:-0.65426 5:-0.537636 6:-0.574708 7:-0.676564 
1 1:-0.507928 2:-0.557737 3:-0.601487 4:-0.61426 5:-0.371488 6:-0.444606 7:-0.595879 
1 1:-0.752744 2:-0.799126 3:-0.871167 4:-0.896918 5:-0.86969 6:-0.877794 7:-0.922093 
1 1:-0.759318 2:-0.80707 3:-0.880892 4:-0.908761 5:-0.890413 6:-0.900875 7:-0.947097 
1 1:-0.738927 2:-0.785167 3:-0.850915 4:-0.871057 5:-0.826781 6:-0.837949 7:-0.900446 
1 1:-0.752744 2:-0.801169 3:-0.875629 4:-0.90429 5:-0.873956 6:-0.882775 7:-0.927302 
1 1:-0.772244 2:-0.762583 3:-0.849771 4:-0.874441 5:-0.833364 6:-0.862974 7:-0.91399 
1 1:-0.676194 2:-0.701526 3:-0.664645 4:-0.528459 5:-0.454623 6:-0.353499 7:-0.440759 
1 1:-0.652683 2:-0.680645 3:-0.651716 4:-0.507795 5:-0.421832 6:-0.320578 7:-0.424321 
1 1:-0.656248 2:-0.685979 3:-0.661327 4:-0.516616 5:-0.430609 6:-0.330661 7:-0.433582 
1 1:-0.691348 2:-0.716847 3:-0.682494 4:-0.550816 5:-0.48205 6:-0.383989 7:-0.472362 
1 1:-0.652794 2:-0.682801 3:-0.652517 4:-0.509366 5:-0.427196 6:-0.326409 7:-0.422816 
1 1:-0.772244 2:-0.531748 3:-0.611327 4:-0.646647 5:-0.655135 6:-0.771744 7:-0.873821 
1 1:-0.772244 2:-0.532089 3:-0.622998 4:-0.667069 5:-0.64904 6:-0.759961 7:-0.81976 
1 1:-0.772244 2:-0.550009 3:-0.650458 4:-0.686526 5:-0.694399 6:-0.807216 7:-0.863865 
1 1:-0.554727 2:-0.611303 3:-0.662357 4:-0.681934 5:-0.516792 6:-0.568878 7:-0.70099 
1 1:-0.726447 2:-0.763377 3:-0.810183 4:-0.796375 5:-0.680502 6:-0.547741 7:-0.711408 
1 1:-0.490891 2:-0.541168 3:-0.567277 4:-0.579215 5:-0.320046 6:-0.397595 7:-0.611275 
1 1:-0.425595 2:-0.489871 3:-0.540847 4:-0.565317 5:-0.305297 6:-0.476919 7:-0.599931 
1 1:-0.772244 2:-0.460353 3:-0.532037 4:-0.558671 5:-0.370634 6:-0.50085 7:-0.649476 
1 1:-0.772244 2:-0.517108 3:-0.581121 4:-0.608822 5:-0.416956 6:-0.552843 7:-0.650865 
1 1:-0.602095 2:-0.637519 3:-0.7254 4:-0.736435 5:-0.580423 6:-0.645773 7:-0.769289 
1 1:-0.463257 2:-0.521636 3:-0.509725 4:-0.523988 5:-0.259219 6:-0.471817 7:-0.652833 
1 1:-0.641874 2:-0.675651 3:-0.693822 4:-0.678296 5:-0.436216 6:-0.46052 7:-0.601783 
1 1:-0.662488 2:-0.712535 3:-0.743936 4:-0.750804 5:-0.543731 6:-0.534621 7:-0.650402 
1 1:-0.663926 2:-0.705272 3:-0.740732 4:-0.718187 5:-0.593832 6:-0.494655 7:-0.595069 
1 1:-0.639412 2:-0.683822 3:-0.701373 4:-0.688338 5:-0.506064 6:-0.426871 7:-0.534757 
1 1:-0.63062 2:-0.669977 3:-0.688547 4:-0.6829 5:-0.440605 6:-0.456633 7:-0.587081 
1 1:-0.54247 2:-0.610282 3:-0.628146 4:-0.6771 5:-0.45316 6:-0.629738 7:-0.752966 
1 1:-0.400969 2:-0.468422 3:-0.535229 4:-0.567251 5:-0.353081 6:-0.553814 7:-0.687677 
1 1:-0.590061 2:-0.648301 3:-0.696224 4:-0.716012 5:-0.664533 6:-0.701409 7:-0.78098 
1 1:-0.690456 2:-0.727061 3:-0.726201 4:-0.657281 5:-0.592369 6:-0.380466 7:-0.515541 
1 1:-0.685999 2:-0.728196 3:-0.754119 4:-0.709728 5:-0.671238 6:-0.563047 7:-0.714881 
1 1:-0.424369 2:-0.489644 3:-0.556979 4:-0.592024 5:-0.351606 6:-0.660471 7:-0.775308 
1 1:-0.556744 2:-0.613562 3:-0.660755 4:-0.667311 5:-0.482782 6:-0.517007 7:-0.668924 
1 1:-0.550058 2:-0.618113 3:-0.661098 4:-0.69136 5:-0.477418 6:-0.615646 7:-0.721016 
1 1:-0.477965 2:-0.529252 3:-0.624474 4:-0.64 5:-0.407204 6:-0.634232 7:-0.741969 
1 1:-0.443312 2:-0.519492 3:-0.580549 4:-0.613776 5:-0.416347 6:-0.726555 7:-0.804364 
1 1:-0.468605 2:-0.534132 3:-0.591762 4:-0.615227 5:-0.421954 6:-0.551992 7:-0.649013 
1 1:-0.516519 2:-0.572944 3:-0.626773 4:-0.636133 5:-0.501542 6:-0.569971 7:-0.671355 
1 1:-0.458911 2:-0.510866 3:-0.59714 4:-0.61994 5:-0.419882 6:-0.593416 7:-0.681889 
1 1:-0.498914 2:-0.546729 3:-0.633066 4:-0.622477 5:-0.494118 6:-0.484815 7:-0.635006 
1 1:-0.588055 2:-0.648754 3:-0.690389 4:-0.712387 5:-0.490827 6:-0.604227 7:-0.74139 
1 1:-0.577024 2:-0.633547 3:-0.699085 4:-0.728459 5:-0.548729 6:-0.673955 7:-0.794872 
1 1:-0.535907 2:-0.588492 3:-0.657666 4:-0.67565 5:-0.468629 6:-0.610787 7:-0.678879 
1 1:-0.494679 2:-0.540941 3:-0.630664 4:-0.632387 5:-0.48205 6:-0.581025 7:-0.677606 
1 1:-0.487871 2:-0.534132 3:-0.603661 4:-0.608338 5:-0.496434 6:-0.660471 7:-0.757481 
1 1:-0.420023 2:-0.482721 3:-0.537529 4:-0.559758 5:-0.305418 6:-0.515428 7:-0.663483 
1 1:-0.530336 2:-0.58191 3:-0.620595 4:-0.581027 5:-0.502773 6:-0.47947 7:-0.606876 
1 1:-0.478968 2:-0.536174 3:-0.578375 4:-0.572689 5:-0.462425 6:-0.555758 7:-0.689182 
1 1:-0.51429 2:-0.573852 3:-0.632265 4:-0.661511 5:-0.459133 6:-0.588678 7:-0.695549 
1 1:-0.772244 2:-0.563638 3:-0.653089 4:-0.690272 5:-0.556653 6:-0.72121 7:-0.84407 
1 1:-0.415343 2:-0.487488 3:-0.536384 4:-0.575227 5:-0.302249 6:-0.530977 7:-0.671702 
1 1:-0.446209 2:-0.489531 3:-0.530435 4:-0.525076 5:-0.362223 6:-0.64881 7:-0.8105 
1 1:-0.53301 2:-0.591443 3:-0.705263 4:-0.707299 5:-0.524471 6:-0.568999 7:-0.703305 
1 1:-0.441194 2:-0.500312 3:-0.546682 4:-0.553595 5:-0.341257 6:-0.436224 7:-0.601435 
1 1:-0.604769 2:-0.644896 3:-0.734554 4:-0.728459 5:-0.538855 6:-0.64966 7:-0.75505 
1 1:-0.412112 2:-0.481916 3:-0.569108 4:-0.595529 5:-0.417688 6:-0.668367 7:-0.767205 
1 1:-0.507605 2:-0.554105 3:-0.611785 4:-0.614864 5:-0.515695 6:-0.598518 7:-0.703421 
1 1:-0.772244 2:-0.560801 3:-0.601487 4:-0.629728 5:-0.379411 6:-0.492468 7:-0.650634 
1 1:-0.494457 2:-0.555921 3:-0.607551 4:-0.618489 5:-0.4172 6:-0.50243 7:-0.615674 
1 1:-0.772244 2:-0.504738 3:-0.572883 4:-0.603384 5:-0.392454 6:-0.596939 7:-0.728888 
1 1:-0.472283 2:-0.528117 3:-0.582151 4:-0.596616 5:-0.42232 6:-0.477648 7:-0.595763 
1 1:-0.772244 2:-0.603359 3:-0.686957 4:-0.719384 5:-0.606753 6:-0.674684 7:-0.779939 
1 1:-0.493119 2:-0.546604 3:-0.608238 4:-0.618127 5:-0.539343 6:-0.731171 7:-0.817214 
1 1:-0.528553 2:-0.561142 3:-0.658924 4:-0.626224 5:-0.603462 6:-0.684281 7:-0.775424 
1 1:-0.673965 2:-0.713897 3:-0.715789 4:-0.704773 5:-0.631377 6:-0.681001 7:-0.827285 
1 1:-0.711739 2:-0.756568 3:-0.810641 4:-0.821027 5:-0.809472 6:-0.833819 7:-0.90496 
1 1:-0.679314 2:-0.719004 3:-0.765332 4:-0.754804 5:-0.711099 6:-0.678207 7:-0.736413 
1 1:-0.702379 2:-0.741701 3:-0.778719 4:-0.761571 5:-0.709027 6:-0.661929 7:-0.721827 
1 1:-0.502591 2:-0.555683 3:-0.619565 4:-0.613414 5:-0.55458 6:-0.57896 7:-0.69879 
1 1:-0.506814 2:-0.551041 3:-0.599657 4:-0.565921 5:-0.40562 6:-0.47206 7:-0.591827 
1 1:-0.474734 2:-0.541622 3:-0.608009 4:-0.638187 5:-0.487048 6:-0.621599 7:-0.751114 
1 1:-0.546381 2:-0.611303 3:-0.688444 4:-0.710453 5:-0.602365 6:-0.769679 7:-0.824854 
1 1:-0.599086 2:-0.65545 3:-0.725858 4:-0.751541 5:-0.590541 6:-0.716229 7:-0.821381 
1 1:-0.713076 2:-0.75271 3:-0.802517 4:-0.792749 5:-0.733894 6:-0.613824 7:-0.675059 
1 1:-0.712407 2:-0.748964 3:-0.780092 4:-0.762538 5:-0.673676 6:-0.536808 7:-0.668692 
1 1:-0.473397 2:-0.529819 3:-0.579519 4:-0.603142 5:-0.437191 6:-0.587099 7:-0.714881 
1 1:-0.588166 2:-0.627986 3:-0.667506 4:-0.672991 5:-0.522033 6:-0.660836 7:-0.768826 
1 1:-0.447212 2:-0.512455 3:-0.565675 4:-0.593704 5:-0.44414 6:-0.704325 7:-0.77033 
1 1:-0.520085 2:-0.579754 3:-0.643936 4:-0.66997 5:-0.501798 6:-0.672498 7:-0.781559 
1 1:-0.455569 2:-0.519038 3:-0.594737 4:-0.623807 5:-0.44414 6:-0.662415 7:-0.812004 
1 1:-0.522982 2:-0.58191 3:-0.61167 4:-0.638066 5:-0.432315 6:-0.601433 7:-0.724373 
1 1:-0.645774 2:-0.693809 3:-0.746453 4:-0.762417 5:-0.637716 6:-0.664116 7:-0.783759 
1 1:-0.706836 2:-0.756568 3:-0.820709 4:-0.833958 5:-0.798257 6:-0.679543 7:-0.720553 
1 1:-0.709065 2:-0.749645 3:-0.791419 4:-0.785015 5:-0.689157 6:-0.551385 7:-0.666609 
1 1:-0.772244 2:-0.456052 3:-0.542906 4:-0.57136 5:-0.314439 6:-0.565586 7:-0.700411 
1 1:-0.772244 2:-0.535493 3:-0.611888 4:-0.637946 5:-0.455964 6:-0.606414 7:-0.709325 
1 1:-0.772244 2:-0.595404 3:-0.666018 4:-0.69426 5:-0.551411 6:-0.734086 7:-0.837588 
1 1:-0.772244 2:-0.520513 3:-0.574943 4:-0.584773 5:-0.403425 6:-0.481535 7:-0.60595 
1 1:-0.740041 2:-0.78948 3:-0.862929 4:-0.879879 5:-0.832267 6:-0.838557 7:-0.895352 
1 1:-0.772244 2:-0.499745 3:-0.571854 4:-0.591541 5:-0.451563 6:-0.623056 7:-0.77253 
1 1:-0.510948 2:-0.569301 3:-0.626773 4:-0.660302 5:-0.452307 6:-0.582726 7:-0.657579 
1 1:-0.572678 2:-0.625489 3:-0.702288 4:-0.720725 5:-0.573463 6:-0.646866 7:-0.744979 
1 1:-0.555741 2:-0.613233 3:-0.68135 4:-0.708508 5:-0.530322 6:-0.660593 7:-0.734676 
1 1:-0.772244 2:-0.494524 3:-0.572986 4:-0.605559 5:-0.418541 6:-0.586613 7:-0.747989 
1 1:-0.772244 2:-0.482154 3:-0.551247 4:-0.562054 5:-0.392211 6:-0.553207 7:-0.70863 
1 1:-0.531562 2:-0.58746 3:-0.657666 4:-0.673474 5:-0.53081 6:-0.61431 7:-0.702958 
1 1:-0.513176 2:-0.577257 3:-0.620824 4:-0.639033 5:-0.544463 6:-0.635083 7:-0.760491 
1 1:-0.70795 2:-0.75532 3:-0.824714 4:-0.826103 5:-0.769976 6:-0.612366 7:-0.672165 
1 1:-0.520196 2:-0.572717 3:-0.620595 4:-0.624894 5:-0.547754 6:-0.559645 7:-0.664757 
1 1:-0.460806 2:-0.528003 3:-0.582265 4:-0.608943 5:-0.446456 6:-0.619169 7:-0.737454 
1 1:-0.608223 2:-0.663394 3:-0.747712 4:-0.778127 5:-0.608704 6:-0.764942 7:-0.848353 
1 1:-0.568667 2:-0.631164 3:-0.687529 4:-0.726284 5:-0.43841 6:-0.674684 7:-0.782601 
1 1:-0.380901 2:-0.447881 3:-0.512929 4:-0.529426 5:-0.317121 6:-0.565962 7:-0.726573 
1 1:-0.572455 2:-0.630585 3:-0.637071 4:-0.668278 5:-0.526665 6:-0.626944 7:-0.739654 
1 1:-0.772244 2:-0.747489 3:-0.83238 4:-0.842538 5:-0.832632 6:-0.795068 7:-0.746021 
1 1:-0.475403 2:-0.536515 3:-0.587529 4:-0.596121 5:-0.408667 6:-0.564504 7:-0.636974 
1 1:-0.622709 2:-0.675765 3:-0.700458 4:-0.739819 5:-0.450966 6:-0.619048 7:-0.767552 
1 1:-0.566984 2:-0.624468 3:-0.690732 4:-0.717946 5:-0.490096 6:-0.624757 7:-0.713723 
1 1:-0.624937 2:-0.677921 3:-0.729634 4:-0.759879 5:-0.560188 6:-0.656341 7:-0.751461 
1 1:-0.513622 2:-0.558078 3:-0.647357 4:-0.657402 5:-0.498994 6:-0.59293 7:-0.718933 
1 1:-0.693465 2:-0.741247 3:-0.80881 4:-0.818127 5:-0.769489 6:-0.682337 7:-0.746715 
1 1:-0.692128 2:-0.740339 3:-0.807323 4:-0.813776 5:-0.754495 6:-0.654519 7:-0.727267 
1 1:-0.520976 2:-0.580094 3:-0.648513 4:-0.682054 5:-0.451563 6:-0.604835 7:-0.707241 
1 1:-0.602652 2:-0.659649 3:-0.741419 4:-0.761329 5:-0.657707 6:-0.650267 7:-0.790704 
1 1:-0.772244 2:-0.557851 3:-0.633295 4:-0.665619 5:-0.42171 6:-0.588071 7:-0.689066 
1 1:-0.772244 2:-0.653407 3:-0.711098 4:-0.746586 5:-0.507405 6:-0.649405 7:-0.758291 
1 1:-0.772244 2:-0.53277 3:-0.612929 4:-0.640363 5:-0.454014 6:-0.616497 7:-0.734213 
1 1:-0.47518 2:-0.569313 3:-0.563158 4:-0.611239 5:-0.527641 6:-0.680637 7:-0.808184 
1 1:-0.44944 2:-0.513692 3:-0.599085 4:-0.619094 5:-0.536661 6:-0.601312 7:-0.734908 
1 1:-0.459134 2:-0.534699 3:-0.626201 4:-0.656314 5:-0.624672 6:-0.747206 7:-0.845112 
1 1:-0.772244 2:-0.550009 3:-0.645881 4:-0.676133 5:-0.524593 6:-0.74757 7:-0.861434 
1 1:-0.46582 2:-0.526301 3:-0.638902 4:-0.649547 5:-0.626988 6:-0.75266 7:-0.828558 
1 1:-0.566995 2:-0.617886 3:-0.693135 4:-0.718066 5:-0.514597 6:-0.650875 7:-0.718354 
1 1:-0.574572 2:-0.623674 3:-0.692105 4:-0.715758 5:-0.56226 6:-0.686103 7:-0.766858 
1 1:-0.772244 2:-0.565908 3:-0.637059 4:-0.667795 5:-0.436826 6:-0.57155 7:-0.650402 
1 1:-0.565993 2:-0.617545 3:-0.700572 4:-0.731722 5:-0.480222 6:-0.665197 7:-0.767668 
1 1:-0.772244 2:-0.561369 3:-0.629977 4:-0.66719 5:-0.475955 6:-0.704325 7:-0.813625 
1 1:-0.74149 2:-0.789026 3:-0.852174 4:-0.897027 5:-0.611385 6:-0.77223 7:-0.912601 
1 1:-0.772244 2:-0.521648 3:-0.61476 4:-0.645801 5:-0.625891 6:-0.902211 7:-0.956937 
1 1:-0.772244 2:-0.504284 3:-0.582151 4:-0.614248 5:-0.489242 6:-0.648324 7:-0.754587 
1 1:-0.71185 2:-0.755433 3:-0.818078 4:-0.854139 5:-0.633937 6:-0.765671 7:-0.867917 
1 1:-0.576021 2:-0.629008 3:-0.691533 4:-0.723988 5:-0.54812 6:-0.661565 7:-0.75204 
1 1:-0.571007 2:-0.624355 3:-0.694279 4:-0.718066 5:-0.53593 6:-0.685496 7:-0.789084 
1 1:-0.772244 2:-0.53538 3:-0.616247 4:-0.648097 5:-0.400012 6:-0.579082 7:-0.716386 
1 1:-0.772244 2:-0.523918 3:-0.585584 4:-0.607976 5:-0.408899 6:-0.555758 7:-0.645077 
1 1:-0.772244 2:-0.733757 3:-0.821739 4:-0.845921 5:-0.849333 6:-0.828596 7:-0.765932 
1 1:-0.553847 2:-0.606423 3:-0.677346 4:-0.695227 5:-0.520692 6:-0.671404 7:-0.778665 
1 1:-0.442754 2:-0.507462 3:-0.584439 4:-0.609184 5:-0.489486 6:-0.773567 7:-0.821728 
1 1:-0.581704 2:-0.628894 3:-0.702059 4:-0.725076 5:-0.473517 6:-0.661079 7:-0.775887 
1 1:-0.583932 2:-0.643761 3:-0.668535 4:-0.698369 5:-0.492656 6:-0.596817 7:-0.695202 
1 1:-0.644883 2:-0.692674 3:-0.751602 4:-0.790816 5:-0.497897 6:-0.679179 7:-0.837125 
1 1:-0.471837 2:-0.530159 3:-0.605606 4:-0.628882 5:-0.367099 6:-0.56329 7:-0.667882 
1 1:-0.769569 2:-0.805141 3:-0.837185 4:-0.861873 5:-0.777778 6:-0.866375 7:-0.929154 
1 1:-0.772244 2:-0.669171 3:-0.738101 4:-0.780544 5:-0.552752 6:-0.789116 7:-0.884471 
1 1:-0.677197 2:-0.725699 3:-0.779863 4:-0.822356 5:-0.537758 6:-0.709791 7:-0.849048 
1 1:-0.720319 2:-0.761221 3:-0.81087 4:-0.796979 5:-0.749741 6:-0.677964 7:-0.734213 
1 1:-0.730793 2:-0.76803 3:-0.808238 4:-0.782236 5:-0.729384 6:-0.648567 7:-0.711987 
1 1:-0.772244 2:-0.535153 3:-0.596682 4:-0.62284 5:-0.28884 6:-0.5362 7:-0.655612 
1 1:-0.695359 2:-0.73614 3:-0.811785 4:-0.841571 5:-0.542988 6:-0.729349 7:-0.877872 
1 1:-0.603432 2:-0.665778 3:-0.744622 4:-0.778731 5:-0.635765 6:-0.759354 7:-0.862708 
1 1:-0.426709 2:-0.490552 3:-0.558924 4:-0.592024 5:-0.313342 6:-0.502417 7:-0.700295 
1 1:-0.772244 2:-0.521875 3:-0.599886 4:-0.637221 5:-0.27726 6:-0.55102 7:-0.677953 
1 1:-0.772244 2:-0.578619 3:-0.655263 4:-0.679637 5:-0.495581 6:-0.621465 7:-0.730161 
1 1:-0.516408 2:-0.577938 3:-0.64714 4:-0.6771 5:-0.543 6:-0.742468 7:-0.80749 
1 1:-0.772244 2:-0.567611 3:-0.622769 4:-0.650755 5:-0.410739 6:-0.529276 7:-0.654222 
1 1:-0.466711 2:-0.528344 3:-0.58341 4:-0.613897 5:-0.346986 6:-0.562439 7:-0.651907 
1 1:-0.508719 2:-0.554559 3:-0.664416 4:-0.661994 5:-0.498385 6:-0.611638 7:-0.731898 
1 1:-0.60488 2:-0.657266 3:-0.724142 4:-0.75287 5:-0.510075 6:-0.673591 7:-0.771372 
1 1:-0.60878 2:-0.671441 3:-0.750686 4:-0.793353 5:-0.563723 6:-0.772352 7:-0.875557 
1 1:-0.534793 2:-0.587698 3:-0.652059 4:-0.672387 5:-0.575547 6:-0.726676 7:-0.795335 
1 1:-0.601538 2:-0.660103 3:-0.729405 4:-0.755637 5:-0.591882 6:-0.690841 7:-0.8083 
1 1:-0.772244 2:-0.609261 3:-0.690847 4:-0.732931 5:-0.48205 6:-0.756803 7:-0.896973 
1 1:-0.641651 2:-0.689383 3:-0.7373 4:-0.772085 5:-0.43084 6:-0.661443 7:-0.79082 
1 1:-0.658923 2:-0.717869 3:-0.783513 4:-0.831662 5:-0.576157 6:-0.775146 7:-0.890027 
1 1:-0.65948 2:-0.709471 3:-0.772883 4:-0.790816 5:-0.622478 6:-0.70068 7:-0.83724 
1 1:-0.754304 2:-0.79243 3:-0.850915 4:-0.85148 5:-0.747791 6:-0.695335 7:-0.836083 
1 1:-0.719427 2:-0.761108 3:-0.813501 4:-0.813535 5:-0.685866 6:-0.644922 7:-0.778897 
1 1:-0.772244 2:-0.548431 3:-0.630778 4:-0.665015 5:-0.525922 6:-0.734815 7:-0.863518 
1 1:-0.582149 2:-0.638768 3:-0.707551 4:-0.743553 5:-0.560797 6:-0.783892 7:-0.868033 
1 1:-0.615577 2:-0.674516 3:-0.747597 4:-0.791891 5:-0.499726 6:-0.728741 7:-0.844765 
1 1:-0.570327 2:-0.627419 3:-0.690961 4:-0.727492 5:-0.537758 6:-0.664845 7:-0.747063 
1 1:-0.677297 2:-0.727856 3:-0.786957 4:-0.831541 5:-0.406107 6:-0.702867 7:-0.855415 
1 1:-0.772244 2:-0.51325 3:-0.582723 4:-0.606767 5:-0.357591 6:-0.55345 7:-0.657927 
1 1:-0.631066 2:-0.688702 3:-0.760641 4:-0.794308 5:-0.545316 6:-0.740039 7:-0.824275 
1 1:-0.501031 2:-0.566476 3:-0.644622 4:-0.674804 5:-0.431706 6:-0.614431 7:-0.684204 
1 1:-0.619589 2:-0.678261 3:-0.703421 4:-0.742356 5:-0.523984 6:-0.660957 7:-0.750535 
1 1:-0.772244 2:-0.530727 3:-0.593249 4:-0.624894 5:-0.417931 6:-0.586006 7:-0.71847 
1 1:-0.620369 2:-0.677013 3:-0.74119 4:-0.779456 5:-0.52118 6:-0.67602 7:-0.804596 
1 1:-0.772244 2:-0.647608 3:-0.720137 4:-0.75577 5:-0.553727 6:-0.651361 7:-0.747641 
1 1:-0.736141 2:-0.783351 3:-0.825847 4:-0.87142 5:-0.507162 6:-0.695821 7:-0.87602 
1 1:-0.66572 2:-0.708892 3:-0.792906 4:-0.821148 5:-0.574328 6:-0.761297 7:-0.840366 
1 1:-0.591621 2:-0.629575 3:-0.659039 4:-0.6771 5:-0.58664 6:-0.647595 7:-0.716617 
1 1:-0.627277 2:-0.674289 3:-0.745995 4:-0.770151 5:-0.615774 6:-0.742711 7:-0.829137 
1 1:-0.594741 2:-0.652046 3:-0.713272 4:-0.750211 5:-0.507893 6:-0.673712 7:-0.778897 
1 1:-0.477631 2:-0.538671 3:-0.613158 4:-0.632266 5:-0.443165 6:-0.605321 7:-0.72229 
1 1:-0.553624 2:-0.617545 3:-0.706293 4:-0.745982 5:-0.530444 6:-0.72715 7:-0.813625 
1 1:-0.687002 2:-0.730239 3:-0.789245 4:-0.825257 5:-0.460096 6:-0.725705 7:-0.860855 
1 1:-0.480082 2:-0.541735 3:-0.62357 4:-0.649293 5:-0.488877 6:-0.77138 7:-0.82277 
1 1:-0.550281 2:-0.608693 3:-0.680206 4:-0.705015 5:-0.514232 6:-0.661079 7:-0.813857 
1 1:-0.586161 2:-0.638654 3:-0.706865 4:-0.736798 5:-0.561772 6:-0.678814 7:-0.773572 
1 1:-0.468929 2:-0.531635 3:-0.599542 4:-0.631782 5:-0.420979 6:-0.723275 7:-0.797997 
1 1:-0.665051 2:-0.719685 3:-0.776659 4:-0.814502 5:-0.61492 6:-0.750486 7:-0.827632 
1 1:-0.638309 2:-0.697543 3:-0.747025 4:-0.788278 5:-0.53337 6:-0.683188 7:-0.811889 
1 1:-0.590284 2:-0.64308 3:-0.720023 4:-0.737039 5:-0.623575 6:-0.633613 7:-0.749031 
1 1:-0.703828 2:-0.758724 3:-0.836957 4:-0.866586 5:-0.825928 6:-0.778426 7:-0.80147 
1 1:-0.735138 2:-0.781762 3:-0.836156 4:-0.84858 5:-0.697812 6:-0.607993 7:-0.71546 
1 1:-0.517856 2:-0.58645 3:-0.644165 4:-0.683746 5:-0.534345 6:-0.760811 7:-0.832378 
1 1:-0.672405 2:-0.712296 3:-0.767735 4:-0.786224 5:-0.587859 6:-0.739917 7:-0.823233 
1 1:-0.579241 2:-0.634115 3:-0.699085 4:-0.720725 5:-0.54239 6:-0.641642 7:-0.769173 
1 1:-0.469163 2:-0.530273 3:-0.602174 4:-0.633595 5:-0.47242 6:-0.744048 7:-0.803785 
1 1:-0.697142 2:-0.739545 3:-0.797025 4:-0.802779 5:-0.735235 6:-0.655612 7:-0.771257 
1 1:-0.699036 2:-0.750326 3:-0.810412 4:-0.85426 5:-0.529591 6:-0.753766 7:-0.891069 
1 1:-0.710959 2:-0.766328 3:-0.832838 4:-0.875891 5:-0.640507 6:-0.814869 7:-0.930312 
1 1:-0.772244 2:-0.588152 3:-0.655149 4:-0.69281 5:-0.541171 6:-0.631803 7:-0.753429 
1 1:-0.772244 2:-0.603359 3:-0.658467 4:-0.676012 5:-0.433169 6:-0.574708 7:-0.708746 
1 1:-0.506825 2:-0.566135 3:-0.637643 4:-0.674079 5:-0.483391 6:-0.727648 7:-0.809689 
1 1:-0.631512 2:-0.676559 3:-0.746568 4:-0.742356 5:-0.652709 6:-0.595967 7:-0.711524 
1 1:-0.533679 2:-0.591999 3:-0.660297 4:-0.6829 5:-0.478271 6:-0.605199 7:-0.692771 
1 1:-0.570561 2:-0.612211 3:-0.663272 4:-0.651601 5:-0.52057 6:-0.524538 7:-0.630723 
1 1:-0.61346 2:-0.666913 3:-0.722426 4:-0.747795 5:-0.531054 6:-0.634828 7:-0.786884 
1 1:-0.772244 2:-0.606764 3:-0.669794 4:-0.702719 5:-0.534467 6:-0.620505 7:-0.736297 
1 1:-0.772244 2:-0.765636 3:-0.838558 4:-0.887251 5:-0.60785 6:-0.808916 7:-0.935753 
1 1:-0.772244 2:-0.546615 3:-0.627689 4:-0.667553 5:-0.467301 6:-0.600219 7:-0.723795 
1 1:-0.441306 2:-0.504613 3:-0.56167 4:-0.584048 5:-0.386969 6:-0.474611 7:-0.644962 
1 1:-0.772244 2:-0.590989 3:-0.65389 4:-0.700785 5:-0.429634 6:-0.672485 7:-0.790241 
1 1:-0.772244 2:-0.622198 3:-0.711442 4:-0.744761 5:-0.648687 6:-0.757775 7:-0.842334 
1 1:-0.515182 2:-0.589741 3:-0.628604 4:-0.663927 5:-0.502895 6:-0.672485 7:-0.796029 
1 1:-0.573458 2:-0.619475 3:-0.685812 4:-0.70006 5:-0.500323 6:-0.695578 7:-0.783411 
1 1:-0.772244 2:-0.649878 3:-0.717849 4:-0.769909 5:-0.494484 6:-0.710155 7:-0.862823 
1 1:-0.772244 2:-0.621177 3:-0.68397 4:-0.722175 5:-0.509478 6:-0.66776 7:-0.805406 
1 1:-0.481865 2:-0.530159 3:-0.591293 4:-0.608822 5:-0.394405 6:-0.566448 7:-0.664294 
1 1:-0.491114 2:-0.558872 3:-0.636842 4:-0.662115 5:-0.558603 6:-0.759475 7:-0.817098 
1 1:-0.611555 2:-0.650797 3:-0.713844 4:-0.731118 5:-0.498751 6:-0.694363 7:-0.784801 
1 1:-0.548053 2:-0.599501 3:-0.648284 4:-0.656435 5:-0.517389 6:-0.559402 7:-0.666493 
1 1:-0.630732 2:-0.688589 3:-0.735469 4:-0.776918 5:-0.506418 6:-0.695943 7:-0.832378 
1 1:-0.772244 2:-0.750667 3:-0.81762 4:-0.873837 5:-0.480709 6:-0.75656 7:-0.904497 
1 1:-0.609115 2:-0.668728 3:-0.696682 4:-0.739577 5:-0.496191 6:-0.673712 7:-0.779013 
1 1:-0.525767 2:-0.609147 3:-0.626773 4:-0.67432 5:-0.432072 6:-0.620019 7:-0.743821 
1 1:-0.563653 2:-0.620382 3:-0.696796 4:-0.7229 5:-0.535198 6:-0.694485 7:-0.824159 
1 1:-0.522313 2:-0.57249 3:-0.616018 4:-0.622719 5:-0.509356 6:-0.593173 7:-0.663599 
1 1:-0.772244 2:-0.554332 3:-0.639359 4:-0.676737 5:-0.473396 6:-0.735787 7:-0.831105 
1 1:-0.555842 2:-0.617545 3:-0.695995 4:-0.729305 5:-0.544828 6:-0.756438 7:-0.846154 
1 1:-0.528107 2:-0.589741 3:-0.640503 4:-0.668399 5:-0.453526 6:-0.548348 7:-0.698096 
1 1:-0.560867 2:-0.628327 3:-0.694268 4:-0.726163 5:-0.625282 6:-0.72449 7:-0.788158 
1 1:-0.45178 2:-0.507462 3:-0.560984 4:-0.581619 5:-0.35625 6:-0.494048 7:-0.649013 
1 1:-0.598975 2:-0.653975 3:-0.701373 4:-0.726284 5:-0.508259 6:-0.627551 7:-0.780054 
1 1:-0.600412 2:-0.659876 3:-0.722082 4:-0.758671 5:-0.519717 6:-0.680758 7:-0.785379 
1 1:-0.56499 2:-0.626851 3:-0.703318 4:-0.743323 5:-0.471689 6:-0.708819 7:-0.839208 
1 1:-0.6548 2:-0.708676 3:-0.771739 4:-0.80145 5:-0.640032 6:-0.741727 7:-0.86074 
1 1:-0.54247 2:-0.603359 3:-0.662243 4:-0.688943 5:-0.424514 6:-0.592566 7:-0.739307 
1 1:-0.626163 2:-0.682801 3:-0.756865 4:-0.792508 5:-0.588103 6:-0.730199 7:-0.821844 
1 1:-0.667268 2:-0.7215 3:-0.795995 4:-0.834199 5:-0.638813 6:-0.785593 7:-0.889564 
1 1:-0.534124 2:-0.589741 3:-0.665789 4:-0.692689 5:-0.55007 6:-0.635083 7:-0.743821 
1 1:-0.717087 2:-0.770754 3:-0.834096 4:-0.87855 5:-0.632596 6:-0.809767 7:-0.927186 
1 1:-0.438743 2:-0.485332 3:-0.606178 4:-0.612689 5:-0.462425 6:-0.641764 7:-0.755397 
1 1:-0.46894 2:-0.537309 3:-0.594508 4:-0.619094 5:-0.467057 6:-0.577502 7:-0.650402 
1 1:-0.466266 2:-0.537196 3:-0.600686 4:-0.629607 5:-0.499726 6:-0.754616 7:-0.816056 
1 1:-0.649451 2:-0.711286 3:-0.787414 4:-0.83142 5:-0.619187 6:-0.778061 7:-0.909475 
1 1:-0.568667 2:-0.612665 3:-0.681465 4:-0.698852 5:-0.543975 6:-0.636662 7:-0.7444 
1 1:-0.535907 2:-0.595983 3:-0.671396 4:-0.701511 5:-0.541537 6:-0.672983 7:-0.787926 
1 1:-0.617917 2:-0.677807 3:-0.75389 4:-0.799033 5:-0.543122 6:-0.71137 7:-0.868148 
1 1:-0.772244 2:-0.635249 3:-0.710297 4:-0.759879 5:-0.538977 6:-0.73105 7:-0.808763 
1 1:-0.772244 2:-0.571583 3:-0.65778 4:-0.6829 5:-0.691839 6:-0.390671 7:-0.613475 
1 1:-0.444314 2:-0.520502 3:-0.595652 4:-0.630332 5:-0.467788 6:-0.732021 7:-0.813278 
1 1:-0.524542 2:-0.577484 3:-0.663158 4:-0.689909 5:-0.514841 6:-0.678814 7:-0.77253 
1 1:-0.542481 2:-0.593145 3:-0.660069 4:-0.666103 5:-0.519595 6:-0.616254 7:-0.719396 
1 1:-0.586049 2:-0.644215 3:-0.736499 4:-0.769063 5:-0.611873 6:-0.751944 7:-0.846038 
1 1:-0.556521 2:-0.619021 3:-0.692105 4:-0.73136 5:-0.666728 6:-0.813047 7:-0.887249 
1 1:-0.588166 2:-0.661227 3:-0.702517 4:-0.750816 5:-0.546047 6:-0.711006 7:-0.827285 
1 1:-0.772244 2:-0.620609 3:-0.696453 4:-0.73148 5:-0.533979 6:-0.766521 7:-0.872316 
1 1:-0.544699 2:-0.610055 3:-0.662586 4:-0.691601 5:-0.56287 6:-0.615039 7:-0.729235 
1 1:-0.47128 2:-0.535493 3:-0.618535 4:-0.646767 5:-0.488755 6:-0.67602 7:-0.790473 
1 1:-0.626052 2:-0.67758 3:-0.737757 4:-0.771843 5:-0.596623 6:-0.724611 7:-0.817329 
1 1:-0.578695 2:-0.633547 3:-0.722654 4:-0.752145 5:-0.573231 6:-0.744169 7:-0.813857 
1 1:-0.570004 2:-0.638427 3:-0.709153 4:-0.755408 5:-0.594198 6:-0.74016 7:-0.848701 
1 1:-0.585927 2:-0.644782 3:-0.700801 4:-0.738489 5:-0.561651 6:-0.701652 7:-0.777971 
1 1:-0.568778 2:-0.620382 3:-0.68627 4:-0.695106 5:-0.498872 6:-0.622085 7:-0.75505 
1 1:-0.772244 2:-0.655564 3:-0.725629 4:-0.760604 5:-0.602731 6:-0.779276 7:-0.880766 
1 1:-0.772244 2:-0.624911 3:-0.704005 4:-0.739094 5:-0.60139 6:-0.705296 7:-0.771025 
1 1:-0.600201 2:-0.666799 3:-0.733181 4:-0.775952 5:-0.524703 6:-0.750607 7:-0.852173 
1 1:-0.626609 2:-0.671112 3:-0.669096 4:-0.689909 5:-0.510087 6:-0.569363 7:-0.649708 
1 1:-0.611566 2:-0.669069 3:-0.735698 4:-0.769063 5:-0.613701 6:-0.686467 7:-0.783527 
1 1:-0.483982 2:-0.544334 3:-0.613043 4:-0.631057 5:-0.551045 6:-0.702259 7:-0.789431 
1 1:-0.483314 2:-0.551836 3:-0.643822 4:-0.672254 5:-0.533126 6:-0.759961 7:-0.841986 
1 1:-0.457909 2:-0.519492 3:-0.585584 4:-0.603505 5:-0.420857 6:-0.511054 7:-0.674249 
1 1:-0.772244 2:-0.473972 3:-0.552403 4:-0.574743 5:-0.454867 6:-0.683309 7:-0.784106 
1 1:-0.433283 2:-0.502128 3:-0.577803 4:-0.602779 5:-0.428293 6:-0.581511 7:-0.701106 
1 1:-0.484317 2:-0.552176 3:-0.632723 4:-0.665003 5:-0.531907 6:-0.756438 7:-0.833073 
1 1:-0.452003 2:-0.515633 3:-0.615332 4:-0.633353 5:-0.493996 6:-0.615403 7:-0.727036 
1 1:-0.559975 2:-0.632866 3:-0.679176 4:-0.724109 5:-0.474371 6:-0.639942 7:-0.761648 
1 1:-0.53691 2:-0.572604 3:-0.713158 4:-0.725196 5:-0.483513 6:-0.659123 7:-0.767205 
1 1:-0.569224 2:-0.611757 3:-0.694394 4:-0.710574 5:-0.511916 6:-0.697279 7:-0.800197 
1 1:-0.772244 2:-0.561369 3:-0.632037 4:-0.657752 5:-0.4005 6:-0.592201 7:-0.711408 
1 1:-0.633963 2:-0.682574 3:-0.736613 4:-0.761934 5:-0.495459 6:-0.643222 7:-0.783527 
1 1:-0.461251 2:-0.539806 3:-0.572998 4:-0.599517 5:-0.343085 6:-0.51482 7:-0.667766 
1 1:-0.472271 2:-0.563071 3:-0.59222 4:-0.641692 5:-0.468398 6:-0.64638 7:-0.80367 
1 1:-0.560978 2:-0.610736 3:-0.664188 4:-0.662356 5:-0.449991 6:-0.470481 7:-0.587081 
1 1:-0.476183 2:-0.543438 3:-0.629634 4:-0.654139 5:-0.418907 6:-0.603256 7:-0.712797 
1 1:-0.652905 2:-0.70879 3:-0.790503 4:-0.830816 5:-0.612239 6:-0.765671 7:-0.888291 
1 1:-0.772244 2:-0.674857 3:-0.739931 4:-0.778369 5:-0.511428 6:-0.702259 7:-0.791399 
1 1:-0.491225 2:-0.53765 3:-0.595309 4:-0.591782 5:-0.428293 6:-0.528912 7:-0.657811 
1 1:-0.584267 2:-0.597571 3:-0.714874 4:-0.712749 5:-0.512159 6:-0.773567 7:-0.882734 
1 1:-0.539362 2:-0.598808 3:-0.679634 4:-0.709366 5:-0.547388 6:-0.793124 7:-0.861203 
1 1:-0.772244 2:-0.710946 3:-0.778604 4:-0.81861 5:-0.588956 6:-0.782677 7:-0.899288 
1 1:-0.508162 2:-0.570561 3:-0.643924 4:-0.676616 5:-0.41269 6:-0.599854 7:-0.767784 
1 1:-0.772244 2:-0.570436 3:-0.632838 4:-0.645076 5:-0.479856 6:-0.528304 7:-0.62424 
1 1:-0.559084 2:-0.620382 3:-0.689016 4:-0.710816 5:-0.48461 6:-0.573858 7:-0.684089 
1 1:-0.467814 2:-0.525847 3:-0.608696 4:-0.629849 5:-0.516792 6:-0.714043 7:-0.773572 
1 1:-0.451891 2:-0.507008 3:-0.578719 4:-0.58887 5:-0.396721 6:-0.474125 7:-0.643572 
1 1:-0.584824 2:-0.639562 3:-0.7246 4:-0.756133 5:-0.524227 6:-0.688533 7:-0.781675 
1 1:-0.522202 2:-0.577246 3:-0.629291 4:-0.645196 5:-0.425977 6:-0.57896 7:-0.67286 
1 1:-0.467491 2:-0.548545 3:-0.608009 4:-0.642054 5:-0.474249 6:-0.636054 7:-0.708398 
1 1:-0.4979 2:-0.566022 3:-0.637643 4:-0.673353 5:-0.513135 6:-0.6957 7:-0.815825 
1 1:-0.772244 2:-0.543097 3:-0.613959 4:-0.643251 5:-0.434144 6:-0.588314 7:-0.696938 
1 1:-0.772244 2:-0.665664 3:-0.72357 4:-0.761571 5:-0.507893 6:-0.659257 7:-0.805638 
1 1:-0.667268 2:-0.688702 3:-0.715789 4:-0.729063 5:-0.62065 6:-0.632289 7:-0.7466 
1 1:-0.486322 2:-0.556602 3:-0.62746 4:-0.658973 5:-0.497166 6:-0.635933 7:-0.73074 
1 1:-0.579252 2:-0.636271 3:-0.703318 4:-0.736556 5:-0.519839 6:-0.677235 7:-0.74822 
1 1:-0.55251 2:-0.613573 3:-0.703089 4:-0.734502 5:-0.534955 6:-0.721939 7:-0.811194 
1 1:-0.772244 2:-0.652046 3:-0.721396 4:-0.7629 5:-0.584446 6:-0.725935 7:-0.824854 
1 1:-0.772244 2:-0.513477 3:-0.581922 4:-0.600604 5:-0.457305 6:-0.595967 7:-0.694391 
1 1:-0.596858 2:-0.653294 3:-0.71167 4:-0.745619 5:-0.508502 6:-0.640428 7:-0.771372 
1 1:-0.420135 2:-0.495205 3:-0.581007 4:-0.615106 5:-0.481685 6:-0.727405 7:-0.813857 
1 1:-0.578584 2:-0.608693 3:-0.606407 4:-0.566526 5:-0.352959 6:-0.440233 7:-0.559067 
1 1:-0.70795 2:-0.756682 3:-0.808238 4:-0.819577 5:-0.649296 6:-0.704932 7:-0.829947 
1 1:-0.772244 2:-0.671441 3:-0.72849 4:-0.731239 5:-0.585543 6:-0.700437 7:-0.81432 
1 1:-0.635746 2:-0.688475 3:-0.728833 4:-0.757583 5:-0.529591 6:-0.643586 7:-0.784916 
1 1:-0.502479 2:-0.56466 3:-0.639359 4:-0.666465 5:-0.493753 6:-0.636662 7:-0.764195 
1 1:-0.505822 2:-0.571571 3:-0.648398 4:-0.676012 5:-0.503992 6:-0.671526 7:-0.807605 
1 1:-0.772244 2:-0.558531 3:-0.633627 4:-0.662598 5:-0.477296 6:-0.618683 7:-0.738265 
1 1:-0.772244 2:-0.615502 3:-0.681465 4:-0.715891 5:-0.474736 6:-0.612852 7:-0.726573 
1 1:-0.533233 2:-0.593826 3:-0.677803 4:-0.709607 5:-0.490339 6:-0.774052 7:-0.848585 
1 1:-0.562538 2:-0.615162 3:-0.673684 4:-0.706949 5:-0.415737 6:-0.588666 7:-0.742779 
1 1:-0.535785 2:-0.604381 3:-0.679405 4:-0.71432 5:-0.538002 6:-0.81827 7:-0.888522 
1 1:-0.549836 2:-0.585428 3:-0.64714 4:-0.661631 5:-0.467666 6:-0.661443 7:-0.760491 
1 1:-0.772244 2:-0.510299 3:-0.583066 4:-0.603384 5:-0.398793 6:-0.533771 7:-0.676564 
1 1:-0.501476 2:-0.567951 3:-0.621739 4:-0.652326 5:-0.492046 6:-0.586978 7:-0.670429 
1 1:-0.494679 2:-0.554332 3:-0.625629 4:-0.648338 5:-0.442067 6:-0.634961 7:-0.737802 
1 1:-0.684216 2:-0.718777 3:-0.743249 4:-0.705015 5:-0.59883 6:-0.549441 7:-0.635006 
1 1:-0.498691 2:-0.529479 3:-0.637185 4:-0.65861 5:-0.471811 6:-0.625243 7:-0.688603 
1 1:-0.772244 2:-0.605742 3:-0.679062 4:-0.720592 5:-0.536661 6:-0.755224 7:-0.862245 
1 1:-0.534124 2:-0.604608 3:-0.670481 4:-0.713233 5:-0.541659 6:-0.791424 7:-0.868148 
1 1:-0.582038 2:-0.641945 3:-0.703661 4:-0.733656 5:-0.497897 6:-0.666059 7:-0.766973 
1 1:-0.586829 2:-0.642626 3:-0.711442 4:-0.73136 5:-0.479247 6:-0.655369 7:-0.757134 
1 1:-0.731573 2:-0.772797 3:-0.821625 4:-0.829366 5:-0.710611 6:-0.712342 7:-0.795682 
1 1:-0.724441 2:-0.76542 3:-0.807323 4:-0.805559 5:-0.706223 6:-0.628644 7:-0.719627 
1 1:-0.594518 2:-0.651705 3:-0.722426 4:-0.756858 5:-0.561894 6:-0.702624 7:-0.786421 
1 1:-0.462243 2:-0.531408 3:-0.604805 4:-0.632628 5:-0.478393 6:-0.813654 7:-0.861782 
1 1:-0.772244 2:-0.564773 3:-0.662128 4:-0.697631 5:-0.464984 6:-0.750486 7:-0.845344 
1 1:-0.772244 2:-0.560234 3:-0.650229 4:-0.68568 5:-0.369781 6:-0.71137 7:-0.828211 
1 1:-0.772244 2:-0.591897 3:-0.683982 4:-0.713233 5:-0.516914 6:-0.787536 7:-0.862708 
1 1:-0.531339 2:-0.593259 3:-0.63135 4:-0.668882 5:-0.394161 6:-0.618805 7:-0.738033 
1 1:-0.772244 2:-0.528117 3:-0.589931 4:-0.624894 5:-0.428537 6:-0.578839 7:-0.697285 
1 1:-0.555853 2:-0.622539 3:-0.701831 4:-0.742115 5:-0.566283 6:-0.73518 7:-0.848585 
1 1:-0.772244 2:-0.450377 3:-0.559153 4:-0.582719 5:-0.401109 6:-0.746113 7:-0.812004 
1 1:-0.402975 2:-0.480225 3:-0.549085 4:-0.581752 5:-0.422308 6:-0.754981 7:-0.813394 
1 1:-0.515739 2:-0.587357 3:-0.619794 4:-0.657523 5:-0.463156 6:-0.648688 7:-0.744632 
1 1:-0.772244 2:-0.535266 3:-0.596682 4:-0.608338 5:-0.467422 6:-0.576288 7:-0.699716 
1 1:-0.500028 2:-0.560801 3:-0.640389 4:-0.669366 5:-0.554702 6:-0.755831 7:-0.824507 
1 1:-0.462254 2:-0.514827 3:-0.617735 4:-0.621631 5:-0.475955 6:-0.683552 7:-0.790126 
1 1:-0.772244 2:-0.650003 3:-0.737986 4:-0.784169 5:-0.581886 6:-0.767979 7:-0.882619 
1 1:-0.446654 2:-0.514839 3:-0.576316 4:-0.609063 5:-0.485585 6:-0.689504 7:-0.787579 
1 1:-0.772244 2:-0.489531 3:-0.591533 4:-0.622707 5:-0.421223 6:-0.756317 7:-0.842334 
1 1:-0.659702 2:-0.713443 3:-0.730881 4:-0.764713 5:-0.541781 6:-0.685253 7:-0.789547 
1 1:-0.559753 2:-0.613346 3:-0.693135 4:-0.721934 5:-0.523374 6:-0.749757 7:-0.835272 
1 1:-0.725221 2:-0.771549 3:-0.827803 4:-0.840242 5:-0.780947 6:-0.74757 7:-0.82277 
1 1:-0.760878 2:-0.782557 3:-0.830092 4:-0.834079 5:-0.645151 6:-0.726798 7:-0.81976 
1 1:-0.663602 2:-0.724564 3:-0.780664 4:-0.823565 5:-0.690498 6:-0.816691 7:-0.889564 
1 1:-0.468605 2:-0.532997 3:-0.612014 4:-0.639625 5:-0.543 6:-0.739189 7:-0.8083 
1 1:-0.449997 2:-0.514839 3:-0.570824 4:-0.59432 5:-0.42744 6:-0.578839 7:-0.683626 
1 1:-0.772244 2:-0.480679 3:-0.565217 4:-0.592508 5:-0.439264 6:-0.633613 7:-0.765469 
1 1:-0.467491 2:-0.528446 3:-0.587529 4:-0.592145 5:-0.391967 6:-0.542274 7:-0.665798 
1 1:-0.52443 2:-0.589741 3:-0.636384 4:-0.663082 5:-0.479734 6:-0.63484 7:-0.751114 
1 1:-0.772244 2:-0.69188 3:-0.775503 4:-0.812085 5:-0.82093 6:-0.850583 7:-0.90114 
1 1:-0.530447 2:-0.565897 3:-0.60389 4:-0.587553 5:-0.425123 6:-0.47777 7:-0.58685 
1 1:-0.4511 2:-0.528117 3:-0.589245 4:-0.626586 5:-0.492534 6:-0.724611 7:-0.799965 
1 1:-0.772244 2:-0.618226 3:-0.680664 4:-0.713233 5:-0.464009 6:-0.59536 7:-0.736644 
1 1:-0.74861 2:-0.789139 3:-0.777002 4:-0.820423 5:-0.561041 6:-0.660107 7:-0.780054 
1 1:-0.578807 2:-0.628315 3:-0.692792 4:-0.716012 5:-0.558969 6:-0.646987 7:-0.776003 
1 1:-0.461028 2:-0.52789 3:-0.602735 4:-0.623323 5:-0.420247 6:-0.594995 7:-0.704694 
1 1:-0.436615 2:-0.490893 3:-0.547254 4:-0.577523 5:-0.351009 6:-0.531341 7:-0.667998 
1 1:-0.456349 2:-0.522669 3:-0.595881 4:-0.619335 5:-0.432059 6:-0.629738 7:-0.716386 
1 1:-0.53145 2:-0.601657 3:-0.651487 4:-0.685547 5:-0.572865 6:-0.674441 7:-0.794988 
1 1:-0.772244 2:-0.618226 3:-0.693249 4:-0.730514 5:-0.507283 6:-0.669825 7:-0.790589 
1 1:-0.708507 2:-0.731714 3:-0.769336 4:-0.770876 5:-0.568587 6:-0.651968 7:-0.767205 
1 1:-0.633963 2:-0.690518 3:-0.758581 4:-0.796616 5:-0.569818 6:-0.709548 7:-0.805985 
1 1:-0.549279 2:-0.60177 3:-0.672082 4:-0.701027 5:-0.536417 6:-0.691327 7:-0.811889 
1 1:-0.554181 2:-0.60892 3:-0.663387 4:-0.697281 5:-0.568233 6:-0.677345 7:-0.787347 
1 1:-0.418798 2:-0.473075 3:-0.520938 4:-0.540544 5:-0.360639 6:-0.612962 7:-0.762343 
1 1:-0.520865 2:-0.561596 3:-0.606751 4:-0.608205 5:-0.480831 6:-0.625364 7:-0.736181 
1 1:-0.420023 2:-0.489871 3:-0.567849 4:-0.593353 5:-0.447797 6:-0.786686 7:-0.841639 
1 1:-0.493231 2:-0.561142 3:-0.617849 4:-0.656544 5:-0.432072 6:-0.626579 7:-0.704347 
1 1:-0.466377 2:-0.529138 3:-0.591304 4:-0.611722 5:-0.477162 6:-0.616497 7:-0.741969 
1 1:-0.61502 2:-0.661238 3:-0.726888 4:-0.75287 5:-0.613945 6:-0.740039 7:-0.838282 
1 1:-0.466266 2:-0.528344 3:-0.58524 4:-0.599396 5:-0.405498 6:-0.532191 7:-0.649592 
1 1:-0.772244 2:-0.487601 3:-0.571167 4:-0.591057 5:-0.393186 6:-0.572765 7:-0.667651 
1 1:-0.772244 2:-0.688475 3:-0.741419 4:-0.785861 5:-0.49936 6:-0.684767 7:-0.797419 
1 1:-0.619032 2:-0.678034 3:-0.730892 4:-0.77003 5:-0.493631 6:-0.693392 7:-0.799039 
1 1:-0.641428 2:-0.699711 3:-0.735458 4:-0.771722 5:-0.515085 6:-0.697886 7:-0.784569 
1 1:-0.772244 2:-0.538898 3:-0.606064 4:-0.629728 5:-0.411471 6:-0.583333 7:-0.653065 
1 1:-0.550281 2:-0.619248 3:-0.656522 4:-0.696193 5:-0.502651 6:-0.591351 7:-0.712219 
1 1:-0.545713 2:-0.587357 3:-0.639016 4:-0.643988 5:-0.508624 6:-0.573494 7:-0.671934 
1 1:-0.423143 2:-0.485332 3:-0.578032 4:-0.58887 5:-0.352959 6:-0.511662 7:-0.667303 
1 1:-0.550504 2:-0.597344 3:-0.659725 4:-0.679505 5:-0.514963 6:-0.635083 7:-0.744169 
1 1:-0.513511 2:-0.581797 3:-0.590275 4:-0.628749 5:-0.383921 6:-0.543732 7:-0.626671 
1 1:-0.772244 2:-0.547977 3:-0.62333 4:-0.650514 5:-0.445237 6:-0.63484 7:-0.761185 
1 1:-0.772244 2:-0.519378 3:-0.593581 4:-0.618248 5:-0.468398 6:-0.617711 7:-0.721132 
1 1:-0.556076 2:-0.610849 3:-0.673112 4:-0.706091 5:-0.34406 6:-0.588314 7:-0.756902 
1 1:-0.524653 2:-0.572377 3:-0.627803 4:-0.644713 5:-0.384519 6:-0.577259 7:-0.717659 
1 1:-0.481865 2:-0.537082 3:-0.648055 4:-0.661631 5:-0.433534 6:-0.658892 7:-0.746021 
1 1:-0.557524 2:-0.605516 3:-0.654005 4:-0.657764 5:-0.48461 6:-0.54519 7:-0.688256 
1 1:-0.477843 2:-0.539806 3:-0.586728 4:-0.593716 5:-0.41525 6:-0.558431 7:-0.699022 
1 1:-0.439857 2:-0.487715 3:-0.537414 4:-0.546586 5:-0.340403 6:-0.437561 7:-0.609886 
1 1:-0.466377 2:-0.519605 3:-0.591304 4:-0.604471 5:-0.415006 6:-0.565112 7:-0.709209 
1 1:-0.562427 2:-0.643648 3:-0.610297 4:-0.657764 5:-0.400366 6:-0.569971 7:-0.686635 
1 1:-0.57669 2:-0.632526 3:-0.722769 4:-0.752991 5:-0.572134 6:-0.742711 7:-0.839208 
1 1:-0.489554 2:-0.550701 3:-0.606865 4:-0.62997 5:-0.430365 6:-0.641035 7:-0.718354 
1 1:-0.599421 2:-0.644204 3:-0.74897 4:-0.770393 5:-0.616139 6:-0.850826 7:-0.906002 
1 1:-0.491337 2:-0.530273 3:-0.622769 4:-0.626344 5:-0.364418 6:-0.549563 7:-0.714534 
1 1:-0.512062 2:-0.566816 3:-0.624485 4:-0.648338 5:-0.520814 6:-0.615889 7:-0.717775 
1 1:-0.416558 2:-0.470238 3:-0.543021 4:-0.556375 5:-0.396233 6:-0.613946 7:-0.748799 
1 1:-0.48454 2:-0.539125 3:-0.603547 4:-0.632375 5:-0.348327 6:-0.507653 7:-0.668924 
1 1:-0.474623 2:-0.541054 3:-0.586957 4:-0.613051 5:-0.477784 6:-0.637877 7:-0.758754 
1 1:-0.502479 2:-0.54548 3:-0.595309 4:-0.592495 5:-0.41013 6:-0.497813 7:-0.614748 
1 1:-0.515739 2:-0.570561 3:-0.647025 4:-0.669366 5:-0.470592 6:-0.620141 7:-0.727962 
1 1:-0.553613 2:-0.607104 3:-0.652517 4:-0.671782 5:-0.484245 6:-0.616011 7:-0.72912 
1 1:-0.550504 2:-0.610396 3:-0.693249 4:-0.715408 5:-0.459499 6:-0.662536 7:-0.769752 
1 1:-0.772244 2:-0.455257 3:-0.54119 4:-0.561076 5:-0.270677 6:-0.552357 7:-0.682815 
1 1:-0.772244 2:-0.616637 3:-0.694279 4:-0.720592 5:-0.497044 6:-0.630466 7:-0.727615 
1 1:-0.478957 2:-0.536515 3:-0.646568 4:-0.665982 5:-0.445481 6:-0.662536 7:-0.75505 
1 1:-0.772244 2:-0.556375 3:-0.609382 4:-0.640604 5:-0.362223 6:-0.53122 7:-0.658853 
1 1:-0.468605 2:-0.529138 3:-0.606865 4:-0.628278 5:-0.435485 6:-0.62268 7:-0.726341 
1 1:-0.772244 2:-0.603348 3:-0.665561 4:-0.69716 5:-0.4467 6:-0.624271 7:-0.730625 
1 1:-0.772244 2:-0.582591 3:-0.651945 4:-0.685559 5:-0.327238 6:-0.569363 7:-0.687446 
1 1:-0.772244 2:-0.56988 3:-0.622883 4:-0.665015 5:-0.454001 6:-0.648324 7:-0.735255 
1 1:-0.516853 2:-0.580662 3:-0.630206 4:-0.657885 5:-0.496069 6:-0.640428 7:-0.73676 
1 1:-0.772244 2:-0.579413 3:-0.661087 4:-0.687734 5:-0.432437 6:-0.644072 7:-0.745673 
1 1:-0.460694 2:-0.520513 3:-0.581236 4:-0.604834 5:-0.439373 6:-0.516399 7:-0.65839 
1 1:-0.663714 2:-0.721046 3:-0.769908 4:-0.81003 5:-0.656366 6:-0.759718 7:-0.851132 
1 1:-0.772244 2:-0.586109 3:-0.666362 4:-0.703674 5:-0.466813 6:-0.710155 7:-0.825664 
1 1:-0.498914 2:-0.551041 3:-0.630892 4:-0.649547 5:-0.456452 6:-0.616618 7:-0.719048 
1 1:-0.583932 2:-0.641934 3:-0.662357 4:-0.69426 5:-0.466569 6:-0.634961 7:-0.755397 
1 1:-0.594406 2:-0.649889 3:-0.732494 4:-0.738731 5:-0.680015 6:-0.658406 7:-0.721364 
1 1:-0.772244 2:-0.573841 3:-0.638787 4:-0.684471 5:-0.419394 6:-0.642371 7:-0.76651 
1 1:-0.772244 2:-0.628213 3:-0.696339 4:-0.744761 5:-0.561894 6:-0.699951 7:-0.780517 
1 1:-0.547161 2:-0.594053 3:-0.662231 4:-0.675045 5:-0.581764 6:-0.638727 7:-0.750304 
1 1:-0.626609 2:-0.683709 3:-0.746453 4:-0.788157 5:-0.448528 6:-0.698008 7:-0.820339 
1 1:-0.772244 2:-0.563071 3:-0.634325 4:-0.679033 5:-0.484488 6:-0.77794 7:-0.852752 
1 1:-0.489219 2:-0.534812 3:-0.607895 4:-0.593958 5:-0.488023 6:-0.504252 7:-0.639058 
1 1:-0.476963 2:-0.544345 3:-0.583524 4:-0.609547 5:-0.385738 6:-0.530369 7:-0.708167 
1 1:-0.772244 2:-0.619475 3:-0.699771 4:-0.736073 5:-0.56738 6:-0.719752 7:-0.810615 
1 1:-0.522425 2:-0.588833 3:-0.64222 4:-0.66997 5:-0.537027 6:-0.772959 7:-0.831915 
1 1:-0.48142 2:-0.54548 3:-0.592906 4:-0.614502 5:-0.4339 6:-0.517614 7:-0.663599 
1 1:-0.483537 2:-0.551041 3:-0.608467 4:-0.643263 5:-0.369415 6:-0.733722 7:-0.816403 
1 1:-0.413226 2:-0.485559 3:-0.534554 4:-0.566767 5:-0.345511 6:-0.499514 7:-0.626556 
1 1:-0.772244 2:-0.496794 3:-0.563833 4:-0.596495 5:-0.416225 6:-0.577138 7:-0.696359 
1 1:-0.563207 2:-0.619248 3:-0.662128 4:-0.69003 5:-0.443896 6:-0.599368 7:-0.734097 
1 1:-0.772244 2:-0.586336 3:-0.661556 4:-0.687976 5:-0.454135 6:-0.597789 7:-0.718122 
1 1:-0.772244 2:-0.49861 3:-0.54095 4:-0.55577 5:-0.353934 6:-0.482507 7:-0.60896 
1 1:-0.42838 2:-0.494978 3:-0.554119 4:-0.577523 5:-0.369891 6:-0.616497 7:-0.716849 
1 1:-0.772244 2:-0.597912 3:-0.65595 4:-0.681934 5:-0.404766 6:-0.56923 7:-0.675638 
1 1:-0.577024 2:-0.630142 3:-0.682609 4:-0.695952 5:-0.480709 6:-0.485301 7:-0.632228 
1 1:-0.564544 2:-0.626046 3:-0.659039 4:-0.695468 5:-0.436338 6:-0.615525 7:-0.719859 
1 1:-0.583709 2:-0.636384 3:-0.700572 4:-0.720121 5:-0.579558 6:-0.657556 7:-0.741853 
1 1:-0.553513 2:-0.605402 3:-0.651487 4:-0.645921 5:-0.433534 6:-0.463192 7:-0.608034 
1 1:-0.549836 2:-0.597117 3:-0.658696 4:-0.676737 5:-0.435241 6:-0.52381 7:-0.704231 
1 1:-0.560299 2:-0.608466 3:-0.652975 4:-0.683021 5:-0.439264 6:-0.632289 7:-0.746484 
1 1:-0.772244 2:-0.568291 3:-0.637071 4:-0.668157 5:-0.432315 6:-0.665452 7:-0.806795 
1 1:-0.772244 2:-0.569426 3:-0.639359 4:-0.670695 5:-0.461937 6:-0.625121 7:-0.742201 
1 1:-0.53457 2:-0.591103 3:-0.641533 4:-0.658973 5:-0.435716 6:-0.559402 7:-0.69497 
1 1:-0.590284 2:-0.642513 3:-0.670938 4:-0.641813 5:-0.511916 6:-0.474611 7:-0.592869 
1 1:-0.673965 2:-0.723316 3:-0.788444 4:-0.793716 5:-0.74389 6:-0.684645 7:-0.739191 
1 1:-0.653685 2:-0.697668 3:-0.750229 4:-0.768701 5:-0.66123 6:-0.725462 7:-0.81513 
1 1:-0.481197 2:-0.541622 3:-0.618078 4:-0.643142 5:-0.534955 6:-0.642116 7:-0.732477 
1 1:-0.497019 2:-0.554105 3:-0.586957 4:-0.600846 5:-0.360029 6:-0.631195 7:-0.729351 
1 1:-0.500808 2:-0.54548 3:-0.584325 4:-0.581148 5:-0.408545 6:-0.470967 7:-0.619841 
1 1:-0.726113 2:-0.763718 3:-0.788101 4:-0.728218 5:-0.657341 6:-0.586127 7:-0.672513 
1 1:-0.602541 2:-0.636952 3:-0.648513 4:-0.594924 5:-0.538977 6:-0.497328 7:-0.63327 
1 1:-0.665942 2:-0.702094 3:-0.70984 4:-0.62864 5:-0.545438 6:-0.470603 7:-0.60294 
1 1:-0.734024 2:-0.771322 3:-0.793021 4:-0.728097 5:-0.651003 6:-0.582847 7:-0.675754 
1 1:-0.772244 2:-0.693696 3:-0.723684 4:-0.697885 5:-0.605778 6:-0.608965 7:-0.731319 
1 1:-0.536799 2:-0.595188 3:-0.596568 4:-0.578006 5:-0.440727 6:-0.487609 7:-0.600046 
1 1:-0.514625 2:-0.557953 3:-0.605149 4:-0.603505 5:-0.438045 6:-0.598882 7:-0.695665 
1 1:-0.450554 2:-0.519151 3:-0.589817 4:-0.602054 5:-0.507649 6:-0.640428 7:-0.745789 
1 1:-0.649451 2:-0.698122 3:-0.751602 4:-0.768822 5:-0.67075 6:-0.67517 7:-0.733866 
1 1:-0.772244 2:-0.590649 3:-0.650572 4:-0.673462 5:-0.486804 6:-0.580782 7:-0.69717 
1 1:-0.581481 2:-0.653067 3:-0.720595 4:-0.749849 5:-0.670506 6:-0.770165 7:-0.843028 
1 1:-0.520308 2:-0.588492 3:-0.626762 4:-0.632991 5:-0.464863 6:-0.49757 7:-0.624356 
1 1:-0.772244 2:-0.548545 3:-0.616476 4:-0.635408 5:-0.517157 6:-0.625 7:-0.706894 
1 1:-0.476729 2:-0.535039 3:-0.600458 4:-0.628761 5:-0.528616 6:-0.745627 7:-0.80448 
1 1:-0.709622 2:-0.745219 3:-0.781236 4:-0.809668 5:-0.737429 6:-0.658163 7:-0.77172 
1 1:-0.741044 2:-0.787096 3:-0.851259 4:-0.865015 5:-0.830438 6:-0.755102 7:-0.806795 
1 1:-0.734024 2:-0.766442 3:-0.796796 4:-0.782598 5:-0.701469 6:-0.622449 7:-0.722174 
1 1:-0.73213 2:-0.764626 3:-0.797597 4:-0.774139 5:-0.717681 6:-0.575923 7:-0.668924 
1 1:-0.69859 2:-0.731714 3:-0.760755 4:-0.725317 5:-0.656122 6:-0.511783 7:-0.601551 
1 1:-0.769681 2:-0.805708 3:-0.841648 4:-0.84435 5:-0.756567 6:-0.735301 7:-0.823002 
1 1:-0.73447 2:-0.779266 3:-0.8373 4:-0.853776 5:-0.794844 6:-0.749028 7:-0.804248 
1 1:-0.71965 2:-0.767463 3:-0.834668 4:-0.853172 5:-0.810447 6:-0.794947 7:-0.860855 
1 1:-0.667837 2:-0.725813 3:-0.805034 4:-0.834199 5:-0.832632 6:-0.782191 7:-0.796955 
1 1:-0.55251 2:-0.619361 3:-0.691979 4:-0.713112 5:-0.548485 6:-0.687196 7:-0.819645 
1 1:-0.772244 2:-0.553084 3:-0.621041 4:-0.654743 5:-0.423051 6:-0.573615 7:-0.715691 
1 1:-0.746727 2:-0.785735 3:-0.830206 4:-0.829486 5:-0.791552 6:-0.697643 7:-0.735255 
1 1:-0.597192 2:-0.652159 3:-0.677574 4:-0.691722 5:-0.583958 6:-0.535471 7:-0.65457 
1 1:-0.729456 2:-0.777677 3:-0.839931 4:-0.850272 5:-0.802158 6:-0.72121 7:-0.770446 
1 1:-0.772244 2:-0.473972 3:-0.553432 4:-0.571964 5:-0.39794 6:-0.545797 7:-0.674249 
1 1:-0.459023 2:-0.522669 3:-0.586499 4:-0.61571 5:-0.411349 6:-0.555758 7:-0.642646 
1 1:-0.772244 2:-0.559099 3:-0.617609 4:-0.65148 5:-0.317365 6:-0.56329 7:-0.740927 
1 1:-0.729679 2:-0.778585 3:-0.848513 4:-0.868157 5:-0.852136 6:-0.816205 7:-0.83261 
1 1:-0.453897 2:-0.516768 3:-0.581007 4:-0.60568 5:-0.403547 6:-0.523931 7:-0.635353 
1 1:-0.437517 2:-0.502014 3:-0.59119 4:-0.621498 5:-0.426586 6:-0.602162 7:-0.729814 
1 1:-0.705722 2:-0.738524 3:-0.762471 4:-0.715891 5:-0.662339 6:-0.582969 7:-0.669503 
1 1:-0.726113 2:-0.756341 3:-0.778719 4:-0.737281 5:-0.694033 6:-0.598639 7:-0.683047 
1 1:-0.715304 2:-0.74556 3:-0.767735 4:-0.71855 5:-0.66685 6:-0.569849 7:-0.658158 
1 1:-0.482422 2:-0.540941 3:-0.611785 4:-0.634924 5:-0.428171 6:-0.612002 7:-0.756323 
1 1:-0.772244 2:-0.58065 3:-0.636499 4:-0.658731 5:-0.448162 6:-0.547376 7:-0.708398 
1 1:-0.585938 2:-0.640697 3:-0.711327 4:-0.741027 5:-0.517401 6:-0.629373 7:-0.757597 
1 1:-0.772244 2:-0.582591 3:-0.664645 4:-0.697644 5:-0.568721 6:-0.741983 7:-0.818371 
1 1:-0.44788 2:-0.501333 3:-0.571968 4:-0.585257 5:-0.332602 6:-0.54361 7:-0.675638 
1 1:-0.734804 2:-0.78006 3:-0.84611 4:-0.865015 5:-0.851283 6:-0.808673 7:-0.827285 
1 1:-0.718647 2:-0.767349 3:-0.843364 4:-0.874079 5:-0.886756 6:-0.88569 7:-0.903571 
1 1:-0.749735 2:-0.78982 3:-0.838101 4:-0.842538 5:-0.812397 6:-0.749636 7:-0.787926 
1 1:-0.73447 2:-0.771889 3:-0.81659 4:-0.813656 5:-0.777046 6:-0.697036 7:-0.736991 
1 1:-0.730459 2:-0.775975 3:-0.837643 4:-0.845196 5:-0.809593 6:-0.784621 7:-0.843144 
1 1:-0.720876 2:-0.772229 3:-0.837185 4:-0.843021 5:-0.788017 6:-0.730807 7:-0.793251 
1 1:-0.725556 2:-0.775975 3:-0.843021 4:-0.860785 5:-0.793259 6:-0.697886 7:-0.767436 
1 1:-0.733801 2:-0.778244 3:-0.839245 4:-0.848459 5:-0.73621 6:-0.698372 7:-0.788736 
1 1:-0.765335 2:-0.811723 3:-0.874485 4:-0.891118 5:-0.858353 6:-0.836856 7:-0.861319 
1 1:-0.722881 2:-0.774272 3:-0.846339 4:-0.865861 5:-0.855671 6:-0.816084 7:-0.844649 
1 1:-0.728899 2:-0.775407 3:-0.837872 4:-0.849547 5:-0.813372 6:-0.779033 7:-0.837009 
1 1:-0.754304 2:-0.795495 3:-0.856751 4:-0.869607 5:-0.847992 6:-0.816448 7:-0.854373 
1 1:-0.732018 2:-0.775294 3:-0.836384 4:-0.845076 5:-0.816054 6:-0.768465 7:-0.812815 
1 1:-0.407321 2:-0.469432 3:-0.561213 4:-0.576677 5:-0.305053 6:-0.585034 7:-0.700411 
1 1:-0.693576 2:-0.737275 3:-0.795881 4:-0.797221 5:-0.751082 6:-0.676749 7:-0.764542 
1 1:-0.691348 2:-0.742609 3:-0.809382 4:-0.819094 5:-0.770708 6:-0.684402 7:-0.768131 
1 1:-0.731461 2:-0.783351 3:-0.859153 4:-0.887976 5:-0.859938 6:-0.863217 7:-0.918852 
1 1:-0.741824 2:-0.794587 3:-0.871854 4:-0.899577 5:-0.901993 6:-0.899781 7:-0.922093 
1 1:-0.556521 2:-0.6138 3:-0.670938 4:-0.70139 5:-0.53532 6:-0.682337 7:-0.794988 
1 1:-0.715527 2:-0.763604 3:-0.834211 4:-0.850272 5:-0.828122 6:-0.800049 7:-0.840482 
1 1:-0.476183 2:-0.537423 3:-0.594165 4:-0.618973 5:-0.409886 6:-0.554786 7:-0.635585 
1 1:-0.772244 2:-0.512001 3:-0.571396 4:-0.597946 5:-0.383556 6:-0.531584 7:-0.64774 
1 1:-0.693242 2:-0.741815 3:-0.811098 4:-0.828036 5:-0.808618 6:-0.748907 7:-0.792441 
1 1:-0.704273 2:-0.752029 3:-0.816819 4:-0.82864 5:-0.792893 6:-0.701288 7:-0.747526 
1 1:-0.699816 2:-0.754071 3:-0.828719 4:-0.851843 5:-0.850186 6:-0.823737 7:-0.85472 
1 1:-0.423255 2:-0.475345 3:-0.575286 4:-0.585136 5:-0.336503 6:-0.504981 7:-0.627019 
1 1:-0.74071 2:-0.786189 3:-0.853318 4:-0.865861 5:-0.845432 6:-0.833212 7:-0.863518 
1 1:-0.741044 2:-0.785508 3:-0.847826 4:-0.858127 5:-0.818005 6:-0.802478 7:-0.83342 
1 1:-0.772244 2:-0.56012 3:-0.635355 4:-0.679517 5:-0.534223 6:-0.767128 7:-0.838745 
1 1:-0.713856 2:-0.764058 3:-0.830435 4:-0.844834 5:-0.820442 6:-0.768343 7:-0.802512 
1 1:-0.779486 2:-0.786642 3:-0.857883 4:-0.867915 5:-0.763637 6:-0.844388 7:-0.908317 
1 1:-0.794529 2:-0.837031 3:-0.901259 4:-0.923142 5:-0.913573 6:-0.897959 7:-0.925682 
1 1:-0.772244 2:-0.579527 3:-0.649428 4:-0.680604 5:-0.464972 6:-0.581997 7:-0.682931 
1 1:-0.581481 2:-0.632185 3:-0.682838 4:-0.710695 5:-0.480953 6:-0.628523 7:-0.704578 
1 1:-0.693911 2:-0.74295 3:-0.814302 4:-0.830453 5:-0.797525 6:-0.776361 7:-0.839787 
1 1:-0.697699 2:-0.749759 3:-0.825057 4:-0.854743 5:-0.84787 6:-0.862609 7:-0.89431 
1 1:-0.710179 2:-0.7602 3:-0.832838 4:-0.856918 5:-0.848967 6:-0.784014 7:-0.789084 
1 1:-0.712853 2:-0.764739 3:-0.836499 4:-0.858127 5:-0.844091 6:-0.776361 7:-0.781559 
1 1:-0.707059 2:-0.75793 3:-0.83135 4:-0.85716 5:-0.844457 6:-0.838071 7:-0.874978 
1 1:-0.693688 2:-0.744992 3:-0.813387 4:-0.833958 5:-0.781435 6:-0.765063 7:-0.8083 
1 1:-0.729233 2:-0.779152 3:-0.852059 4:-0.870332 5:-0.861035 6:-0.817177 7:-0.850321 
1 1:-0.715862 2:-0.766782 3:-0.834897 4:-0.847855 5:-0.820077 6:-0.747692 7:-0.786769 
1 1:-0.713967 2:-0.765647 3:-0.841533 4:-0.872266 5:-0.879807 6:-0.903304 7:-0.920588 
1 1:-0.772244 2:-0.528117 3:-0.597254 4:-0.623807 5:-0.331992 6:-0.541545 7:-0.645772 
1 1:-0.690791 2:-0.745219 3:-0.822311 4:-0.847009 5:-0.845798 6:-0.82981 7:-0.842565 
1 1:-0.772244 2:-0.470578 3:-0.534897 4:-0.557704 5:-0.273237 6:-0.507167 7:-0.6805 
1 1:-0.715082 2:-0.764172 3:-0.83341 4:-0.846284 5:-0.81581 6:-0.706025 7:-0.725763 
1 1:-0.758092 2:-0.803893 3:-0.874256 4:-0.897039 5:-0.892729 6:-0.877794 7:-0.90496 
1 1:-0.701042 2:-0.752142 3:-0.82357 4:-0.839033 5:-0.80423 6:-0.774417 7:-0.8296 
1 1:-0.690122 2:-0.740226 3:-0.813158 4:-0.837825 5:-0.814469 6:-0.821064 7:-0.858888 
1 1:-0.692351 2:-0.742042 3:-0.814188 4:-0.834199 5:-0.789846 6:-0.763848 7:-0.795103 
1 1:-0.703716 2:-0.754979 3:-0.831922 4:-0.86284 5:-0.863107 6:-0.865646 7:-0.897783 
1 1:-0.729233 2:-0.778925 3:-0.852174 4:-0.877462 5:-0.875053 6:-0.866618 7:-0.88748 
1 1:-0.660037 2:-0.715145 3:-0.79714 4:-0.828761 5:-0.827391 6:-0.856657 7:-0.891069 
1 1:-0.721544 2:-0.772343 3:-0.844165 4:-0.865378 5:-0.817273 6:-0.817177 7:-0.874052 
1 1:-0.607109 2:-0.660092 3:-0.698513 4:-0.703807 5:-0.679893 6:-0.608601 7:-0.661863 
1 1:-0.711962 2:-0.760767 3:-0.821053 4:-0.813776 5:-0.784726 6:-0.716837 7:-0.777045 
1 1:-0.72667 2:-0.769846 3:-0.83032 4:-0.842538 5:-0.793259 6:-0.768343 7:-0.815593 
1 1:-0.577692 2:-0.634001 3:-0.689588 4:-0.696556 5:-0.64893 6:-0.581147 7:-0.686635 
1 1:-0.468717 2:-0.529479 3:-0.588673 4:-0.614502 5:-0.451088 6:-0.556487 7:-0.657579 
1 1:-0.767898 2:-0.810475 3:-0.877002 4:-0.901873 5:-0.886878 6:-0.862245 7:-0.879724 
1 1:-0.415343 2:-0.47682 3:-0.498627 4:-0.512266 5:-0.252636 6:-0.353 7:-0.524686 
1 1:-0.538024 2:-0.589968 3:-0.691991 4:-0.692085 5:-0.612239 6:-0.666545 7:-0.766395 
1 1:-0.548042 2:-0.585769 3:-0.622883 4:-0.593716 5:-0.474249 6:-0.383989 7:-0.498524 
1 1:-0.538247 2:-0.59655 3:-0.64508 4:-0.677825 5:-0.474614 6:-0.658892 7:-0.775192 
1 1:-0.72589 2:-0.773932 3:-0.84222 4:-0.85716 5:-0.837021 6:-0.792638 7:-0.819645 
1 1:-0.740264 2:-0.790501 3:-0.865446 4:-0.889426 5:-0.888584 6:-0.888727 7:-0.914221 
1 1:-0.721767 2:-0.770868 3:-0.840961 4:-0.867432 5:-0.859938 6:-0.864674 7:-0.885976 
1 1:-0.709956 2:-0.761675 3:-0.837872 4:-0.864773 5:-0.868471 6:-0.852648 7:-0.856688 
1 1:-0.53223 2:-0.588152 3:-0.664073 4:-0.688943 5:-0.561894 6:-0.639942 7:-0.737917 
1 1:-0.758427 2:-0.801736 3:-0.868192 4:-0.890876 5:-0.860669 6:-0.892857 7:-0.950223 
1 1:-0.533567 2:-0.587584 3:-0.650686 4:-0.6771 5:-0.451697 6:-0.610058 7:-0.718817 
1 1:-0.546827 2:-0.609022 3:-0.664874 4:-0.696798 5:-0.49168 6:-0.646866 7:-0.733171 
1 1:-0.73837 2:-0.791749 3:-0.860183 4:-0.905136 5:-0.834827 6:-0.920311 7:-0.974996 
1 1:-0.783498 2:-0.829541 3:-0.894737 4:-0.928701 5:-0.870421 6:-0.91363 7:-0.96724 
1 1:-0.655011 2:-0.712535 3:-0.789588 4:-0.820785 5:-0.785823 6:-0.825073 7:-0.880766 
1 1:-0.709956 2:-0.764285 3:-0.832838 4:-0.860665 5:-0.814713 6:-0.794339 7:-0.848238 
1 1:-0.517856 2:-0.573841 3:-0.652174 4:-0.67287 5:-0.655391 6:-0.737852 7:-0.806216 
1 1:-0.719984 2:-0.769846 3:-0.839359 4:-0.870332 5:-0.816907 6:-0.818513 7:-0.868496 
1 1:-0.693911 2:-0.745106 3:-0.8127 4:-0.840846 5:-0.799232 6:-0.798712 7:-0.832494 
1 1:-0.691905 2:-0.74295 3:-0.818764 4:-0.851601 5:-0.845919 6:-0.870384 7:-0.898825 
1 1:-0.724664 2:-0.772229 3:-0.836728 4:-0.850634 5:-0.776193 6:-0.79519 7:-0.879493 
1 1:-0.720876 2:-0.771662 3:-0.846796 4:-0.874804 5:-0.854209 6:-0.865039 7:-0.891879 
1 1:-0.718647 2:-0.768825 3:-0.844165 4:-0.868278 5:-0.856768 6:-0.836856 7:-0.863171 
1 1:-0.742158 2:-0.789026 3:-0.85778 4:-0.88145 5:-0.865058 6:-0.849611 7:-0.882387 
1 1:-0.717644 2:-0.765647 3:-0.829977 4:-0.844592 5:-0.796916 6:-0.745384 7:-0.803091 
1 1:-0.72433 2:-0.774159 3:-0.83913 4:-0.86429 5:-0.801061 6:-0.798226 7:-0.851595 
1 1:-0.70015 2:-0.754071 3:-0.825629 4:-0.852085 5:-0.827756 6:-0.844752 7:-0.877409 
1 1:-0.772244 2:-0.52074 3:-0.584668 4:-0.601692 5:-0.414884 6:-0.517128 7:-0.616716 
1 1:-0.772244 2:-0.767803 3:-0.854805 4:-0.875891 5:-0.873225 6:-0.863217 7:-0.879261 
1 1:-0.520085 2:-0.573966 3:-0.629176 4:-0.660302 5:-0.43646 6:-0.588666 7:-0.718122 
1 1:-0.720319 2:-0.771208 3:-0.84611 4:-0.873233 5:-0.863717 6:-0.853499 7:-0.885744 
1 1:-0.602652 2:-0.651251 3:-0.710069 4:-0.715045 5:-0.609557 6:-0.612962 7:-0.749841 
1 1:-0.772244 2:-0.583499 3:-0.662357 4:-0.691601 5:-0.553971 6:-0.710143 7:-0.818024 
1 1:-0.453451 2:-0.522556 3:-0.595309 4:-0.62852 5:-0.491315 6:-0.599368 7:-0.738612 
1 1:-0.720764 2:-0.762129 3:-0.824828 4:-0.821269 5:-0.764369 6:-0.739067 7:-0.795914 
1 1:-0.498691 2:-0.553992 3:-0.603661 4:-0.625136 5:-0.4467 6:-0.577017 7:-0.669387 
1 1:-0.744387 2:-0.790501 3:-0.857895 4:-0.870211 5:-0.831657 6:-0.803207 7:-0.864676 
1 1:-0.452215 2:-0.512909 3:-0.633638 4:-0.650876 5:-0.489364 6:-0.63484 7:-0.733634 
1 1:-0.609338 2:-0.656699 3:-0.737986 4:-0.760471 5:-0.632108 6:-0.710034 7:-0.809921 
1 1:-0.560421 2:-0.623333 3:-0.693936 4:-0.725076 5:-0.610032 6:-0.762634 7:-0.849858 
1 1:-0.692908 2:-0.739545 3:-0.794622 4:-0.82574 5:-0.594929 6:-0.691569 7:-0.853794 
1 1:-0.707282 2:-0.756909 3:-0.822769 4:-0.837341 5:-0.762662 6:-0.771259 7:-0.845459 
1 1:-0.556967 2:-0.618567 3:-0.702517 4:-0.735227 5:-0.611142 6:-0.773567 7:-0.848469 
1 1:-0.672294 2:-0.711967 3:-0.747712 4:-0.726042 5:-0.644908 6:-0.576288 7:-0.671239 
1 1:-0.685108 2:-0.720706 3:-0.759382 4:-0.737281 5:-0.66173 6:-0.598397 7:-0.709209 
1 1:-0.678534 2:-0.724224 3:-0.779519 4:-0.781148 5:-0.705857 6:-0.663022 7:-0.760954 
1 1:-0.624157 2:-0.673154 3:-0.72254 4:-0.705619 5:-0.637716 6:-0.616983 7:-0.713145 
1 1:-0.772244 2:-0.616978 3:-0.694165 4:-0.723142 5:-0.67331 6:-0.685374 7:-0.786537 
1 1:-0.749958 2:-0.797424 3:-0.869108 4:-0.89426 5:-0.868836 6:-0.837828 7:-0.890143 
1 1:-0.570115 2:-0.60892 3:-0.636156 4:-0.593595 5:-0.435851 6:-0.336613 7:-0.472825 
1 1:-0.776812 2:-0.817738 3:-0.881808 4:-0.901873 5:-0.891022 6:-0.870748 7:-0.89952 
1 1:-0.550504 2:-0.611303 3:-0.663043 4:-0.68435 5:-0.508746 6:-0.697765 7:-0.800081 
1 1:-0.747061 2:-0.791976 3:-0.852174 4:-0.875287 5:-0.824099 6:-0.833698 7:-0.905771 
1 1:-0.719316 2:-0.767803 3:-0.838902 4:-0.860423 5:-0.800573 6:-0.728741 7:-0.79082 
1 1:-0.741713 2:-0.781082 3:-0.836384 4:-0.843384 5:-0.805083 6:-0.750364 7:-0.790936 
1 1:-0.571341 2:-0.629688 3:-0.681682 4:-0.686163 5:-0.623697 6:-0.575194 7:-0.70562 
1 1:-0.724107 2:-0.772683 3:-0.840732 4:-0.856918 5:-0.813616 6:-0.786929 7:-0.844186 
1 1:-0.45802 2:-0.529138 3:-0.589588 4:-0.621631 5:-0.432803 6:-0.742833 7:-0.819529 
1 1:-0.509611 2:-0.570107 3:-0.595652 4:-0.594683 5:-0.485829 6:-0.559512 7:-0.717196 
1 1:-0.414118 2:-0.475799 3:-0.534085 4:-0.554441 5:-0.26251 6:-0.499757 7:-0.658274 
1 1:-0.501254 2:-0.55229 3:-0.592906 4:-0.571843 5:-0.42232 6:-0.47206 7:-0.601783 
1 1:-0.708285 2:-0.73353 3:-0.75389 4:-0.70997 5:-0.608582 6:-0.62913 7:-0.784685 
1 1:-0.729121 2:-0.772343 3:-0.818535 4:-0.822356 5:-0.784604 6:-0.730442 7:-0.798345 
1 1:-0.720653 2:-0.769165 3:-0.842563 4:-0.864411 5:-0.858597 6:-0.841229 7:-0.86919 
1 1:-0.502256 2:-0.542064 3:-0.570252 4:-0.542477 5:-0.361492 6:-0.279762 7:-0.444001 
1 1:-0.743718 2:-0.787777 3:-0.847826 4:-0.854743 5:-0.819345 6:-0.71878 7:-0.746368 
1 1:-0.697699 2:-0.737275 3:-0.776316 4:-0.749245 5:-0.657707 6:-0.546161 7:-0.654917 
1 1:-0.680094 2:-0.723089 3:-0.766934 4:-0.743807 5:-0.64247 6:-0.549441 7:-0.678185 
1 1:-0.714859 2:-0.761108 3:-0.825858 4:-0.836375 5:-0.801061 6:-0.780369 7:-0.844417 
1 1:-0.772244 2:-0.527322 3:-0.581236 4:-0.623323 5:-0.372341 6:-0.5707 7:-0.693928 
1 1:-0.574784 2:-0.619248 3:-0.717735 4:-0.728943 5:-0.502773 6:-0.62415 7:-0.78237 
1 1:-0.632737 2:-0.682347 3:-0.766133 4:-0.794441 5:-0.668556 6:-0.787415 7:-0.867107 
1 1:-0.772244 2:-0.520286 3:-0.585812 4:-0.611239 5:-0.374291 6:-0.525632 7:-0.64554 
1 1:-0.772244 2:-0.570675 3:-0.622197 4:-0.652326 5:-0.446821 6:-0.569485 7:-0.686057 
1 1:-0.553067 2:-0.611076 3:-0.641419 4:-0.670574 5:-0.387822 6:-0.596817 7:-0.745442 
1 1:-0.705276 2:-0.752369 3:-0.812357 4:-0.833112 5:-0.762053 6:-0.749393 7:-0.821381 
1 1:-0.530002 2:-0.580094 3:-0.643936 4:-0.646876 5:-0.550558 6:-0.562925 7:-0.657232 
1 1:-0.71185 2:-0.756682 3:-0.818879 4:-0.834199 5:-0.799476 6:-0.743076 7:-0.786305 
1 1:-0.689565 2:-0.735119 3:-0.798513 4:-0.804592 5:-0.756811 6:-0.726676 7:-0.796145 
1 1:-0.70795 2:-0.757476 3:-0.828032 4:-0.846163 5:-0.812031 6:-0.717566 7:-0.739885 
1 1:-0.772244 2:-0.584055 3:-0.649771 4:-0.689063 5:-0.442189 6:-0.65379 7:-0.762343 
1 1:-0.718202 2:-0.764399 3:-0.822082 4:-0.831541 5:-0.752667 6:-0.698737 7:-0.774845 
1 1:-0.709622 2:-0.756228 3:-0.825286 4:-0.847855 5:-0.842872 6:-0.83467 7:-0.872432 
1 1:-0.670734 2:-0.719911 3:-0.7873 4:-0.800121 5:-0.768513 6:-0.746842 7:-0.796377 
1 1:-0.628614 2:-0.655223 3:-0.630778 4:-0.55142 5:-0.4172 6:-0.308795 7:-0.55189 
1 1:-0.601761 2:-0.624922 3:-0.587414 4:-0.485921 5:-0.352106 6:-0.237852 7:-0.501765 
1 1:-0.599309 2:-0.622652 3:-0.586613 4:-0.46852 5:-0.352959 6:-0.275267 7:-0.509869 
1 1:-0.612569 2:-0.633888 3:-0.591533 4:-0.46429 5:-0.343207 6:-0.248542 7:-0.496093 
1 1:-0.739596 2:-0.785054 3:-0.856293 4:-0.877583 5:-0.875541 6:-0.872813 7:-0.897667 
1 1:-0.424926 2:-0.487147 3:-0.52151 4:-0.542719 5:-0.251649 6:-0.427721 7:-0.580251 
1 1:-0.772244 2:-0.46445 3:-0.502174 4:-0.535698 5:-0.309197 6:-0.465015 7:-0.614401 
1 1:-0.399298 2:-0.45991 3:-0.554691 4:-0.581027 5:-0.338331 6:-0.576045 7:-0.678185 
1 1:-0.71965 2:-0.76508 3:-0.830549 4:-0.8429 5:-0.801304 6:-0.703717 7:-0.743706 
1 1:-0.602206 2:-0.646371 3:-0.680435 4:-0.690381 5:-0.511428 6:-0.541667 7:-0.662673 
1 1:-0.562538 2:-0.615616 3:-0.688558 4:-0.694622 5:-0.638691 6:-0.660593 7:-0.718354 
1 1:-0.707727 2:-0.75793 3:-0.819222 4:-0.837341 5:-0.76254 6:-0.700316 7:-0.764427 
1 1:-0.72433 2:-0.767803 3:-0.828261 4:-0.837583 5:-0.796306 6:-0.705418 7:-0.749725 
1 1:-0.607109 2:-0.661465 3:-0.728833 4:-0.738852 5:-0.647102 6:-0.68173 7:-0.758407 
1 1:-0.709956 2:-0.756682 3:-0.823799 4:-0.840967 5:-0.825197 6:-0.770044 7:-0.789431 
1 1:-0.711739 2:-0.752029 3:-0.795652 4:-0.794683 5:-0.734016 6:-0.666181 7:-0.738844 
1 1:-0.724776 2:-0.762016 3:-0.815446 4:-0.814018 5:-0.770464 6:-0.726312 7:-0.778665 
1 1:-0.722213 2:-0.759632 3:-0.812357 4:-0.807613 5:-0.75547 6:-0.683431 7:-0.742201 
1 1:-0.488885 2:-0.55229 3:-0.561213 4:-0.578248 5:-0.404157 6:-0.506681 7:-0.60595 
1 1:-0.728787 2:-0.772229 3:-0.830435 4:-0.836979 5:-0.803864 6:-0.772959 7:-0.838977 
1 1:-0.658254 2:-0.702775 3:-0.749886 4:-0.754683 5:-0.675504 6:-0.650753 7:-0.759449 
1 1:-0.707616 2:-0.756228 3:-0.819336 4:-0.834199 5:-0.803742 6:-0.715379 7:-0.723795 
1 1:-0.772244 2:-0.459343 3:-0.513387 4:-0.543202 5:-0.303834 6:-0.513362 7:-0.667766 
1 1:-0.712073 2:-0.754071 3:-0.802059 4:-0.801813 5:-0.768513 6:-0.699223 7:-0.759217 
1 1:-0.64934 2:-0.690405 3:-0.730664 4:-0.723021 5:-0.660876 6:-0.613824 7:-0.716965 
1 1:-0.484762 2:-0.546729 3:-0.609611 4:-0.644459 5:-0.36454 6:-0.619412 7:-0.746136 
1 1:-0.772244 2:-0.527322 3:-0.578375 4:-0.607251 5:-0.407448 6:-0.594509 7:-0.70944 
1 1:-0.772244 2:-0.609034 3:-0.647254 4:-0.65861 5:-0.451332 6:-0.678328 7:-0.777508 
1 1:-0.724107 2:-0.767803 3:-0.823341 4:-0.826828 5:-0.785336 6:-0.780126 7:-0.846733 
1 1:-0.745835 2:-0.791863 3:-0.850114 4:-0.865619 5:-0.847748 6:-0.845967 7:-0.894542 
1 1:-0.488105 2:-0.544345 3:-0.582037 4:-0.581873 5:-0.327726 6:-0.498664 7:-0.650865 
1 1:-0.685108 2:-0.690291 3:-0.672998 4:-0.593353 5:-0.456939 6:-0.508625 7:-0.69879 
1 1:-0.662042 2:-0.675538 3:-0.662243 4:-0.584048 5:-0.484245 6:-0.441569 7:-0.606066 
1 1:-0.662377 2:-0.690745 3:-0.681465 4:-0.599275 5:-0.505211 6:-0.420797 7:-0.554321 
1 1:-0.710179 2:-0.745446 3:-0.732723 4:-0.616677 5:-0.576035 6:-0.4276 7:-0.497366 
1 1:-0.690791 2:-0.723543 3:-0.716705 4:-0.597341 5:-0.551045 6:-0.409135 7:-0.489842 
1 1:-0.688339 2:-0.724564 3:-0.722082 4:-0.605559 5:-0.556165 6:-0.422012 7:-0.517046 
1 1:-0.678534 2:-0.716961 3:-0.71373 4:-0.604471 5:-0.558969 6:-0.419704 7:-0.516235 
1 1:-0.646108 2:-0.675424 3:-0.6254 4:-0.495106 5:-0.401231 6:-0.142007 7:-0.291428 
1 1:-0.693688 2:-0.731487 3:-0.74222 4:-0.692326 5:-0.635887 6:-0.616497 7:-0.686172 
1 1:-0.633851 2:-0.661806 3:-0.640618 4:-0.518792 5:-0.376242 6:-0.224976 7:-0.430109 
1 1:-0.62516 2:-0.651705 3:-0.631579 4:-0.504653 5:-0.350277 6:-0.201774 7:-0.419807 
1 1:-0.608558 2:-0.636611 3:-0.621854 4:-0.495589 5:-0.355885 6:-0.201895 7:-0.407073 
1 1:-0.649563 2:-0.675197 3:-0.662014 4:-0.551057 5:-0.414152 6:-0.274295 7:-0.488684 
1 1:-0.772244 2:-0.627759 3:-0.615103 4:-0.489668 5:-0.358932 6:-0.202259 7:-0.430688 
1 1:-0.772244 2:-0.567837 3:-0.548513 4:-0.436012 5:-0.311635 6:-0.180515 7:-0.402443 
1 1:-0.632514 2:-0.656131 3:-0.628146 4:-0.520242 5:-0.390748 6:-0.248178 7:-0.459744 
1 1:-0.593738 2:-0.618113 3:-0.582723 4:-0.461027 5:-0.323825 6:-0.173591 7:-0.384731 
1 1:-0.596301 2:-0.620269 3:-0.59016 4:-0.468761 5:-0.334796 6:-0.180758 7:-0.397118 
1 1:-0.566995 2:-0.595983 3:-0.576545 4:-0.475529 5:-0.356372 6:-0.259961 7:-0.462522 
1 1:-0.772244 2:-0.610055 3:-0.590503 4:-0.494864 5:-0.377217 6:-0.233601 7:-0.452104 
1 1:-0.727784 2:-0.748851 3:-0.745652 4:-0.68568 5:-0.599805 6:-0.528669 7:-0.611275 
1 1:-0.688228 2:-0.715372 3:-0.71865 4:-0.641692 5:-0.548851 6:-0.457483 7:-0.556289 
1 1:-0.700373 2:-0.724678 3:-0.718421 4:-0.637825 5:-0.541171 6:-0.451409 7:-0.545523 
1 1:-0.71107 2:-0.737048 3:-0.73524 4:-0.665378 5:-0.576035 6:-0.501579 7:-0.605603 
1 1:-0.732018 2:-0.756114 3:-0.763043 4:-0.705861 5:-0.61492 6:-0.563776 7:-0.653644 
1 1:-0.455346 2:-0.519492 3:-0.518307 4:-0.540665 5:-0.345523 6:-0.436589 7:-0.60977 
1 1:-0.760867 2:-0.798899 3:-0.845309 4:-0.870211 5:-0.766685 6:-0.78863 7:-0.877062 
1 1:-0.701822 2:-0.733303 3:-0.757666 4:-0.716737 5:-0.630036 6:-0.461856 7:-0.584071 
1 1:-0.729567 2:-0.75827 3:-0.786041 4:-0.764955 5:-0.674042 6:-0.597182 7:-0.706315 
1 1:-0.708507 2:-0.742609 3:-0.773341 4:-0.741752 5:-0.673188 6:-0.522595 7:-0.633617 
1 1:-0.692573 2:-0.724338 3:-0.747826 4:-0.708278 5:-0.628451 6:-0.454446 7:-0.558141 
1 1:-0.772244 2:-0.718209 3:-0.757094 4:-0.737644 5:-0.642104 6:-0.480928 7:-0.610928 
1 1:-0.578361 2:-0.642626 3:-0.676087 4:-0.673474 5:-0.633815 6:-0.609451 7:-0.715228 
1 1:-0.569001 2:-0.630256 3:-0.701144 4:-0.736556 5:-0.579558 6:-0.705418 7:-0.804364 
1 1:-0.772244 2:-0.445611 3:-0.503432 4:-0.535347 5:-0.343329 6:-0.55102 7:-0.703652 
1 1:-0.772244 2:-0.578278 3:-0.664073 4:-0.687976 5:-0.493631 6:-0.662536 7:-0.783527 
1 1:-0.538024 2:-0.596539 3:-0.66865 4:-0.683384 5:-0.483513 6:-0.577502 7:-0.706894 
1 1:-0.487882 2:-0.55524 3:-0.594508 4:-0.608459 5:-0.447919 6:-0.579932 7:-0.688719 
1 1:-0.772244 2:-0.593826 3:-0.604119 4:-0.556858 5:-0.383921 6:0.973275 7:-0.418302 
1 1:-0.411666 2:-0.488396 3:-0.589931 4:-0.626344 5:-0.492899 6:-0.749271 7:-0.859929 
1 1:-0.717422 2:-0.757363 3:-0.808696 4:-0.80423 5:-0.745353 6:-0.633989 7:-0.691034 
1 1:-0.694691 2:-0.734778 3:-0.778146 4:-0.763867 5:-0.691229 6:-0.566691 7:-0.629913 
1 1:-0.697699 2:-0.745106 3:-0.801831 4:-0.792024 5:-0.703054 6:-0.58965 7:-0.681889 
1 1:-0.772244 2:-0.778471 3:-0.860183 4:-0.867915 5:-0.85433 6:-0.81001 7:-0.738149 
1 1:-0.772244 2:-0.767803 3:-0.847368 4:-0.851118 5:-0.836411 6:-0.769558 7:-0.695781 
1 1:-0.606106 2:-0.651013 3:-0.74016 4:-0.756375 5:-0.545438 6:-0.734208 7:-0.816519 
1 1:-0.718982 2:-0.762129 3:-0.80595 4:-0.794079 5:-0.665021 6:-0.59231 7:-0.700411 
1 1:-0.710179 2:-0.755433 3:-0.794966 4:-0.77571 5:-0.651003 6:-0.567906 7:-0.68733 
1 1:-0.637974 2:-0.688021 3:-0.736156 4:-0.734018 5:-0.588225 6:-0.549563 7:-0.690456 
1 1:-0.709065 2:-0.756455 3:-0.829176 4:-0.8429 5:-0.817639 6:-0.721088 7:-0.758176 
1 1:-0.626274 2:-0.687567 3:-0.72746 4:-0.754562 5:-0.582861 6:-0.692906 7:-0.849395 
1 1:-0.772244 2:-0.565568 3:-0.629291 4:-0.65861 5:-0.396477 6:-0.525389 7:-0.628987 
1 1:-0.772244 2:-0.48986 3:-0.570595 4:-0.621027 5:-0.323459 6:-0.58965 7:-0.758407 
1 1:-0.574684 2:-0.621517 3:-0.673673 4:-0.688097 5:-0.494118 6:-0.624271 7:-0.73757 
1 1:-0.772244 2:-0.575214 3:-0.641304 4:-0.662477 5:-0.51862 6:-0.677345 7:-0.805175 
1 1:-0.743384 2:-0.79436 3:-0.862586 4:-0.885801 5:-0.87615 6:-0.852162 7:-0.877062 
1 1:-0.531005 2:-0.578278 3:-0.635698 4:-0.638429 5:-0.478515 6:-0.47947 7:-0.611738 
1 1:-0.51819 2:-0.568167 3:-0.607323 4:-0.610272 5:-0.437679 6:-0.429908 7:-0.633964 
1 1:-0.441974 2:-0.496669 3:-0.590732 4:-0.602175 5:-0.429877 6:-0.566569 7:-0.68733 
1 1:-0.473954 2:-0.530727 3:-0.585572 4:-0.611601 5:-0.366856 6:-0.537901 7:-0.623314 
1 1:-0.569001 2:-0.62356 3:-0.703661 4:-0.736073 5:-0.616139 6:-0.740282 7:-0.844765 
1 1:-0.43462 2:-0.488725 3:-0.623112 4:-0.636737 5:-0.435485 6:-0.560617 7:-0.74058 
1 1:-0.694802 2:-0.741701 3:-0.799657 4:-0.821511 5:-0.739136 6:-0.767493 7:-0.850784 
1 1:-0.606218 2:-0.663054 3:-0.727231 4:-0.7629 5:-0.574694 6:-0.728984 7:-0.821728 
1 1:-0.55719 2:-0.623333 3:-0.672654 4:-0.704894 5:-0.479369 6:-0.640901 7:-0.752503 
1 1:-0.73213 2:-0.778925 3:-0.845881 4:-0.862115 5:-0.826659 6:-0.809767 7:-0.862708 
1 1:-0.514402 2:-0.573841 3:-0.629176 4:-0.661631 5:-0.42488 6:-0.593052 7:-0.673554 
1 1:-0.457463 2:-0.519378 3:-0.569554 4:-0.590695 5:-0.43646 6:-0.548469 7:-0.708861 
1 1:-0.690233 2:-0.743971 3:-0.82254 4:-0.849909 5:-0.840678 6:-0.834427 7:-0.863981 
1 1:-0.772244 2:-0.589514 3:-0.664188 4:-0.698731 5:-0.528006 6:-0.709184 7:-0.830179 
1 1:-0.772244 2:-0.533791 3:-0.623341 4:-0.665015 5:-0.466935 6:-0.705296 7:-0.83342 
1 1:-0.427935 2:-0.49213 3:-0.568192 4:-0.589607 5:-0.321875 6:-0.487366 7:-0.641952 
1 1:-0.772244 2:-0.49407 3:-0.563959 4:-0.605196 5:-0.380862 6:-0.559524 7:-0.702147 
1 1:-0.772244 2:-0.582023 3:-0.651945 4:-0.687492 5:-0.417078 6:-0.597303 7:-0.756671 
1 1:-0.710959 2:-0.756455 3:-0.818421 4:-0.823565 5:-0.733772 6:-0.705904 7:-0.795219 
1 1:-0.772244 2:-0.48136 3:-0.547597 4:-0.584048 5:-0.319924 6:-0.547498 7:-0.660821 
1 1:-0.564767 2:-0.61834 3:-0.663375 4:-0.692085 5:-0.475346 6:-0.5543 7:-0.699022 
1 1:-0.732687 2:-0.780174 3:-0.848741 4:-0.86997 5:-0.84726 6:-0.812561 7:-0.848932 
1 1:-0.678979 2:-0.735686 3:-0.813844 4:-0.84 5:-0.797525 6:-0.714407 7:-0.739422 
1 1:-0.462923 2:-0.520399 3:-0.567277 4:-0.579094 5:-0.417322 6:-0.525267 7:-0.660242 
1 1:-0.676974 2:-0.731033 3:-0.806751 4:-0.830816 5:-0.792771 6:-0.784257 7:-0.852058 
1 1:-0.672071 2:-0.727288 3:-0.80286 4:-0.82574 5:-0.799354 6:-0.801142 7:-0.86074 
1 1:-0.540253 2:-0.604494 3:-0.700572 4:-0.726647 5:-0.524959 6:-0.780248 7:-0.844302 
1 1:-0.525756 2:-0.592237 3:-0.664874 4:-0.703444 5:-0.518133 6:-0.744048 7:-0.831105 
1 1:-0.772244 2:-0.569301 3:-0.646224 4:-0.667432 5:-0.497653 6:-0.587464 7:-0.700527 
1 1:-0.749958 2:-0.790842 3:-0.853432 4:-0.868399 5:-0.821296 6:-0.813776 7:-0.879377 
1 1:-0.74773 2:-0.791182 3:-0.854577 4:-0.866344 5:-0.834217 6:-0.811589 7:-0.858077 
1 1:-0.552064 2:-0.622641 3:-0.645652 4:-0.686888 5:-0.452185 6:-0.538873 7:-0.679111 
1 1:-0.583821 2:-0.632753 3:-0.672082 4:-0.701269 5:-0.458877 6:-0.541545 7:-0.699716 
1 1:-0.53691 2:-0.600182 3:-0.675057 4:-0.685076 5:-0.568843 6:-0.599247 7:-0.728078 
1 1:-0.506491 2:-0.564773 3:-0.600446 4:-0.596012 5:-0.491924 6:-0.524538 7:-0.653528 
1 1:-0.544821 2:-0.591999 3:-0.647025 4:-0.658127 5:-0.456573 6:-0.587707 7:-0.707704 
1 1:-0.517522 2:-0.579527 3:-0.626201 4:-0.651964 5:-0.448894 6:-0.549684 7:-0.66221 
1 1:-0.63062 2:-0.674857 3:-0.744611 4:-0.763505 5:-0.564942 6:-0.637998 7:-0.788736 
1 1:-0.772244 2:-0.472837 3:-0.543593 4:-0.556012 5:-0.401841 6:-0.58139 7:-0.728078 
1 1:-0.543596 2:-0.616297 3:-0.657323 4:-0.703444 5:-0.469129 6:-0.647595 7:-0.730393 
1 1:-0.591175 2:-0.658628 3:-0.6746 4:-0.715287 5:-0.515938 6:-0.621234 7:-0.751809 
1 1:-0.470054 2:-0.542076 3:-0.600686 4:-0.631178 5:-0.558725 6:-0.67602 7:-0.799734 
1 1:-0.552064 2:-0.600636 3:-0.707094 4:-0.706103 5:-0.559822 6:-0.644436 7:-0.748683 
1 1:-0.532442 2:-0.584861 3:-0.65 4:-0.658973 5:-0.553118 6:-0.570092 7:-0.703189 
1 1:-0.742938 2:-0.783805 3:-0.842792 4:-0.856677 5:-0.825806 6:-0.806487 7:-0.846501 
1 1:-0.748064 2:-0.794587 3:-0.864874 4:-0.888459 5:-0.874322 6:-0.846331 7:-0.87903 
1 1:-0.515739 2:-0.55751 3:-0.656407 4:-0.621752 5:-0.52374 6:-0.532787 7:-0.681195 
1 1:-0.469831 2:-0.527549 3:-0.608455 4:-0.627432 5:-0.411471 6:-0.582604 7:-0.690108 
1 1:-0.564767 2:-0.607331 3:-0.673341 4:-0.645438 5:-0.567368 6:-0.521623 7:-0.654107 
1 1:-0.738593 2:-0.778698 3:-0.828947 4:-0.829849 5:-0.722923 6:-0.727527 7:-0.820223 
1 1:-0.508831 2:-0.553084 3:-0.606407 4:-0.605801 5:-0.432072 6:-0.516642 7:-0.612664 
1 1:-0.658477 2:-0.70913 3:-0.745195 4:-0.777523 5:-0.614555 6:-0.762148 7:-0.86618 
1 1:-0.462811 2:-0.523464 3:-0.594508 4:-0.612931 5:-0.505211 6:-0.730685 7:-0.80367 
1 1:-0.702379 2:-0.742382 3:-0.790046 4:-0.76435 5:-0.666362 6:-0.592687 7:-0.701569 
1 1:-0.706279 2:-0.748283 3:-0.791991 4:-0.767492 5:-0.683428 6:-0.545554 7:-0.53441 
1 1:-0.609326 2:-0.651024 3:-0.661785 4:-0.619215 5:-0.524471 6:-0.486759 7:-0.613359 
1 1:-0.582584 2:-0.636271 3:-0.701144 4:-0.718187 5:-0.635887 6:-0.651239 7:-0.748799 
1 1:-0.636749 2:-0.683936 3:-0.734096 4:-0.751299 5:-0.667459 6:-0.657556 7:-0.761764 
1 1:-0.772244 2:-0.614708 3:-0.689691 4:-0.73426 5:-0.631986 6:-0.773688 7:-0.868959 
1 1:-0.687002 2:-0.737275 3:-0.806407 4:-0.823927 5:-0.775705 6:-0.733844 7:-0.799734 
1 1:-0.772244 2:-0.59882 3:-0.682609 4:-0.728701 5:-0.573475 6:-0.758989 7:-0.857267 
1 1:-0.499025 2:-0.547864 3:-0.605606 4:-0.568097 5:-0.463887 6:-0.380466 7:-0.557678 
1 1:-0.699482 2:-0.748283 3:-0.817048 4:-0.839396 5:-0.781922 6:-0.779519 7:-0.8509 
1 1:-0.465486 2:-0.529592 3:-0.573112 4:-0.590079 5:-0.455233 6:-0.678328 7:-0.809458 
1 1:-0.565658 2:-0.605516 3:-0.658352 4:-0.661511 5:-0.509843 6:-0.604713 7:-0.708051 
1 1:-0.613349 2:-0.668615 3:-0.731579 4:-0.757583 5:-0.629183 6:-0.697643 7:-0.801007 
1 1:-0.502145 2:-0.560007 3:-0.628146 4:-0.657281 5:-0.419516 6:-0.623664 7:-0.747989 
1 1:-0.54861 2:-0.600976 3:-0.671053 4:-0.686405 5:-0.525325 6:-0.668853 7:-0.753314 
1 1:-0.723661 2:-0.771322 3:-0.838215 4:-0.856677 5:-0.841775 6:-0.802357 7:-0.823465 
1 1:-0.734804 2:-0.779152 3:-0.844966 4:-0.857402 5:-0.822271 6:-0.810982 7:-0.862245 
1 1:-0.71419 2:-0.760767 3:-0.817735 4:-0.843988 5:-0.685256 6:-0.757653 7:-0.881577 
1 1:-0.772244 2:-0.61607 3:-0.674817 4:-0.728218 5:-0.455111 6:-0.65051 7:-0.727615 
1 1:-0.423255 2:-0.489417 3:-0.578947 4:-0.603625 5:-0.392454 6:-0.655126 7:-0.744284 
1 1:-0.772244 2:-0.620155 3:-0.670824 4:-0.699094 5:-0.474858 6:-0.577745 7:-0.705852 
1 1:-0.543039 2:-0.588719 3:-0.651373 4:-0.634199 5:-0.538124 6:-0.523688 7:-0.6592 
1 1:-0.459134 2:-0.516995 3:-0.581922 4:-0.56713 5:-0.472786 6:-0.62025 7:-0.770215 
1 1:-0.772244 2:-0.563298 3:-0.643478 4:-0.663807 5:-0.377217 6:-0.593294 7:-0.67668 
1 1:-0.741155 2:-0.786642 3:-0.848856 4:-0.859335 5:-0.834339 6:-0.796283 7:-0.83041 
1 1:-0.557636 2:-0.623787 3:-0.618993 4:-0.585982 5:-0.538124 6:-0.499393 7:-0.62424 
1 1:-0.652348 2:-0.700732 3:-0.76762 4:-0.78574 5:-0.752301 6:-0.751458 7:-0.803901 
1 1:-0.772244 2:-0.493264 3:-0.555835 4:-0.586828 5:-0.36588 6:-0.607264 7:-0.702379 
1 1:-0.583709 2:-0.62945 3:-0.727002 4:-0.710695 5:-0.595904 6:-0.583576 7:-0.711061 
1 1:-0.772244 2:-0.725699 3:-0.777803 4:-0.812085 5:-0.603584 6:-0.744291 7:-0.859929 
1 1:-0.499248 2:-0.567951 3:-0.635584 4:-0.672266 5:-0.445115 6:-0.705418 7:-0.80448 
1 1:-0.581481 2:-0.648527 3:-0.664645 4:-0.684471 5:-0.472177 6:-0.554543 7:-0.720901 
1 1:-0.772244 2:-0.648187 3:-0.708009 4:-0.751541 5:-0.505699 6:-0.68671 7:-0.800197 
1 1:-0.772244 2:-0.470011 3:-0.545652 4:-0.579819 5:-0.339416 6:-0.560617 7:-0.692192 
1 1:-0.739596 2:-0.783805 3:-0.801831 4:-0.773535 5:-0.66819 6:-0.749636 7:-0.873589 
1 1:-0.453229 2:-0.507689 3:-0.577574 4:-0.601088 5:-0.377095 6:-0.53292 7:-0.615211 
1 1:-0.772244 2:-0.543211 3:-0.62643 4:-0.657764 5:-0.46852 6:-0.697522 7:-0.800891 
1 1:-0.772244 2:-0.532997 3:-0.619908 4:-0.648338 5:-0.473274 6:-0.689383 7:-0.776119 
1 1:-0.455569 2:-0.518243 3:-0.578833 4:-0.605789 5:-0.366978 6:-0.545675 7:-0.630723 
1 1:-0.487882 2:-0.558078 3:-0.601259 4:-0.636495 5:-0.418651 6:-0.554908 7:-0.683278 
1 1:-0.726113 2:-0.773478 3:-0.830664 4:-0.838187 5:-0.752788 6:-0.655612 7:-0.756555 
1 1:-0.487437 2:-0.547864 3:-0.613959 4:-0.6429 5:-0.344304 6:-0.56923 7:-0.678764 
1 1:-0.543484 2:-0.602224 3:-0.63341 4:-0.642054 5:-0.474736 6:-0.490039 7:-0.636164 
1 1:-0.772244 2:-0.518811 3:-0.595309 4:-0.626344 5:-0.449869 6:-0.583819 7:-0.688256 
1 1:-0.497911 2:-0.559326 3:-0.606064 4:-0.619094 5:-0.507637 6:-0.556608 7:-0.645425 
1 1:-0.70639 2:-0.751915 3:-0.813158 4:-0.822356 5:-0.776071 6:-0.681001 7:-0.725647 
1 1:-0.665385 2:-0.707655 3:-0.759497 4:-0.74574 5:-0.605534 6:-0.553693 7:-0.724489 
1 1:-0.713967 2:-0.756909 3:-0.805263 4:-0.798066 5:-0.649662 6:-0.5543 7:-0.696591 
1 1:-0.672071 2:-0.702321 3:-0.731007 4:-0.698006 5:-0.546901 6:-0.476676 7:-0.652254 
1 1:-0.663157 2:-0.689497 3:-0.715675 4:-0.669728 5:-0.529469 6:-0.426263 7:-0.601551 
1 1:-0.657363 2:-0.69449 3:-0.725515 4:-0.718912 5:-0.692326 6:-0.729227 7:-0.826822 
1 1:-0.518525 2:-0.595075 3:-0.641636 4:-0.691601 5:-0.408058 6:-0.62828 7:-0.734676 
1 1:-0.716864 2:-0.761221 3:-0.816133 4:-0.812447 5:-0.774243 6:-0.689626 7:-0.725415 
1 1:-0.772244 2:-0.474096 3:-0.558112 4:-0.581027 5:-0.296398 6:-0.505952 7:-0.58164 
1 1:-0.772244 2:-0.557953 3:-0.620481 4:-0.639637 5:-0.454135 6:-0.532191 7:-0.658158 
1 1:-0.650565 2:-0.678488 3:-0.668307 4:-0.578731 5:-0.480831 6:-0.38484 7:-0.541703 
1 1:-0.639089 2:-0.663621 3:-0.649657 4:-0.546344 5:-0.444262 6:-0.335884 7:-0.513573 
1 1:-0.62828 2:-0.654769 3:-0.641876 4:-0.544169 5:-0.444505 6:-0.33965 7:-0.516004 
1 1:-0.630286 2:-0.655223 3:-0.640732 4:-0.532689 5:-0.433047 6:-0.326652 7:-0.502344 
1 1:-0.772244 2:-0.622879 3:-0.683638 4:-0.70574 5:-0.518376 6:-0.548712 7:-0.688372 
1 1:-0.442186 2:-0.495546 3:-0.542449 4:-0.557221 5:-0.321387 6:-0.51069 7:-0.624703 
1 1:-0.42292 2:-0.490439 3:-0.533867 4:-0.567855 5:-0.316267 6:-0.461735 7:-0.595995 
1 1:-0.463257 2:-0.521648 3:-0.596911 4:-0.614018 5:-0.455111 6:-0.597911 7:-0.732708 
1 1:-0.772244 2:-0.53185 3:-0.552288 4:-0.555408 5:-0.340891 6:-0.40294 7:-0.559298 
1 1:-0.730459 2:-0.776996 3:-0.84016 4:-0.848701 5:-0.81581 6:-0.801263 7:-0.848701 
1 1:-0.727004 2:-0.770754 3:-0.829291 4:-0.837825 5:-0.787895 6:-0.778426 7:-0.845344 
1 1:-0.755975 2:-0.803325 3:-0.874485 4:-0.89861 5:-0.877613 6:-0.87415 7:-0.905771 
1 1:-0.697476 2:-0.734665 3:-0.744165 4:-0.700785 5:-0.608338 6:-0.453596 7:-0.602477 
1 1:-0.688339 2:-0.724791 3:-0.730664 4:-0.680121 5:-0.594685 6:-0.427114 7:-0.575042 
1 1:-0.678422 2:-0.713783 3:-0.72357 4:-0.683142 5:-0.574694 6:-0.461249 7:-0.600162 
1 1:-0.466711 2:-0.527311 3:-0.564874 4:-0.574985 5:-0.423661 6:-0.5526 7:-0.689182 
1 1:-0.705387 2:-0.739204 3:-0.729405 4:-0.623565 5:-0.552752 6:-0.460398 7:-0.555826 
1 1:-0.687002 2:-0.717642 3:-0.703318 4:-0.582598 5:-0.504358 6:-0.411443 7:-0.528043 
1 1:-0.674188 2:-0.707768 3:-0.689359 4:-0.560483 5:-0.485585 6:-0.38484 7:-0.50628 
1 1:-0.707393 2:-0.741701 3:-0.730549 4:-0.621027 5:-0.549095 6:-0.453596 7:-0.546796 
1 1:-0.681542 2:-0.715485 3:-0.735698 4:-0.689547 5:-0.612117 6:-0.508625 7:-0.608844 
1 1:-0.65012 2:-0.683141 3:-0.695652 4:-0.6371 5:-0.556043 6:-0.437196 7:-0.546102 
1 1:-0.772244 2:-0.550009 3:-0.576087 4:-0.571722 5:-0.33248 6:-0.37585 7:-0.568791 
1 1:-0.535462 2:-0.583158 3:-0.612128 4:-0.601571 5:-0.445359 6:-0.606414 7:-0.695896 
1 1:-0.615243 2:-0.638087 3:-0.600686 4:-0.476254 5:-0.367831 6:-0.238217 7:-0.392603 
1 1:-0.643546 2:-0.661806 3:-0.630435 4:-0.515529 5:-0.341866 6:-0.287293 7:-0.412977 
1 1:-0.772244 2:-0.600636 3:-0.547597 4:-0.427674 5:-0.272384 6:-0.250607 7:-0.435434 
1 1:-0.608223 2:-0.624922 3:-0.589245 4:-0.483505 5:-0.392942 6:-0.428936 7:-0.560572 
1 1:-0.597638 2:-0.619021 3:-0.593822 4:-0.481329 5:-0.373438 6:-0.400632 7:-0.55872 
1 1:-0.622152 2:-0.639562 3:-0.611899 4:-0.499698 5:-0.408301 6:-0.444728 7:-0.586039 
1 1:-0.61268 2:-0.629802 3:-0.594851 4:-0.481329 5:-0.396843 6:-0.43671 7:-0.561266 
1 1:-0.6236 2:-0.647393 3:-0.602403 4:-0.473958 5:-0.377948 6:-0.207969 7:-0.361926 
1 1:-0.692685 2:-0.727969 3:-0.722426 4:-0.607251 5:-0.482904 6:-0.230928 7:-0.327198 
1 1:-0.661151 2:-0.698235 3:-0.700801 4:-0.590816 5:-0.473761 6:-0.205782 7:-0.323957 
1 1:-0.682879 2:-0.722295 3:-0.724714 4:-0.613414 5:-0.484245 6:-0.211613 7:-0.343289 
1 1:-0.690902 2:-0.729331 3:-0.72746 4:-0.615106 5:-0.490949 6:-0.225705 7:-0.328934 
1 1:-0.772244 2:-0.693809 3:-0.698513 4:-0.596133 5:-0.48717 6:-0.246113 7:-0.357412 
1 1:-0.598083 2:-0.624014 3:-0.605606 4:-0.508036 5:-0.425611 6:-0.267493 7:-0.442843 
1 1:-0.600535 2:-0.623787 3:-0.596682 4:-0.49571 5:-0.417444 6:-0.308066 7:-0.49563 
1 1:-0.599978 2:-0.62583 3:-0.609039 4:-0.517341 5:-0.418663 6:-0.306973 7:-0.49262 
1 1:-0.648448 2:-0.678034 3:-0.66373 4:-0.563625 5:-0.460962 6:-0.27223 7:-0.389825 
1 1:-0.621037 2:-0.652386 3:-0.638101 4:-0.534139 5:-0.433291 6:-0.239189 7:-0.384384 
1 1:-0.658254 2:-0.691539 3:-0.686499 4:-0.589124 5:-0.469007 6:-0.25984 7:-0.397928 
1 1:-0.677308 2:-0.707882 3:-0.695995 4:-0.595045 5:-0.475468 6:-0.27381 7:-0.403832 
1 1:-0.665162 2:-0.69937 3:-0.691762 4:-0.592145 5:-0.470592 6:-0.253158 7:-0.380101 
1 1:-0.653908 2:-0.677921 3:-0.631922 4:-0.458731 5:-0.359054 6:-0.193878 7:-0.319442 
1 1:-0.663602 2:-0.687908 3:-0.664874 4:-0.575468 5:-0.486926 6:-0.289359 7:-0.392719 
1 1:-0.651123 2:-0.676673 3:-0.653661 4:-0.552145 5:-0.458889 6:-0.259475 7:-0.356833 
1 1:-0.620369 2:-0.64762 3:-0.625744 4:-0.530272 5:-0.434997 6:-0.252308 7:-0.373039 
1 1:-0.652571 2:-0.676559 3:-0.64508 4:-0.546949 5:-0.455842 6:-0.26895 7:-0.384037 
1 1:-0.687113 2:-0.717188 3:-0.69222 4:-0.545982 5:-0.421345 6:-0.22449 7:-0.308792 
1 1:-0.687336 2:-0.717982 3:-0.694737 4:-0.541994 5:-0.408911 6:-0.205782 7:-0.296058 
1 1:-0.679536 2:-0.712535 3:-0.693249 4:-0.547311 5:-0.415859 6:-0.216958 7:-0.325114 
1 1:-0.691682 2:-0.72377 3:-0.711098 4:-0.582961 5:-0.46986 6:-0.309159 7:-0.384963 
1 1:-0.772244 2:-0.687681 3:-0.693135 4:-0.554079 5:-0.427196 6:-0.238217 7:-0.337153 
1 1:-0.646108 2:-0.676105 3:-0.662586 4:-0.602538 5:-0.444262 6:-0.431122 7:-0.562424 
1 1:-0.639423 2:-0.662713 3:-0.641762 4:-0.558187 5:-0.464131 6:-0.371234 7:-0.516004 
1 1:-0.648226 2:-0.675878 3:-0.642906 4:-0.555045 5:-0.484854 6:-0.39638 7:-0.529895 
1 1:-0.772244 2:-0.641037 3:-0.630549 4:-0.550453 5:-0.481441 6:-0.386783 7:-0.5101 
1 1:-0.656694 2:-0.689724 3:-0.698055 4:-0.635045 5:-0.569696 6:-0.461978 7:-0.579209 
1 1:-0.616135 2:-0.650684 3:-0.650801 4:-0.574139 5:-0.499116 6:-0.395651 7:-0.532442 
1 1:-0.610675 2:-0.646598 3:-0.654119 4:-0.578006 5:-0.49997 6:-0.395287 7:-0.534873 
1 1:-0.634743 2:-0.667707 3:-0.671625 4:-0.603625 5:-0.533248 6:-0.42432 7:-0.554205 
1 1:-0.62906 2:-0.664189 3:-0.673341 4:-0.599758 5:-0.529103 6:-0.42104 7:-0.527812 
1 1:-0.588166 2:-0.617205 3:-0.616362 4:-0.531722 5:-0.427561 6:-0.250972 7:-0.440181 
1 1:-0.641206 2:-0.672246 3:-0.66762 4:-0.569668 5:-0.433413 6:-0.211978 7:-0.399201 
1 1:-0.63686 2:-0.667707 3:-0.662929 4:-0.558187 5:-0.418297 6:-0.198129 7:-0.40059 
1 1:-0.657363 2:-0.689497 3:-0.686156 4:-0.580665 5:-0.439508 6:-0.212342 7:-0.398507 
1 1:-0.64076 2:-0.672927 3:-0.66659 4:-0.561329 5:-0.410496 6:-0.175899 7:-0.373734 
1 1:-0.471168 2:-0.535153 3:-0.601602 4:-0.623915 5:-0.523862 6:-0.75413 7:-0.802165 
1 1:-0.616135 2:-0.652046 3:-0.691876 4:-0.676133 5:-0.6393 6:-0.569849 7:-0.619726 
1 1:-0.61112 2:-0.657607 3:-0.726316 4:-0.74597 5:-0.614433 6:-0.6957 7:-0.783875 
1 1:-0.604658 2:-0.649322 3:-0.704691 4:-0.689063 5:-0.595404 6:-0.522716 7:-0.679227 
1 1:-0.607332 2:-0.663735 3:-0.729634 4:-0.766767 5:-0.482294 6:-0.716472 7:-0.805175 
1 1:-0.535684 2:-0.567157 3:-0.597368 4:-0.574139 5:-0.521302 6:-0.514577 7:-0.661168 
1 1:-0.551284 2:-0.582931 3:-0.60984 4:-0.585498 5:-0.539587 6:-0.53292 7:-0.67286 
1 1:-0.551284 2:-0.582931 3:-0.613844 4:-0.591541 5:-0.554946 6:-0.550049 7:-0.683394 
1 1:-0.557078 2:-0.587244 3:-0.619794 4:-0.597462 5:-0.551289 6:-0.53207 7:-0.665914 
1 1:-0.772244 2:-0.559099 3:-0.595423 4:-0.584048 5:-0.527519 6:-0.523688 7:-0.703073 
1 1:-0.537802 2:-0.618113 3:-0.698741 4:-0.744773 5:-0.656366 6:-0.806973 7:-0.901372 
1 1:-0.567664 2:-0.634909 3:-0.656751 4:-0.690381 5:-0.57957 6:-0.716351 7:-0.809805 
1 1:-0.772244 2:-0.554559 3:-0.612586 4:-0.643263 5:-0.449016 6:-0.574587 7:-0.665683 
1 1:-0.772244 2:-0.78948 3:-0.875858 4:-0.898248 5:-0.898946 6:-0.880345 7:-0.86537 
1 1:-0.772244 2:-0.62322 3:-0.696682 4:-0.74006 5:-0.601024 6:-0.717201 7:-0.778665 
1 1:-0.772244 2:-0.619815 3:-0.701831 4:-0.750937 5:-0.572012 6:-0.74915 7:-0.854836 
1 1:-0.510836 2:-0.571469 3:-0.64611 4:-0.672254 5:-0.526787 6:-0.633989 7:-0.750072 
1 1:-0.772244 2:-0.502468 3:-0.579634 4:-0.613051 5:-0.494228 6:-0.729592 7:-0.801007 
1 1:-0.558638 2:-0.615502 3:-0.639359 4:-0.66719 5:-0.488389 6:-0.600705 7:-0.680963 
1 1:-0.71185 2:-0.761902 3:-0.836041 4:-0.863202 5:-0.846529 6:-0.844388 7:-0.882966 
1 1:-0.622375 2:-0.668842 3:-0.734211 4:-0.765317 5:-0.567867 6:-0.691327 7:-0.807374 
1 1:-0.594741 2:-0.656358 3:-0.716018 4:-0.748157 5:-0.549826 6:-0.713314 7:-0.807721 
1 1:-0.665274 2:-0.721387 3:-0.80389 4:-0.837813 5:-0.735357 6:-0.847789 7:-0.909244 
1 1:-0.562527 2:-0.619248 3:-0.696568 4:-0.720604 5:-0.619796 6:-0.705539 7:-0.771951 
1 1:-0.772244 2:-0.609715 3:-0.672311 4:-0.700302 5:-0.557628 6:-0.659014 7:-0.771604 
