svm_type c_svc
kernel_type rbf
gamma 0.1
nr_class 2
total_sv 4
rho -0.183623742042
label 1 -1
nr_sv 3 1
SV
0.0 1:0.1465 2:0.1742 3:0.3277 4:0.5003 5:0.6162 6:0.691 7:0.6547 
0.313089925939 1:0.8123 2:0.7521 3:0.6842 4:0.6851 5:0.6604 6:0.4156 7:0.2995 
0.317104091219 1:0.0 2:0.223 3:0.2881 4:0.3425 5:0.5023 6:1.6 7:0.5992 
0.369805982842 1:-0.1513 2:-0.1231 3:-0.0797 4:-0.055 5:0.04121 6:0.0222 7:0.0112 
