svm_type c_svc
kernel_type rbf
gamma 0.142857
nr_class 2
total_sv 460
rho 0.182516
label 0 1
nr_sv 230 230
SV
1 1:0.0493 2:0.0415 3:0.0447 4:0.0492 5:0.0813 6:0.1061 7:0.1072 
1 1:0.0667 2:0.0574 3:0.0574 4:0.0674 5:0.0903 6:0.1067 7:0.0968 
1 1:0.1442 2:0.1525 3:0.2139 4:0.2849 5:0.3306 6:0.3625 7:0.3357 
1 1:0.1553 2:0.1633 3:0.225 4:0.293 5:0.3402 6:0.3671 7:0.3379 
1 1:0.1476 2:0.1569 3:0.2132 4:0.268 5:0.3071 6:0.3323 7:0.2942 
1 1:0.1524 2:0.1583 3:0.2133 4:0.2763 5:0.3241 6:0.3523 7:0.3166 
1 1:0 2:0.1757 3:0.2193 4:0.2785 5:0.3271 6:0.3466 7:0.3194 
1 1:0.2167 2:0.2043 3:0.2546 4:0.2586 5:0.35221 6:0.2057 7:0.1887 
1 1:0.0736 2:0.0729 3:0.1263 4:0.2036 5:0.2262 6:0.4383 7:0.3198 
1 1:0.0784 2:0.0803 3:0.1333 4:0.2132 5:0.2432 6:0.4687 7:0.35 
1 1:0.0919 2:0.0952 3:0.1539 4:0.2272 5:0.2654 6:0.4453 7:0.3107 
1 1:0.0602 2:0.0602 3:0.1101 4:0.1793 5:0.2003 6:0.4157 7:0.2922 
1 1:0.0797 2:0.0792 3:0.136 4:0.2143 5:0.2429 6:0.453 7:0.3311 
1 1:0.1154 2:0.1252 3:0.2078 4:0.3075 5:0.3739 6:0.5357 7:0.4426 
1 1:0.0989 2:0.1089 3:0.2023 4:0.3204 5:0.3859 6:0.5432 7:0.449 
1 1:0.0102 2:0.0145 3:0.0464 4:0.076 5:0.1005 6:0.091 7:0.051 
1 1:0.0987 2:0.1055 3:0.1576 4:0.2181 5:0.27 6:0.2564 7:0.1652 
1 1:0.1763 2:0.1832 3:0.2545 4:0.3278 5:0.3851 6:0.3777 7:0.2859 
1 1:0.0885 2:0.0944 3:0.1462 4:0.2031 5:0.2583 6:0.2535 7:0.1663 
1 1:0.0929 2:0.1002 3:0.1502 4:0.2123 5:0.2639 6:0.2579 7:0.1677 
1 1:0.0919 2:0.1083 3:0.2044 4:0.3235 5:0.4136 6:0.5027 7:0.4661 
1 1:0.1045 2:0.1176 3:0.202 4:0.3097 5:0.3961 6:0.4883 7:0.4446 
1 1:0.1023 2:0.119 3:0.2014 4:0.3107 5:0.4023 6:0.4917 7:0.443 
1 1:0.093 2:0.1106 3:0.2033 4:0.3192 5:0.4125 6:0.4972 7:0.4432 
1 1:0.1415 2:0.1483 3:0.2285 4:0.3342 5:0.4186 6:0.467 7:0.4338 
1 1:0.0652 2:0.0774 3:0.1464 4:0.2217 5:0.2941 6:0.3592 7:0.33 
1 1:0.0841 2:0.0953 3:0.1552 4:0.2219 5:0.2775 6:0.3626 7:0.3311 
1 1:0.0859 2:0.0953 3:0.1572 4:0.2257 5:0.2884 6:0.3646 7:0.334 
1 1:0.0586 2:0.0723 3:0.1372 4:0.2 5:0.2597 6:0.3504 7:0.3121 
1 1:0.0971 2:0.1047 3:0.16 4:0.2262 5:0.2842 6:0.3409 7:0.3114 
1 1:0.0762 2:0.0817 3:0.1444 4:0.2151 5:0.2611 6:0.3784 7:0.3723 
1 1:0.1034 2:0.1097 3:0.175 4:0.2474 5:0.2906 6:0.4207 7:0.3993 
1 1:0.0835 2:0.0915 3:0.1562 4:0.2296 5:0.2714 6:0.4066 7:0.4048 
1 1:0.0723 2:0.0754 3:0.1395 4:0.2095 5:0.2545 6:0.3684 7:0.3571 
1 1:0 2:0.105 3:0.1491 4:0.2105 5:0.2535 6:0.3673 7:0.3402 
1 1:0.0657 2:0.0742 3:0.1329 4:0.1962 5:0.2341 6:0.3061 7:0.2951 
1 1:0.0971 2:0.1046 3:0.1645 4:0.2342 5:0.2746 6:0.3467 7:0.3258 
1 1:0.085 2:0.0907 3:0.1509 4:0.2229 5:0.2636 6:0.34 7:0.3303 
1 1:0.0684 2:0.0787 3:0.135 4:0.1979 5:0.2373 6:0.306 7:0.2876 
1 1:0 2:0.102 3:0.1457 4:0.2014 5:0.2359 6:0.3072 7:0.2867 
1 1:0.0769 2:0.08 3:0.1341 4:0.1937 5:0.2307 6:0.322 7:0.2965 
1 1:0.0894 2:0.0921 3:0.1422 4:0.2014 5:0.2406 6:0.3302 7:0.3001 
1 1:0.0832 2:0.0861 3:0.1331 4:0.1929 5:0.233 6:0.3201 7:0.2933 
1 1:0.0784 2:0.0814 3:0.1313 4:0.1889 5:0.2284 6:0.3194 7:0.2877 
1 1:0 2:0.1106 3:0.1523 4:0.2022 5:0.2449 6:0.3184 7:0.2962 
1 1:0.0924 2:0.1036 3:0.196 4:0.3082 5:0.3786 6:0.4907 7:0.4505 
1 1:0.1041 2:0.1153 3:0.2036 4:0.3175 5:0.4013 6:0.5161 7:0.4676 
1 1:0.1015 2:0.1102 3:0.1873 4:0.2972 5:0.3842 6:0.5 7:0.443 
1 1:0.0884 2:0.1035 3:0.1887 4:0.3044 5:0.3747 6:0.4869 7:0.4297 
1 1:0 2:0.1204 3:0.1883 4:0.289 5:0.3611 6:0.4789 7:0.4252 
1 1:0.0402 2:0.04 3:0.0772 4:0.1186 5:0.1461 6:0.2431 7:0.2156 
1 1:0.0842 2:0.0886 3:0.1409 4:0.2054 5:0.2532 6:0.3995 7:0.347 
1 1:0.0813 2:0.0831 3:0.1271 4:0.1851 5:0.2262 6:0.3526 7:0.3032 
1 1:0.0446 2:0.0452 3:0.0826 4:0.1244 5:0.1542 6:0.2615 7:0.2191 
1 1:0 2:0.0813 3:0.1203 4:0.1687 5:0.2029 6:0.3155 7:0.2682 
1 1:0.1072 2:0.1114 3:0.1631 4:0.2218 5:0.2417 6:0.266 7:0.2565 
1 1:0.1122 2:0.1157 3:0.1653 4:0.2243 5:0.2445 6:0.272 7:0.2602 
1 1:0.1094 2:0.1117 3:0.1555 4:0.2134 5:0.2341 6:0.2611 7:0.2512 
1 1:0.1063 2:0.1095 3:0.1565 4:0.2115 5:0.2304 6:0.2543 7:0.2382 
1 1:0.1122 2:0.1141 3:0.1632 4:0.2234 5:0.2454 6:0.2704 7:0.2582 
1 1:0.0934 2:0.0995 3:0.157 4:0.2369 5:0.2676 6:0.2994 7:0.2893 
1 1:0.1052 2:0.1105 3:0.1669 4:0.2474 5:0.2834 6:0.3196 7:0.3058 
1 1:0.1003 2:0.1042 3:0.1572 4:0.237 5:0.2741 6:0.3072 7:0.2919 
1 1:0.0913 2:0.0942 3:0.1473 4:0.2186 5:0.25 6:0.2802 7:0.2628 
1 1:0.1004 2:0.1059 3:0.1631 4:0.2456 5:0.2836 6:0.3173 7:0.3011 
1 1:0.0723 2:0.0791 3:0.155 4:0.2531 5:0.29 6:0.4499 7:0.3975 
1 1:0.0773 2:0.0822 3:0.1549 4:0.2541 5:0.2954 6:0.467 7:0.4094 
1 1:0.063 2:0.0653 3:0.1311 4:0.2323 5:0.2732 6:0.453 7:0.3911 
1 1:0.0691 2:0.0731 3:0.1425 4:0.2375 5:0.2745 6:0.4415 7:0.374 
1 1:0.0732 2:0.0804 3:0.1542 4:0.2549 5:0.2954 6:0.4645 7:0.4007 
1 1:0.1001 2:0.1073 3:0.1625 4:0.2339 5:0.2665 6:0.2991 7:0.2842 
1 1:0.1192 2:0.1246 3:0.1833 4:0.263 5:0.3006 6:0.3352 7:0.3197 
1 1:0.1125 2:0.1162 3:0.1714 4:0.2473 5:0.2821 6:0.3187 7:0.3028 
1 1:0.1042 2:0.109 3:0.1605 4:0.2292 5:0.2624 6:0.2927 7:0.2709 
1 1:0.1132 2:0.1189 3:0.1779 4:0.2554 5:0.2924 6:0.3284 7:0.3056 
1 1:0.1126 2:0.1206 3:0.1933 4:0.2752 5:0.3079 6:0.3594 7:0.3508 
1 1:0.116 2:0.1252 3:0.1975 4:0.2834 5:0.3189 6:0.3735 7:0.369 
1 1:0.1195 2:0.1261 3:0.187 4:0.261 5:0.2937 6:0.345 7:0.3361 
1 1:0.1102 2:0.1189 3:0.1852 4:0.27 5:0.3054 6:0.354 7:0.3456 
1 1:0.1115 2:0.1201 3:0.19 4:0.272 5:0.3053 6:0.361 7:0.3531 
1 1:0.1077 2:0.1135 3:0.1803 4:0.2701 5:0.3155 6:0.4104 7:0.4005 
1 1:0.1099 2:0.1162 3:0.1846 4:0.2816 5:0.3306 6:0.4309 7:0.4233 
1 1:0.1123 2:0.1147 3:0.1755 4:0.2654 5:0.314 6:0.4111 7:0.3997 
1 1:0.1006 2:0.1061 3:0.1694 4:0.2634 5:0.3124 6:0.4089 7:0.3997 
1 1:0.1062 2:0.1136 3:0.1807 4:0.2756 5:0.3246 6:0.4217 7:0.4096 
1 1:0.0831 2:0.0919 3:0.1594 4:0.2296 5:0.2552 6:0.3252 7:0.2771 
1 1:0.0872 2:0.0924 3:0.1546 4:0.2217 5:0.2481 6:0.3176 7:0.2727 
1 1:0.0969 2:0.1019 3:0.1621 4:0.2305 5:0.2594 6:0.3265 7:0.275 
1 1:0.0861 2:0.0933 3:0.1551 4:0.2239 5:0.2511 6:0.3147 7:0.2657 
1 1:0.0832 2:0.0899 3:0.1513 4:0.2179 5:0.2441 6:0.313 7:0.2651 
1 1:0.0695 2:0.0723 3:0.1136 4:0.167 5:0.1949 6:0.2151 7:0.2063 
1 1:0.0857 2:0.0882 3:0.1322 4:0.1925 5:0.2248 6:0.2462 7:0.2352 
1 1:0.0804 2:0.0805 3:0.1197 4:0.1756 5:0.2074 6:0.2279 7:0.2164 
1 1:0.0673 2:0.0695 3:0.1117 4:0.1697 5:0.2004 6:0.224 7:0.2133 
1 1:0.0789 2:0.0807 3:0.1242 4:0.1836 5:0.2166 6:0.2402 7:0.2269 
1 1:0.0924 2:0.0997 3:0.1623 4:0.2249 5:0.2479 6:0.2851 7:0.2921 
1 1:0.1097 2:0.1145 3:0.1774 4:0.2423 5:0.2655 6:0.3057 7:0.3132 
1 1:0.114 2:0.1199 3:0.1779 4:0.2374 5:0.2622 6:0.2986 7:0.2969 
1 1:0.1047 2:0.1105 3:0.1691 4:0.2289 5:0.2524 6:0.2923 7:0.2886 
1 1:0.1044 2:0.1101 3:0.1662 4:0.2265 5:0.2495 6:0.2867 7:0.2948 
1 1:0.0953 2:0.1032 3:0.1697 4:0.2486 5:0.2552 6:0.2937 7:0.2674 
1 1:0.1065 2:0.115 3:0.1792 4:0.2572 5:0.2667 6:0.3103 7:0.2841 
1 1:0.1197 2:0.1246 3:0.1823 4:0.2484 5:0.2579 6:0.2902 7:0.2572 
1 1:0.1034 2:0.1092 3:0.1747 4:0.2523 5:0.2644 6:0.2995 7:0.2633 
1 1:0.1091 2:0.116 3:0.1783 4:0.2536 5:0.2604 6:0.2984 7:0.2691 
1 1:0.0919 2:0.1019 3:0.1704 4:0.2555 5:0.2907 6:0.3352 7:0.3325 
1 1:0.1084 2:0.1162 3:0.1845 4:0.2707 5:0.3064 6:0.3542 7:0.354 
1 1:0.1143 2:0.1195 3:0.1775 4:0.2541 5:0.2907 6:0.3295 7:0.316 
1 1:0.1019 2:0.1092 3:0.1766 4:0.2622 5:0.2992 6:0.3443 7:0.3308 
1 1:0.1072 2:0.1136 3:0.1776 4:0.259 5:0.2947 6:0.3417 7:0.3373 
1 1:0.1095 2:0.1242 3:0.2169 4:0.3156 5:0.335 6:0.4023 7:0.365 
1 1:0.1219 2:0.1374 3:0.229 4:0.3313 5:0.3652 6:0.4442 7:0.4037 
1 1:0.1485 2:0.1629 3:0.246 4:0.3392 5:0.3753 6:0.4369 7:0.3925 
1 1:0.119 2:0.1322 3:0.2172 4:0.3114 5:0.3359 6:0.4019 7:0.3513 
1 1:0.1217 2:0.1337 3:0.2177 4:0.3132 5:0.3401 6:0.4151 7:0.3762 
1 1:0.0866 2:0.0985 3:0.1802 4:0.2859 5:0.3293 6:0.4294 7:0.4288 
1 1:0.0843 2:0.0969 3:0.1782 4:0.2818 5:0.3281 6:0.4302 7:0.4254 
1 1:0.0894 2:0.0991 3:0.1752 4:0.2762 5:0.3252 6:0.4255 7:0.4143 
1 1:0.0952 2:0.1061 3:0.1853 4:0.2882 5:0.3385 6:0.4413 7:0.4248 
1 1:0.0954 2:0.1032 3:0.1781 4:0.2738 5:0.3187 6:0.4204 7:0.4171 
1 1:0.0454 2:0.0481 3:0.1072 4:0.2178 5:0.2655 6:0.4253 7:0.4056 
1 1:0.0781 2:0.0777 3:0.1282 4:0.2308 5:0.2817 6:0.4448 7:0.4096 
1 1:0.1194 2:0.1273 3:0.2 4:0.306 5:0.3481 6:0.4705 7:0.4357 
1 1:0.117 2:0.1175 3:0.1714 4:0.2633 5:0.3072 6:0.442 7:0.3927 
1 1:0.085 2:0.0872 3:0.1445 4:0.2404 5:0.2832 6:0.4225 7:0.3998 
1 1:0.0446 2:0.052 3:0.1162 4:0.2287 5:0.2767 6:0.4044 7:0.3912 
1 1:0.071 2:0.0751 3:0.1357 4:0.2446 5:0.2895 6:0.42 7:0.4056 
1 1:0.0803 2:0.0833 3:0.1443 4:0.2514 5:0.3007 6:0.4354 7:0.4036 
1 1:0.0959 2:0.101 3:0.1596 4:0.2591 5:0.3032 6:0.4294 7:0.4019 
1 1:0.0856 2:0.0901 3:0.1525 4:0.2626 5:0.3142 6:0.4503 7:0.4299 
1 1:0.0432 2:0.0519 3:0.1391 4:0.2833 5:0.3435 6:0.5125 7:0.4951 
1 1:0.0732 2:0.0788 3:0.1518 4:0.2822 5:0.3439 6:0.5117 7:0.4798 
1 1:0.0953 2:0.0991 3:0.171 4:0.2942 5:0.3522 6:0.5128 7:0.4833 
1 1:0.1002 2:0.1044 3:0.1728 4:0.2899 5:0.3461 6:0.5005 7:0.4503 
0.4737073427483805 1:0.0666 2:0.0714 3:0.1507 4:0.2996 5:0.3695 6:0.5661 7:0.5388 
1 1:0.0563 2:0.0656 3:0.158 4:0.3065 5:0.371 6:0.5103 7:0.5061 
1 1:0.085 2:0.0919 3:0.1723 4:0.3082 5:0.3737 6:0.5147 7:0.4944 
1 1:0.1284 2:0.1322 3:0.2059 4:0.3256 5:0.3828 6:0.5087 7:0.467 
1 1:0.0802 2:0.0846 3:0.1668 4:0.3087 5:0.3759 6:0.5241 7:0.5148 
1 1:0.074 2:0.0811 3:0.1419 4:0.2242 5:0.3353 6:0.4256 7:0.3045 
1 1:0.0694 2:0.0783 3:0.1437 4:0.2267 5:0.3236 6:0.4123 7:0.3053 
1 1:0.091 2:0.0982 3:0.1745 4:0.2748 5:0.3817 6:0.4891 7:0.3711 
1 1:0.0979 2:0.1063 3:0.1699 4:0.2614 5:0.3359 6:0.4645 7:0.3473 
1 1:0.0762 2:0.0916 3:0.1694 4:0.249 5:0.2923 6:0.3849 7:0.364 
1 1:0.0905 2:0.1011 3:0.1749 4:0.2576 5:0.3115 6:0.4023 7:0.3632 
1 1:0.1109 2:0.1226 3:0.1921 4:0.2796 5:0.3337 6:0.4363 7:0.4109 
1 1:0.0842 2:0.0986 3:0.1738 4:0.2539 5:0.3015 6:0.389 7:0.3576 
1 1:0 2:0.1282 3:0.1915 4:0.2641 5:0.331 6:0.4186 7:0.3758 
1 1:0.0894 2:0.1004 3:0.1732 4:0.2772 5:0.3744 6:0.4929 7:0.4076 
1 1:0.1131 2:0.1225 3:0.195 4:0.2982 5:0.3923 6:0.5124 7:0.4229 
1 1:0.1081 2:0.1181 3:0.1895 4:0.2957 5:0.3974 6:0.5246 7:0.4397 
1 1:0.1131 2:0.12 3:0.1859 4:0.2844 5:0.3743 6:0.4991 7:0.4185 
1 1:0 2:0.1294 3:0.1906 4:0.281 5:0.3667 6:0.4809 7:0.3854 
1 1:0.13 2:0.1424 3:0.2332 4:0.3343 5:0.412 6:0.4583 7:0.4454 
1 1:0.1184 2:0.1316 3:0.2239 4:0.3295 5:0.4176 6:0.4745 7:0.4322 
1 1:0.1231 2:0.134 3:0.2189 4:0.3044 5:0.3996 6:0.4377 7:0.3746 
1 1:0 2:0.1365 3:0.2292 4:0.3233 5:0.4149 6:0.4604 7:0.4377 
1 1:0 2:0.2165 3:0.2506 4:0.264 5:0.4243 6:0.3654 7:0.3058 
1 1:0 2:0.2976 3:0.3304 4:0.3211 5:0.4932 6:0.4046 7:0.3524 
1 1:0.283 2:0.2682 3:0.2882 4:0.3005 5:0.42421 6:0.4082 7:0.3114 
1 1:0.1152 2:0.1242 3:0.2096 4:0.3093 5:0.3533 6:0.4954 7:0.4256 
1 1:0.1342 2:0.1431 3:0.2231 4:0.314 5:0.3527 6:0.4955 7:0.426 
1 1:0.1169 2:0.126 3:0.2062 4:0.3114 5:0.3594 6:0.512 7:0.4416 
1 1:0.1161 2:0.1252 3:0.2151 4:0.3224 5:0.3694 6:0.5143 7:0.4361 
1 1:0.1286 2:0.1362 3:0.2274 4:0.3291 5:0.3788 6:0.5249 7:0.4438 
1 1:0.1435 2:0.1513 3:0.2209 4:0.3181 5:0.3662 6:0.3936 7:0.3851 
1 1:0.1422 2:0.1482 3:0.2147 4:0.3165 5:0.3727 6:0.3993 7:0.386 
1 1:0.1265 2:0.1294 3:0.1869 4:0.2865 5:0.3399 6:0.364 7:0.3461 
1 1:0.1222 2:0.1296 3:0.1943 4:0.2963 5:0.3463 6:0.374 7:0.3624 
1 1:0.1413 2:0.149 3:0.2166 4:0.3222 5:0.3775 6:0.4041 7:0.3984 
1 1:0.1052 2:0.1156 3:0.1699 4:0.2197 5:0.2993 6:0.3895 7:0.3469 
1 1:0.1302 2:0.1385 3:0.1946 4:0.2496 5:0.3313 6:0.4242 7:0.3766 
1 1:0.1269 2:0.137 3:0.2001 4:0.2651 5:0.368 6:0.4763 7:0.4042 
1 1:0.1174 2:0.1214 3:0.1632 4:0.2051 5:0.2902 6:0.3796 7:0.321 
1 1:0.4932 2:0.4601 3:0.45121 4:0.4512 5:0.519 6:0.2351 7:0.1911 
1 1:0.30621 2:0.2832 3:0.3223 4:0.3351 5:0.4341 6:0.4474 7:0.3507 
1 1:0.1231 2:0.1304 3:0.2122 4:0.3036 5:0.3388 6:0.5166 7:0.4408 
1 1:0.1322 2:0.1393 3:0.2156 4:0.3067 5:0.3467 6:0.5266 7:0.4516 
1 1:0.1292 2:0.1361 3:0.2151 4:0.3105 5:0.3503 6:0.5344 7:0.4581 
1 1:0 2:0.146 3:0.222 4:0.3085 5:0.3521 6:0.5186 7:0.4389 
1 1:0.0441 2:0.0349 3:0.0381 4:0.0462 5:0.0662 6:0.1149 7:0.1271 
1 1:0.0914 2:0.0832 3:0.1118 4:0.111 5:0.1933 6:0.0755 7:0.0232 
1 1:0.1146 2:0.1045 3:0.1174 4:0.1223 5:0.1985 6:0.2125 7:0.115 
1 1:0.0966 2:0.0932 3:0.1307 4:0.1393 5:0.2116 6:0.1802 7:0.08 
1 1:0.1223 2:0.1143 3:0.1328 4:0.1416 5:0.2043 6:0.1834 7:0.0952 
1 1:0.0703 2:0.0547 3:0.0607 4:0.0567 5:0.0854 6:0.0714 7:0.0297 
1 1:0.0492 2:0.0492 3:0.0751 4:0.1047 5:0.1163 6:0.1063 7:0.0959 
1 1:0.0707 2:0.0726 3:0.1053 4:0.1469 5:0.1652 6:0.1543 7:0.1397 
1 1:0.0821 2:0.081 3:0.1102 4:0.1437 5:0.1614 6:0.1529 7:0.13 
1 1:0.0564 2:0.0543 3:0.0792 4:0.1121 5:0.1303 6:0.1219 7:0.1073 
1 1:0 2:0.0799 3:0.1015 4:0.1242 5:0.139 6:0.1265 7:0.1091 
1 1:0.0647 2:0.0656 3:0.0896 4:0.1205 5:0.1641 6:0.1935 7:0.1758 
1 1:0.0783 2:0.0782 3:0.109 4:0.1442 5:0.1833 6:0.2062 7:0.1811 
1 1:0.0717 2:0.0694 3:0.0955 4:0.1237 5:0.1654 6:0.1949 7:0.1699 
1 1:0.0627 2:0.062 3:0.0913 4:0.1249 5:0.1641 6:0.1895 7:0.1721 
1 1:0.058 2:0.0581 3:0.0862 4:0.1169 5:0.1597 6:0.19 7:0.172 
1 1:0.0616 2:0.0621 3:0.0971 4:0.1322 5:0.1642 6:0.1671 7:0.1464 
1 1:0.0602 2:0.0609 3:0.0884 4:0.117 5:0.1451 6:0.1453 7:0.1285 
1 1:0.0574 2:0.0576 3:0.0849 4:0.1192 5:0.1607 6:0.1501 7:0.1263 
1 1:0.0441 2:0.0456 3:0.0713 4:0.1044 5:0.1452 6:0.1328 7:0.1157 
1 1:0.0744 2:0.0803 3:0.121 4:0.164 5:0.188 6:0.1841 7:0.1489 
1 1:0.083 2:0.0869 3:0.1261 4:0.1655 5:0.1896 6:0.1871 7:0.1474 
1 1:0.086 2:0.0902 3:0.1261 4:0.1581 5:0.1807 6:0.1753 7:0.1401 
1 1:0.0672 2:0.0724 3:0.1094 4:0.1503 5:0.1753 6:0.1721 7:0.1399 
1 1:0 2:0.0909 3:0.1132 4:0.1419 5:0.2061 6:0.1645 7:0.1242 
1 1:0.0495 2:0.0555 3:0.097 4:0.147 5:0.1886 6:0.2142 7:0.1844 
1 1:0.0709 2:0.0752 3:0.1204 4:0.1723 5:0.2192 6:0.2387 7:0.201 
1 1:0.081 2:0.0837 3:0.1252 4:0.1716 5:0.2097 6:0.2282 7:0.1925 
1 1:0.0491 2:0.0519 3:0.0931 4:0.1393 5:0.1782 6:0.211 7:0.1827 
1 1:0 2:0.0884 3:0.1084 4:0.1395 5:0.1844 6:0.1985 7:0.1631 
0.9180458691476776 1:0 2:1.6 3:0.384 4:0.368 5:0.4992 6:0.26 7:0.2182 
1 1:0.1023 2:0.1002 3:0.1403 4:0.1755 5:0.3561 6:0.36 7:0.2923 
1 1:0.0774 2:0.0746 3:0.11521 4:0.1473 5:0.3175 6:0.3262 7:0.2713 
1 1:0.0646 2:0.0683 3:0.1271 4:0.1773 5:0.3075 6:0.3533 7:0.3081 
1 1:0.10621 2:0.1069 3:0.1545 4:0.2075 5:0.313 6:0.4252 7:0.3785 
1 1:0 2:0.1866 3:0.2104 4:0.2311 5:0.3386 6:0.3257 7:0.2749 
1 1:0.23721 2:0.2274 3:0.2583 4:0.2642 5:0.4749 6:0.4328 7:0.3446 
1 1:0.0175 2:0.0147 3:0.0226 4:0.0303 5:0.0662 6:0.0762 7:0.0628 
1 1:0.0116 2:0.0077 3:0.0141 4:0.0205 5:0.0492 6:0.0572 7:0.0412 
1 1:0.0299 2:0.027 3:0.0403 4:0.0517 5:0.1014 6:0.109 7:0.0815 
1 1:0.0175 2:0.0129 3:0.0187 4:0.0242 5:0.0627 6:0.0721 7:0.0583 
1 1:0 2:0.0469 3:0.0413 4:0.0489 5:0.096 6:0.0884 7:0.0698 
1 1:0.0726 2:0.0872 3:0.1875 4:0.3167 5:0.3842 6:0.4827 7:0.4513 
1 1:0 2:0.2503 3:0.2497 4:0.2374 5:0.24221 6:0.1635 7:0.1045 
1 1:0.4171 2:0.3737 3:0.3434 4:0.3424 5:0.3281 6:0.28821 7:0.293 
1 1:0.4015 2:0.3644 3:0.337 4:0.3321 5:0.3252 6:0.2981 7:0.2791 
1 1:0.4015 2:0.3644 3:0.337 4:0.3321 5:0.3252 6:0.2981 7:0.2791 
1 1:0 2:0.25 3:0.2395 4:0.2205 5:0.24721 6:0.1732 7:0.1512 
1 1:0.3154 2:0.2922 3:0.28621 4:0.2876 5:0.2825 6:0.2732 7:0.2592 
1 1:0 2:0.23421 3:0.2155 4:0.2044 5:0.21 6:0.1343 7:0.1131 
-1 1:0.0667 2:0.0653 3:0.0913 4:0.1024 5:0.2662 6:0.28921 7:0.2073 
-1 1:0.0736 2:0.0752 3:0.11121 4:0.1566 5:0.2099 6:0.2774 7:0.2738 
-1 1:0.0864 2:0.0903 3:0.1252 4:0.1722 5:0.2255 6:0.2908 7:0.2826 
-1 1:0.1057 2:0.1116 3:0.1544 4:0.2027 5:0.2517 6:0.3062 7:0.2965 
-1 1:0.0923 2:0.0947 3:0.129 4:0.1696 5:0.23721 6:0.2909 7:0.2752 
-1 1:0 2:0.1101 3:0.1295 4:0.1724 5:0.2167 6:0.2804 7:0.2646 
-0.3917532118960581 1:0.1435 2:0.1537 3:0.206 4:0.1704 5:0.0244 6:0.00421 7:0.0047 
-1 1:0 2:0.22921 3:0.2342 4:0.2114 5:0.1834 6:0.1352 7:0.1207 
-1 1:0.1694 2:0.1552 3:0.1716 4:0.1635 5:0.3996 6:0.3042 7:0.2369 
-1 1:0.199 2:0.1887 3:0.1905 4:0.18721 5:0.347 6:0.2692 7:0.2408 
-1 1:0.1486 2:0.1341 3:0.1453 4:0.1554 5:0.2533 6:0.2586 7:0.1991 
-1 1:0.13221 2:0.1199 3:0.1383 4:0.1292 5:0.3445 6:0.2301 7:0.1793 
-1 1:0.0647 2:0.0732 3:0.1273 4:0.1884 5:0.2663 6:0.4292 7:0.3487 
-1 1:0.0821 2:0.08821 3:0.139 4:0.1999 5:0.2776 6:0.4613 7:0.3798 
-1 1:0.07021 2:0.0723 3:0.113 4:0.1544 5:0.2511 6:0.3976 7:0.3113 
-1 1:0.0302 2:0.04 3:0.0864 4:0.137 5:0.2443 6:0.3902 7:0.2819 
-1 1:0 2:0.0754 3:0.1032 4:0.1192 5:0.2492 6:0.3251 7:0.2379 
-1 1:0.0554 2:0.062 3:0.1123 4:0.1818 5:0.3108 6:0.428 7:0.328 
-1 1:0.0842 2:0.0885 3:0.1365 4:0.1957 5:0.3102 6:0.4476 7:0.3497 
-1 1:0.0614 2:0.0602 3:0.11021 4:0.1422 5:0.3069 6:0.3534 7:0.2576 
-1 1:0.0521 2:0.0594 3:0.1052 4:0.165 5:0.3163 6:0.4128 7:0.3027 
-1 1:0.0455 2:0.048 3:0.0927 4:0.12 5:0.346 6:0.3343 7:0.2298 
-1 1:0.0455 2:0.0504 3:0.0822 4:0.1248 5:0.2013 6:0.2608 7:0.1896 
-1 1:0.055 2:0.0545 3:0.08621 4:0.1122 5:0.2352 6:0.2338 7:0.1539 
-1 1:0.1044 2:0.10221 3:0.1362 4:0.1559 5:0.2553 6:0.2793 7:0.2313 
-1 1:0.1972 2:0.181 3:0.1901 4:0.1866 5:0.3561 6:0.291 7:0.2072 
-1 1:0.0581 2:0.0614 3:0.1014 4:0.1434 5:0.2036 6:0.3254 7:0.265 
-1 1:0.1023 2:0.1022 3:0.13721 4:0.1724 5:0.2365 6:0.3285 7:0.2723 
-1 1:0.0576 2:0.0581 3:0.0962 4:0.1302 5:0.20821 6:0.3164 7:0.2391 
-1 1:0.0497 2:0.0515 3:0.0895 4:0.13021 5:0.1881 6:0.3182 7:0.2478 
-1 1:0 2:0.056 3:0.079 4:0.0955 5:0.1993 6:0.2705 7:0.1954 
-1 1:0.1126 2:0.13321 3:0.235 4:0.3377 5:0.4504 6:0.5967 7:0.5323 
-1 1:0.141 2:0.1607 3:0.2694 4:0.38321 5:0.5016 6:0.6502 7:0.5889 
-1 1:0.0982 2:0.1075 3:0.1921 4:0.2491 5:0.4596 6:0.5124 7:0.3996 
-1 1:0.2775 2:0.2576 3:0.322 4:0.3692 5:0.4943 6:0.5196 7:0.4026 
-1 1:0.141 2:0.1603 3:0.2621 4:0.3622 5:0.4817 6:0.617 7:0.5255 
-1 1:0.1592 2:0.1822 3:0.2776 4:0.3701 5:0.4748 6:0.6064 7:0.5299 
-1 1:0.1361 2:0.1561 3:0.2541 4:0.3487 5:0.4514 6:0.5906 7:0.5262 
-1 1:0.1791 2:0.1997 3:0.2964 4:0.4041 5:0.5174 6:0.6623 7:0.6038 
-1 1:0.16 2:0.1801 3:0.276 4:0.3792 5:0.4896 6:0.6337 7:0.568 
-1 1:0.1045 2:0.13 3:0.2401 4:0.3643 5:0.483 6:0.5942 7:0.4954 
-1 1:0.13921 2:0.1652 3:0.2852 4:0.4219 5:0.5434 6:0.6676 7:0.5709 
-1 1:0.13221 2:0.151 3:0.2517 4:0.3581 5:0.4972 6:0.6122 7:0.5037 
-1 1:0.1003 2:0.1214 3:0.2325 4:0.3463 5:0.5386 6:0.6355 7:0.4861 
-1 1:0 2:0.1405 3:0.23221 4:0.2955 5:0.4831 6:0.488 7:0.3615 
-1 1:0.102 2:0.1301 3:0.2247 4:0.3244 5:0.4207 6:0.529 7:0.4216 
-1 1:0.12521 2:0.1472 3:0.2485 4:0.3589 5:0.463 6:0.6015 7:0.5187 
-1 1:0.1323 2:0.1468 3:0.2401 4:0.3327 5:0.4636 6:0.5665 7:0.454 
-1 1:0.09221 2:0.1019 3:0.1857 4:0.2523 5:0.4626 6:0.491 7:0.3485 
-1 1:0.0623 2:0.0717 3:0.1081 4:0.144 5:0.2223 6:0.2941 7:0.1972 
-1 1:0.0995 2:0.1075 3:0.153 4:0.1966 5:0.2723 6:0.3585 7:0.2535 
-1 1:0.0883 2:0.0902 3:0.1307 4:0.1467 5:0.2964 6:0.3136 7:0.1896 
-1 1:0.0647 2:0.07 3:0.1043 4:0.1282 5:0.2333 6:0.3023 7:0.1882 
-1 1:0 2:0.2571 3:0.28721 4:0.288 5:0.4572 6:0.3599 7:0.2646 
-1 1:0.042 2:0.0496 3:0.0873 4:0.14 5:0.2414 6:0.30021 7:0.1971 
-1 1:0.0557 2:0.0601 3:0.1032 4:0.1482 5:0.2432 6:0.307 7:0.2118 
-1 1:0.10621 2:0.1023 3:0.1402 4:0.1521 5:0.3196 6:0.264 7:0.1733 
-1 1:0.0487 2:0.0484 3:0.0705 4:0.0995 5:0.166 6:0.2536 7:0.2248 
-1 1:0.1087 2:0.1103 3:0.1414 4:0.167 5:0.233 6:0.2851 7:0.2418 
-1 1:0.0755 2:0.0746 3:0.0981 4:0.1277 5:0.1987 6:0.2762 7:0.2394 
-1 1:0.0874 2:0.0887 3:0.1166 4:0.1446 5:0.2207 6:0.28621 7:0.2437 
-1 1:0.094 2:0.09521 3:0.1363 4:0.1722 5:0.2122 6:0.2496 7:0.2192 
-1 1:0.0955 2:0.0953 3:0.1382 4:0.1728 5:0.2145 6:0.2553 7:0.2216 
-1 1:0.1115 2:0.1123 3:0.1563 4:0.1982 5:0.2387 6:0.2887 7:0.2568 
-1 1:0.10321 2:0.1055 3:0.1501 4:0.1936 5:0.2339 6:0.2874 7:0.2456 
-1 1:0 2:0.0852 3:0.1235 4:0.1476 5:0.2161 6:0.2344 7:0.2013 
-1 1:0.123 2:0.1304 3:0.184 4:0.24521 5:0.3502 6:0.425 7:0.3071 
-1 1:0.0902 2:0.103 3:0.1598 4:0.2303 5:0.3457 6:0.4407 7:0.3086 
-1 1:0.0822 2:0.0892 3:0.1474 4:0.2023 5:0.356 6:0.4126 7:0.3051 
-1 1:0.045 2:0.0502 3:0.0871 4:0.12821 5:0.2595 6:0.3294 7:0.2313 
-1 1:0.1162 2:0.1224 3:0.1906 4:0.2947 5:0.3956 6:0.5326 7:0.4828 
-1 1:0.09121 2:0.0984 3:0.1672 4:0.2773 5:0.3834 6:0.5357 7:0.4736 
-1 1:0.0992 2:0.1073 3:0.1816 4:0.298 5:0.4058 6:0.5474 7:0.4756 
-1 1:0.0551 2:0.0592 3:0.1226 4:0.20321 5:0.3894 6:0.4442 7:0.3734 
-1 1:0.1167 2:0.1256 3:0.1986 4:0.3067 5:0.4141 6:0.5292 7:0.4646 
-1 1:0.0963 2:0.1055 3:0.17521 4:0.2832 5:0.3839 6:0.5134 7:0.4551 
-1 1:0.09021 2:0.0994 3:0.1749 4:0.2956 5:0.4007 6:0.54 7:0.4793 
-1 1:0.0653 2:0.0776 3:0.1423 4:0.2361 5:0.3893 6:0.4805 7:0.3847 
-1 1:0.0503 2:0.0514 3:0.0823 4:0.1204 5:0.218 6:0.283 7:0.1981 
-1 1:0.077 2:0.08121 3:0.125 4:0.1733 5:0.2822 6:0.3559 7:0.2645 
-1 1:0.1293 2:0.127 3:0.1656 4:0.2081 5:0.3303 6:0.3763 7:0.2785 
-1 1:0.0245 2:0.0301 3:0.0622 4:0.10421 5:0.2379 6:0.2901 7:0.1857 
-1 1:0.08021 2:0.0803 3:0.1134 4:0.1603 5:0.3103 6:0.3419 7:0.2259 
-1 1:0.0326 2:0.03421 3:0.0686 4:0.1182 5:0.2481 6:0.3119 7:0.2029 
-1 1:0.05 2:0.0502 3:0.0838 4:0.1151 5:0.2822 6:0.3136 7:0.208 
-1 1:0.1024 2:0.1027 3:0.1291 4:0.1502 5:0.2282 6:0.2866 7:0.2049 
-1 1:0.06321 2:0.0607 3:0.0841 4:0.105 5:0.206 6:0.2805 7:0.1887 
-1 1:0.14621 2:0.1511 3:0.1927 4:0.2341 5:0.3039 6:0.3835 7:0.3627 
-1 1:0.1372 2:0.141 3:0.1822 4:0.2242 5:0.3054 6:0.37721 7:0.349 
-1 1:0.067 2:0.0646 3:0.1016 4:0.1055 5:0.3 6:0.27421 7:0.1838 
-1 1:0.0602 2:0.0683 3:0.1115 4:0.1643 5:0.3032 6:0.3895 7:0.2977 
-1 1:0.18621 2:0.1642 3:0.1575 4:0.1459 5:0.4241 6:0.2313 7:0.1554 
-1 1:0.0834 2:0.0795 3:0.1056 4:0.1191 5:0.2294 6:0.221 7:0.166 
-1 1:0.2862 2:0.2592 3:0.2714 4:0.2634 5:0.4807 6:0.33 7:0.2395 
-1 1:0 2:0.29321 3:0.3252 4:0.3109 5:0.4983 6:0.3523 7:0.3031 
-1 1:0 2:0.1627 3:0.1841 4:0.16921 5:0.3143 6:0.268 7:0.218 
-1 1:0.0727 2:0.0754 3:0.114 4:0.1655 5:0.2582 6:0.2916 7:0.234 
-1 1:0.0424 2:0.0434 3:0.0872 4:0.16 5:0.2552 6:0.3554 7:0.2956 
-1 1:0.045 2:0.0466 3:0.0902 4:0.1721 5:0.273 6:0.378 7:0.316 
-1 1:0.0304 2:0.0296 3:0.066 4:0.1321 5:0.2067 6:0.2942 7:0.2487 
-1 1:0.0382 2:0.03521 3:0.0701 4:0.1107 5:0.2607 6:0.2939 7:0.221 
-1 1:0.03821 2:0.0372 3:0.0748 4:0.1288 5:0.2232 6:0.2862 7:0.2325 
-1 1:0.0502 2:0.0526 3:0.0991 4:0.1731 5:0.2807 6:0.3762 7:0.3067 
-1 1:0.0482 2:0.0523 3:0.099 4:0.1838 5:0.2763 6:0.3855 7:0.3223 
-1 1:0.049 2:0.0482 3:0.0894 4:0.15421 5:0.2772 6:0.3683 7:0.2995 
-1 1:0.025 2:0.0277 3:0.0602 4:0.095 5:0.1741 6:0.22421 7:0.1827 
-1 1:0.0244 2:0.027 3:0.0687 4:0.1023 5:0.2617 6:0.2748 7:0.2189 
-1 1:0.03821 2:0.0444 3:0.0882 4:0.1551 5:0.2511 6:0.3349 7:0.2797 
-1 1:0.0306 2:0.0337 3:0.0685 4:0.1191 5:0.1934 6:0.2723 7:0.2299 
-1 1:0.032 2:0.0327 3:0.0735 4:0.11 5:0.2561 6:0.2846 7:0.2247 
-1 1:0 2:0.1635 3:0.21421 4:0.2592 5:0.3902 6:0.1321 7:0.0905 
-1 1:0.0553 2:0.0595 3:0.0934 4:0.1354 5:0.2003 6:0.268 7:0.2151 
-1 1:0.0676 2:0.07321 3:0.1151 4:0.1665 5:0.2399 6:0.3142 7:0.2526 
-1 1:0.10721 2:0.1082 3:0.1411 4:0.1733 5:0.2436 6:0.2917 7:0.2327 
-1 1:0.0465 2:0.0462 3:0.0721 4:0.1042 5:0.176 6:0.2355 7:0.1848 
-1 1:0.04821 2:0.0597 3:0.1009 4:0.1655 5:0.2623 6:0.3165 7:0.1952 
-1 1:0.048 2:0.0587 3:0.1052 4:0.17321 5:0.2757 6:0.3231 7:0.197 
-1 1:0.0282 2:0.03621 3:0.0719 4:0.1335 5:0.2499 6:0.2898 7:0.1685 
-1 1:0.0807 2:0.0771 3:0.0923 4:0.1055 5:0.1657 6:0.2091 7:0.1919 
-1 1:0.05521 2:0.0539 3:0.0755 4:0.1007 5:0.1757 6:0.2256 7:0.1979 
-1 1:0.07721 2:0.0726 3:0.0942 4:0.1116 5:0.2264 6:0.2423 7:0.2032 
-1 1:0.0775 2:0.0862 3:0.1323 4:0.18021 5:0.2757 6:0.3933 7:0.3252 
-1 1:0.1032 2:0.1107 3:0.1544 4:0.2067 5:0.306 6:0.4165 7:0.3375 
-1 1:0.0505 2:0.0563 3:0.09121 4:0.1294 5:0.2581 6:0.3292 7:0.2445 
-1 1:0 2:0.0816 3:0.1283 4:0.1305 5:0.3093 6:0.3057 7:0.2255 
-1 1:0.0835 2:0.0872 3:0.1362 4:0.1701 5:0.3015 6:0.3733 7:0.2827 
-1 1:0.0973 2:0.1056 3:0.1702 4:0.2247 5:0.3511 6:0.46221 7:0.3542 
-1 1:0.1001 2:0.1102 3:0.1727 4:0.2437 5:0.3421 6:0.4841 7:0.3901 
-1 1:0.1027 2:0.1123 3:0.1756 4:0.249 5:0.3476 6:0.4821 7:0.392 
-1 1:0.0647 2:0.0642 3:0.0992 4:0.1291 5:0.23721 6:0.324 7:0.2546 
-1 1:0.1077 2:0.1154 3:0.1672 4:0.225 5:0.3634 6:0.4752 7:0.392 
-1 1:0.0924 2:0.1071 3:0.1641 4:0.2336 5:0.3352 6:0.4448 7:0.3428 
-1 1:0.09921 2:0.1117 3:0.1672 4:0.2391 5:0.3382 6:0.443 7:0.3425 
-1 1:0.1162 2:0.0992 3:0.1415 4:0.1171 5:0.4302 6:0.2342 7:0.1556 
-1 1:0.0541 2:0.0524 3:0.0751 4:0.103 5:0.1502 6:0.2434 7:0.2354 
-1 1:0.0382 2:0.0405 3:0.0648 4:0.1003 5:0.2162 6:0.303 7:0.1894 
-1 1:0.09821 2:0.1047 3:0.148 4:0.1926 5:0.2852 6:0.3829 7:0.3338 
-1 1:0.2534 2:0.229 3:0.2452 4:0.228 5:0.4422 6:0.3384 7:0.2499 
-1 1:0.0383 2:0.0403 3:0.06821 4:0.0922 5:0.2436 6:0.272 7:0.1766 
-1 1:0.055 2:0.0537 3:0.0752 4:0.1081 5:0.2124 6:0.2842 7:0.2071 
-1 1:0.0415 2:0.0414 3:0.0595 4:0.0825 5:0.14221 6:0.2155 7:0.1916 
-1 1:0.0653 2:0.0655 3:0.12221 4:0.1601 5:0.3425 6:0.3345 7:0.2247 
-1 1:0.0517 2:0.0525 3:0.1062 4:0.149 5:0.3105 6:0.33521 7:0.2482 
-1 1:0.0683 2:0.0662 3:0.106 4:0.1485 5:0.2566 6:0.3435 7:0.2657 
-1 1:0.0914 2:0.0861 3:0.1164 4:0.1586 5:0.2732 6:0.3711 7:0.2768 
-1 1:0 2:0.0753 3:0.1235 4:0.1586 5:0.3072 6:0.3453 7:0.2504 
-1 1:0.0676 2:0.0662 3:0.0845 4:0.0966 5:0.2066 6:0.2605 7:0.1914 
-1 1:0.1127 2:0.1054 3:0.1332 4:0.1527 5:0.24321 6:0.3506 7:0.2763 
-1 1:0.24021 2:0.2351 3:0.27 4:0.3062 5:0.4358 6:0.51 7:0.4313 
-1 1:0.1991 2:0.1934 3:0.2203 4:0.2537 5:0.3735 6:0.4372 7:0.3714 
-1 1:0.1883 2:0.1865 3:0.2224 4:0.2593 5:0.3706 6:0.4432 7:0.3844 
-1 1:0.1832 2:0.1823 3:0.215 4:0.2515 5:0.3647 6:0.4743 7:0.4253 
-1 1:0.0947 2:0.0926 3:0.1426 4:0.1675 5:0.3455 6:0.3842 7:0.3111 
-1 1:0.0494 2:0.0421 3:0.06121 4:0.0787 5:0.2173 6:0.3057 7:0.1915 
-1 1:0.10221 2:0.0971 3:0.1382 4:0.1604 5:0.3519 6:0.3487 7:0.2615 
-1 1:0.209 2:0.2107 3:0.2524 4:0.2837 5:0.4694 6:0.4902 7:0.3971 
-1 1:0.1491 2:0.1464 3:0.1861 4:0.2217 5:0.34221 6:0.4004 7:0.333 
-1 1:0.1164 2:0.1171 3:0.1514 4:0.1926 5:0.2852 6:0.3891 7:0.3096 
-1 1:0.1903 2:0.1901 3:0.2326 4:0.2766 5:0.3492 6:0.4476 7:0.4314 
-1 1:0.0877 2:0.0852 3:0.1092 4:0.1213 5:0.3 6:0.33121 7:0.2295 
-1 1:0.0632 2:0.0602 3:0.0852 4:0.1057 5:0.2567 6:0.3016 7:0.2084 
-1 1:0.0693 2:0.0671 3:0.0917 4:0.115 5:0.2482 6:0.3243 7:0.2526 
-1 1:0.08221 2:0.081 3:0.1082 4:0.1298 5:0.2522 6:0.3564 7:0.2961 
-1 1:0 2:0.1995 3:0.1947 4:0.1914 5:0.3034 6:0.2434 7:0.1891 
-1 1:0.1801 2:0.1852 3:0.2247 4:0.2525 5:0.42421 6:0.4575 7:0.3721 
-1 1:0.1352 2:0.131 3:0.15121 4:0.1757 5:0.2728 6:0.2983 7:0.2321 
-1 1:0.1617 2:0.1594 3:0.2044 4:0.2587 5:0.36921 6:0.4271 7:0.377 
-1 1:0.1582 2:0.15821 3:0.1995 4:0.2466 5:0.3681 6:0.4717 7:0.4278 
-1 1:0 2:0.2284 3:0.2742 4:0.308 5:0.4957 6:0.4986 7:0.3735 
-1 1:0.0515 2:0.0477 3:0.0721 4:0.0902 5:0.28421 6:0.2923 7:0.1777 
-1 1:0.061 2:0.064 3:0.0963 4:0.1332 5:0.2988 6:0.3688 7:0.2348 
-1 1:0.0591 2:0.0565 3:0.0894 4:0.1037 5:0.29521 6:0.2696 7:0.1804 
-1 1:0.0477 2:0.0464 3:0.0741 4:0.10821 5:0.2375 6:0.2943 7:0.2074 
-1 1:0.08521 2:0.0877 3:0.1251 4:0.1724 5:0.2804 6:0.3399 7:0.2743 
-1 1:0.1002 2:0.1008 3:0.1451 4:0.1772 5:0.3478 6:0.3678 7:0.2721 
-1 1:0 2:0.1673 3:0.1902 4:0.1822 5:0.364 6:0.2402 7:0.172 
-1 1:0.0605 2:0.0607 3:0.0914 4:0.1452 5:0.2815 6:0.37 7:0.2406 
-1 1:0.0785 2:0.0772 3:0.1215 4:0.173 5:0.2591 6:0.4027 7:0.3255 
-1 1:0.077 2:0.0684 3:0.0817 4:0.10021 5:0.1665 6:0.2369 7:0.1926 
-1 1:0.0622 2:0.057 3:0.0763 4:0.103 5:0.1692 6:0.2381 7:0.1909 
-1 1:0.229 2:0.2347 3:0.1707 4:0.2106 5:0.3284 6:0.3222 7:0.2405 
-1 1:0.0523 2:0.0462 3:0.0712 4:0.0944 5:0.15221 6:0.2196 7:0.2015 
-1 1:0.065 2:0.0597 3:0.0823 4:0.1052 5:0.1682 6:0.25521 7:0.2447 
-1 1:0.1941 2:0.1772 3:0.2056 4:0.1954 5:0.3702 6:0.25821 7:0.2107 
-1 1:0.0657 2:0.0594 3:0.0752 4:0.09121 5:0.1943 6:0.2902 7:0.1828 
-1 1:0 2:0.08821 3:0.1126 4:0.1227 5:0.2062 6:0.305 7:0.2267 
-1 1:0.0223 2:0.0231 3:0.0541 4:0.0853 5:0.21221 6:0.2943 7:0.1843 
-1 1:0.0676 2:0.06021 3:0.0787 4:0.0946 5:0.1422 6:0.2069 7:0.2016 
-1 1:0.0923 2:0.0852 3:0.1222 4:0.1265 5:0.4305 6:0.3105 7:0.1917 
-1 1:0.1086 2:0.1056 3:0.1346 4:0.1742 5:0.2617 6:0.3595 7:0.316 
-1 1:0 2:0.1016 3:0.1281 4:0.1452 5:0.3251 6:0.3331 7:0.2453 
-1 1:0.0852 2:0.0767 3:0.0834 4:0.0962 5:0.132 6:0.21821 7:0.2145 
-1 1:0 2:0.0716 3:0.0852 4:0.0995 5:0.1746 6:0.2822 7:0.1809 
-1 1:0.0252 2:0.0291 3:0.0608 4:0.0968 5:0.2125 6:0.3296 7:0.2237 
-1 1:0 2:0.1113 3:0.1225 4:0.144 5:0.2516 6:0.3752 7:0.2705 
-1 1:0.0751 2:0.07221 3:0.1084 4:0.1221 5:0.3216 6:0.3161 7:0.2374 
-1 1:0.0597 2:0.058 3:0.0892 4:0.1053 5:0.2856 6:0.2987 7:0.2106 
-1 1:0.0502 2:0.04921 3:0.0921 4:0.1144 5:0.2452 6:0.3042 7:0.261 
-1 1:0.0877 2:0.0862 3:0.1213 4:0.1528 5:0.2822 6:0.35121 7:0.2907 
-1 1:0 2:0.2092 3:0.2103 4:0.2115 5:0.2942 6:0.2508 7:0.1908 
-1 1:0.0396 2:0.0392 3:0.0827 4:0.1042 5:0.2815 6:0.2593 7:0.1837 
-1 1:0.2864 2:0.26521 3:0.2863 4:0.2999 5:0.4231 6:0.3856 7:0.3401 
-1 1:0.0346 2:0.0365 3:0.0623 4:0.0967 5:0.2131 6:0.2803 7:0.188 
-1 1:0.10821 2:0.1076 3:0.1456 4:0.1885 5:0.3289 6:0.37 7:0.286 
-1 1:0.0703 2:0.0651 3:0.0995 4:0.1232 5:0.2546 6:0.3314 7:0.2497 
-1 1:0.087 2:0.0851 3:0.11121 4:0.1439 5:0.2632 6:0.3796 7:0.3051 
-1 1:0 2:0.1474 3:0.1771 4:0.1642 5:0.3992 6:0.273 7:0.1748 
-1 1:0.2063 2:0.1972 3:0.2195 4:0.2276 5:0.4444 6:0.3943 7:0.2994 
-1 1:0.047 2:0.0452 3:0.0707 4:0.0923 5:0.2346 6:0.2683 7:0.1899 
-1 1:0.0822 2:0.0823 3:0.1093 4:0.1398 5:0.2868 6:0.35921 7:0.2636 
-1 1:0.0806 2:0.0856 3:0.1211 4:0.1593 5:0.2803 6:0.3911 7:0.3181 
-1 1:0.0544 2:0.0502 3:0.0755 4:0.0957 5:0.2133 6:0.23621 7:0.1704 
-1 1:0.1637 2:0.1597 3:0.1935 4:0.2085 5:0.4081 6:0.4153 7:0.3071 
-1 1:0.0756 2:0.0742 3:0.1023 4:0.1282 5:0.2524 6:0.3598 7:0.2716 
-1 1:0.0742 2:0.07821 3:0.1085 4:0.1467 5:0.2532 6:0.3854 7:0.3202 
-1 1:0.2162 2:0.1948 3:0.1661 4:0.1672 5:0.1698 6:0.1813 7:0.1523 
-1 1:0.1606 2:0.1421 3:0.1342 4:0.1314 5:0.1326 6:0.1327 7:0.1234 
-1 1:0.7815 2:0.7231 3:0.6995 4:0.7025 5:0.6782 6:0.5763 7:0.5075 
-1 1:0 2:0.1304 3:0.15521 4:0.1602 5:0.164 6:0.1319 7:0.1164 
-1 1:0.1454 2:0.1587 3:0.207 4:0.16621 5:0.0152 6:0.0104 7:0.0087 
-1 1:0.125 2:0.1365 3:0.1744 4:0.1321 5:0.1007 6:0.0872 7:0.0748 
-1 1:0 2:0.1716 3:0.15021 4:0.1396 5:0.1446 6:0.102 7:0.0928 
-1 1:0.14421 2:0.1461 3:0.2009 4:0.1723 5:0.0584 6:0.0499 7:0.0451 
-1 1:0.155 2:0.1615 3:0.212 4:0.154 5:0.0443 6:0.0413 7:0.0362 
-1 1:0.1471 2:0.1526 3:0.2022 4:0.168 5:0.0211 6:0.0133 7:0.0114 
-1 1:0.2347 2:0.2652 3:0.327 4:0.2064 5:0.015 6:0.0152 7:0.0147 
-1 1:0.2226 2:0.2535 3:0.316 4:0.2022 5:0.0023 6:0.0034 7:0.0032 
-1 1:0.1875 2:0.2091 3:0.2664 4:0.1604 5:0.013 6:0.01121 7:0.0115 
-1 1:0.18421 2:0.2039 3:0.2649 4:0.1947 5:0.0392 6:0.0299 7:0.025 
-1 1:0.2272 2:0.1881 3:0.1451 4:0.1404 5:0.131 6:0.0742 7:0.0741 
